{"learner":{"attributes":{},"feature_names":["sma_50_slope","rs_line_lag_delta","rs","rs_ma","mom_21d","mom_252d","price_accel_10d","rs_sector_rank","rs_vs_sector","sector_momentum","rs_industry_rank","rs_vs_industry","industry_momentum","vol_ratio","turnover","volume_acceleration","return_1d","return_5d","natr","vcp_ratio","consolidation_width","dist_from_20d_high","rsi_14","breakout_momentum","immediate_thrust","eps_diluted","revenue_growth_yoy","eps_growth_yoy","revenue_accel","revenue_cagr_3y","eps_stability_score","debt_to_equity","current_ratio","gross_margin","operating_margin","roe","roa","fcf_margin","earnings_quality_score","gross_margin_trend","pe_ratio","pb_ratio","alpha001","alpha004","alpha006","alpha009","alpha011","alpha012","alpha013","alpha015","alpha041","alpha046","alpha049","alpha054","alpha060","m03_score","m03_pillar_trend","m03_pillar_liq","m03_pillar_risk","m03_delta_5d","m03_delta_20d","m03_regime_vol","adr_20d","alpha008","atr_pct_chg","dollar_volume_avg_20","ema_21_50_ratio","ema_50_100_ratio","ema_8_21_ratio","gap_risk_ratio","industry","mom_21d_vol_adj","mom_slope_21_63","mom_slope_63_126","net_income","peg_adjusted","price_vs_sma_50_vol_adj","price_vs_spy_ma63","return_60d","revenue","rs_universe_rank","sector","shares_outstanding","sma_ratio_150_200","volatility_20d","volume_velocity_2d"],"feature_types":["float","float","float","float","float","float","float","float","float","float","float","float","float","float","float","float","float","float","float","float","float","float","float","float","float","float","float","float","float","float","float","float","float","float","float","float","float","float","float","float","float","float","float","float","float","float","float","float","float","float","float","float","float","float","float","float","float","float","float","float","float","float","float","float","float","float","float","float","float","float","c","float","float","float","float","float","float","float","float","float","float","c","int","float","float","float"],"gradient_booster":{"model":{"cats":{"enc":[{"offsets":[],"values":[]},{"offsets":[],"values":[]},{"offsets":[],"values":[]},{"offsets":[],"values":[]},{"offsets":[],"values":[]},{"offsets":[],"values":[]},{"offsets":[],"values":[]},{"offsets":[],"values":[]},{"offsets":[],"values":[]},{"offsets":[],"values":[]},{"offsets":[],"values":[]},{"offsets":[],"values":[]},{"offsets":[],"values":[]},{"offsets":[],"values":[]},{"offsets":[],"values":[]},{"offsets":[],"values":[]},{"offsets":[],"values":[]},{"offsets":[],"values":[]},{"offsets":[],"values":[]},{"offsets":[],"values":[]},{"offsets":[],"values":[]},{"offsets":[],"values":[]},{"offsets":[],"values":[]},{"offsets":[],"values":[]},{"offsets":[],"values":[]},{"offsets":[],"values":[]},{"offsets":[],"values":[]},{"offsets":[],"values":[]},{"offsets":[],"values":[]},{"offsets":[],"values":[]},{"offsets":[],"values":[]},{"offsets":[],"values":[]},{"offsets":[],"values":[]},{"offsets":[],"values":[]},{"offsets":[],"values":[]},{"offsets":[],"values":[]},{"offsets":[],"values":[]},{"offsets":[],"values":[]},{"offsets":[],"values":[]},{"offsets":[],"values":[]},{"offsets":[],"values":[]},{"offsets":[],"values":[]},{"offsets":[],"values":[]},{"offsets":[],"values":[]},{"offsets":[],"values":[]},{"offsets":[],"values":[]},{"offsets":[],"values":[]},{"offsets":[],"values":[]},{"offsets":[],"values":[]},{"offsets":[],"values":[]},{"offsets":[],"values":[]},{"offsets":[],"values":[]},{"offsets":[],"values":[]},{"offsets":[],"values":[]},{"offsets":[],"values":[]},{"offsets":[],"values":[]},{"offsets":[],"values":[]},{"offsets":[],"values":[]},{"offsets":[],"values":[]},{"offsets":[],"values":[]},{"offsets":[],"values":[]},{"offsets":[],"values":[]},{"offsets":[],"values":[]},{"offsets":[],"values":[]},{"offsets":[],"values":[]},{"offsets":[],"values":[]},{"offsets":[],"values":[]},{"offsets":[],"values":[]},{"offsets":[],"values":[]},{"offsets":[],"values":[]},{"offsets":[0,20,40,54,79],"values":[65,117,116,111,32,45,32,77,97,110,117,102,97,99,116,117,114,101,114,115,67,111,110,115,117,109,101,114,32,69,108,101,99,116,114,111,110,105,99,115,83,101,109,105,99,111,110,100,117,99,116,111,114,115,83,111,102,116,119,97,114,101,32,45,32,73,110,102,114,97,115,116,114,117,99,116,117,114,101]},{"offsets":[],"values":[]},{"offsets":[],"values":[]},{"offsets":[],"values":[]},{"offsets":[],"values":[]},{"offsets":[],"values":[]},{"offsets":[],"values":[]},{"offsets":[],"values":[]},{"offsets":[],"values":[]},{"offsets":[],"values":[]},{"offsets":[],"values":[]},{"offsets":[0,17,27],"values":[67,111,110,115,117,109,101,114,32,67,121,99,108,105,99,97,108,84,101,99,104,110,111,108,111,103,121]},{"offsets":[],"values":[]},{"offsets":[],"values":[]},{"offsets":[],"values":[]},{"offsets":[],"values":[]}],"feature_segments":[0,0,0,0,0,0,0,0,0,0,0,0,0,0,0,0,0,0,0,0,0,0,0,0,0,0,0,0,0,0,0,0,0,0,0,0,0,0,0,0,0,0,0,0,0,0,0,0,0,0,0,0,0,0,0,0,0,0,0,0,0,0,0,0,0,0,0,0,0,0,0,4,4,4,4,4,4,4,4,4,4,4,6,6,6,6,6],"sorted_idx":[0,1,2,3,0,1]},"gbtree_model_param":{"num_parallel_tree":"1","num_trees":"300"},"iteration_indptr":[0,1,2,3,4,5,6,7,8,9,10,11,12,13,14,15,16,17,18,19,20,21,22,23,24,25,26,27,28,29,30,31,32,33,34,35,36,37,38,39,40,41,42,43,44,45,46,47,48,49,50,51,52,53,54,55,56,57,58,59,60,61,62,63,64,65,66,67,68,69,70,71,72,73,74,75,76,77,78,79,80,81,82,83,84,85,86,87,88,89,90,91,92,93,94,95,96,97,98,99,100,101,102,103,104,105,106,107,108,109,110,111,112,113,114,115,116,117,118,119,120,121,122,123,124,125,126,127,128,129,130,131,132,133,134,135,136,137,138,139,140,141,142,143,144,145,146,147,148,149,150,151,152,153,154,155,156,157,158,159,160,161,162,163,164,165,166,167,168,169,170,171,172,173,174,175,176,177,178,179,180,181,182,183,184,185,186,187,188,189,190,191,192,193,194,195,196,197,198,199,200,201,202,203,204,205,206,207,208,209,210,211,212,213,214,215,216,217,218,219,220,221,222,223,224,225,226,227,228,229,230,231,232,233,234,235,236,237,238,239,240,241,242,243,244,245,246,247,248,249,250,251,252,253,254,255,256,257,258,259,260,261,262,263,264,265,266,267,268,269,270,271,272,273,274,275,276,277,278,279,280,281,282,283,284,285,286,287,288,289,290,291,292,293,294,295,296,297,298,299,300],"tree_info":[0,0,0,0,0,0,0,0,0,0,0,0,0,0,0,0,0,0,0,0,0,0,0,0,0,0,0,0,0,0,0,0,0,0,0,0,0,0,0,0,0,0,0,0,0,0,0,0,0,0,0,0,0,0,0,0,0,0,0,0,0,0,0,0,0,0,0,0,0,0,0,0,0,0,0,0,0,0,0,0,0,0,0,0,0,0,0,0,0,0,0,0,0,0,0,0,0,0,0,0,0,0,0,0,0,0,0,0,0,0,0,0,0,0,0,0,0,0,0,0,0,0,0,0,0,0,0,0,0,0,0,0,0,0,0,0,0,0,0,0,0,0,0,0,0,0,0,0,0,0,0,0,0,0,0,0,0,0,0,0,0,0,0,0,0,0,0,0,0,0,0,0,0,0,0,0,0,0,0,0,0,0,0,0,0,0,0,0,0,0,0,0,0,0,0,0,0,0,0,0,0,0,0,0,0,0,0,0,0,0,0,0,0,0,0,0,0,0,0,0,0,0,0,0,0,0,0,0,0,0,0,0,0,0,0,0,0,0,0,0,0,0,0,0,0,0,0,0,0,0,0,0,0,0,0,0,0,0,0,0,0,0,0,0,0,0,0,0,0,0,0,0,0,0,0,0,0,0,0,0,0,0,0,0,0,0,0,0,0,0,0,0,0,0,0,0,0,0,0,0],"trees":[{"base_weights":[-1.715612E-3,-2.7151935E-2,1.7370518E-1,-7.5049372E-3,-1.6776626E-1,-2.8645834E-1,2.1163793E-1,1.3413242E-1,-2.5967263E-2,2.0567375E-1,-2.247557E-1,9.52381E-3,-4.1447368E-1,-3.090909E-1,2.3734178E-1,1.6686967E-1,-3.482143E-1,-4.6357617E-1,-1.5905632E-2,-1.4102565E-2,3.883495E-1,7.692308E-2,-2.5752106E-1,-1.2E-2,-2.4519231E-2,-2.4242425E-2,-2.1739132E-3,3.1383738E-1,1.046798E-1,4.016854E-1,1.0170808E-1,-4.761905E-3,-2.4305556E-2,-1.4285715E-2,-2.4427481E-2,4.3904647E-2,-7.675775E-2,6E-3,2.3417722E-2,3.75E-1,-2.4218751E-2,-7.4152544E-2,-3.29698E-1,1.9808307E-1,4.0616965E-1,2.34375E-2,1.529052E-2,9.166667E-3,2.2147652E-2,-4.320988E-3,1.0758706E-2,-1.8218624E-3,6.57314E-3,-1.519174E-2,-2.5179856E-3,1.0000001E-2,2.4305556E-2,3.0448718E-3,-1.6666668E-2,-2.1693548E-2,-1.0801394E-2,1.3468635E-2,-1.2790698E-2,8.552632E-3,2.1519886E-2,-1.2828948E-2,4.8611113E-3],"categories":[],"categories_nodes":[],"categories_segments":[],"categories_sizes":[],"default_left":[0,0,0,0,0,0,0,0,0,0,0,0,0,0,1,1,0,0,0,0,0,0,0,0,0,0,0,0,0,0,0,0,0,0,0,0,0,0,0,0,0,0,0,0,0,0,0,0,0,0,0,0,0,0,0,0,0,0,0,0,0,0,0,0,0,0,0],"id":0,"left_children":[1,3,5,7,9,11,13,15,17,19,21,-1,23,25,27,29,31,33,35,-1,37,39,41,-1,-1,-1,-1,43,45,47,49,-1,-1,-1,-1,51,53,-1,-1,55,-1,57,59,61,63,-1,65,-1,-1,-1,-1,-1,-1,-1,-1,-1,-1,-1,-1,-1,-1,-1,-1,-1,-1,-1,-1],"loss_changes":[4.421927E1,2.3909472E1,2.1966988E1,1.9864065E1,2.2626574E1,5.9402213E0,1.5599651E1,1.3890764E1,2.9581184E1,1.2672007E1,9.123539E0,0E0,8.8888645E-1,2.5465088E0,1.1190895E1,1.252124E1,1.9072423E0,5.311279E-1,2.3915426E1,0E0,2.1551332E0,1.5406851E1,1.0973812E1,0E0,0E0,0E0,0E0,7.4117355E0,1.3205686E1,1.522728E0,1.3765499E1,0E0,0E0,0E0,0E0,2.3317413E1,1.9508423E1,0E0,0E0,1.0694447E0,0E0,8.280856E0,6.963722E0,1.0197011E1,2.1422882E0,0E0,7.308781E0,0E0,0E0,0E0,0E0,0E0,0E0,0E0,0E0,0E0,0E0,0E0,0E0,0E0,0E0,0E0,0E0,0E0,0E0,0E0,0E0],"parents":[2147483647,0,0,1,1,2,2,3,3,4,4,5,5,6,6,7,7,8,8,9,9,10,10,12,12,13,13,14,14,15,15,16,16,17,17,18,18,20,20,21,21,22,22,27,27,28,28,29,29,30,30,35,35,36,36,39,39,41,41,42,42,43,43,44,44,46,46],"right_children":[2,4,6,8,10,12,14,16,18,20,22,-1,24,26,28,30,32,34,36,-1,38,40,42,-1,-1,-1,-1,44,46,48,50,-1,-1,-1,-1,52,54,-1,-1,56,-1,58,60,62,64,-1,66,-1,-1,-1,-1,-1,-1,-1,-1,-1,-1,-1,-1,-1,-1,-1,-1,-1,-1,-1,-1],"split_conditions":[2.176663E1,5.585211E0,-1.6257143E2,-2.671591E0,1.96E1,7.431444E-1,8.306814E-1,8.088226E9,1.4833307E8,1.8483073E-5,1.0940114E1,3.3413745E-2,9.322984E-2,2.4291187E1,-2.1903862E-1,-3.156E-2,-2.916761E0,6.47587E-1,1.5748376E1,-1.4063251E-1,6.851852E-1,7.096774E-1,-4.726E-1,-3.6888406E-1,-5.227742E-1,-5.500554E-1,-5.559854E-2,1.2868252E0,6E-3,1.6325E1,-1.1293274E0,-1.9097441E-1,-1.1070626E0,-6.338094E-1,-8.23884E-1,2.402178E9,2.9009524E-1,1.0790455E-1,5.063073E-1,5.9016395E-1,-4.1380858E-1,4.08E1,4.8786396E-1,1.0917028E10,4.259936E-1,9.885632E-1,1.856975E-2,3.6862367E-1,6.52253E-1,-1.008599E-1,1.9647019E-1,-2.8553238E-2,1.1687737E-1,-3.4750473E-1,-5.4932784E-2,1.452248E-1,4.1963825E-1,7.5507715E-2,-4.0311018E-1,-5.2625144E-1,-2.1368253E-1,1.979376E-1,-1.6389087E-1,1.6035867E-1,5.43909E-1,-2.3981653E-1,1.6501096E-1],"split_indices":[28,84,40,83,58,66,32,65,65,57,20,0,77,20,8,0,11,13,26,0,10,80,0,0,0,0,0,38,25,58,39,0,0,0,0,65,12,0,0,10,0,58,9,65,9,0,57,0,0,0,0,0,0,0,0,0,0,0,0,0,0,0,0,0,0,0,0],"split_type":[0,0,0,0,0,0,0,0,0,0,0,0,0,0,0,0,0,0,0,0,0,0,0,0,0,0,0,0,0,0,0,0,0,0,0,0,0,0,0,0,0,0,0,0,0,0,0,0,0,0,0,0,0,0,0,0,0,0,0,0,0,0,0,0,0,0,0],"sum_hessian":[9.908E3,8.654E3,1.254E3,7.594E3,1.06E3,9.5E1,1.159E3,8.75E2,6.719E3,1.4E2,9.2E2,2E1,7.5E1,5.4E1,1.105E3,8.2E2,5.5E1,1.5E2,6.569E3,3.8E1,1.02E2,9E1,8.3E2,2.4E1,5.1E1,3.2E1,2.2E1,7E2,4.05E2,1.77E2,6.43E2,2E1,3.5E1,2E1,1.3E2,3.313E3,3.256E3,2.4E1,7.8E1,5.9E1,3.1E1,2.35E2,5.95E2,3.12E2,3.88E2,7.9E1,3.26E2,2.9E1,1.48E2,2.42E2,4.01E2,1.728E3,1.585E3,3.38E2,2.918E3,2.4E1,3.5E1,1.55E2,8E1,3.09E2,2.86E2,2.7E2,4.2E1,3.7E1,3.51E2,7.5E1,2.51E2],"tree_param":{"num_deleted":"0","num_feature":"86","num_nodes":"67","size_leaf_vector":"1"}},{"base_weights":[-2.3025328E-3,-2.5945017E-2,1.6150793E-1,3.6533684E-3,-1.3320975E-1,-3.3064517E-1,1.8682235E-1,-7.56579E-2,4.3273445E-2,5.0516646E-2,-2.9027504E-1,-2.4390245E-2,-1.1363637E-3,2.7860028E-1,3.7199125E-2,4.180418E-2,-1.5342565E-1,6.4634725E-2,-2.1489972E-1,2.3762377E-1,-4.920914E-2,-3.4244946E-1,-4.2134833E-2,1.5759312E-1,3.8481012E-1,-8.603896E-2,2.9E-1,1.778742E-1,-9.799554E-2,-2.0528455E-1,2.937063E-1,-1.2077295E-3,1.280857E-1,-9.170306E-2,-4.46281E-1,-8.988764E-2,3.7209302E-1,-1.1635945E-1,1.6544117E-1,-1.06481485E-1,-3.76703E-1,2.2105263E-1,-3.392857E-1,2.0092024E-1,-2.1875E-2,4.1018766E-1,-2.1739132E-3,2.4375E-1,-2.0087336E-1,-1.7045455E-2,3.9534885E-1,1.7746914E-2,4.083333E-3,-9.102902E-3,1.7605634E-2,-2.1744793E-2,-8.13282E-3,1.8292684E-2,-7.1428576E-3,-5.6256573E-3,4.6651787E-3,7.1445615E-3,-2.3557693E-2,-5.2910054E-4,-2.3170732E-2,-2.4257427E-2,-1.1904762E-2,-2.0394737E-2,7.2115385E-3,7.3529413E-4,2.184066E-2,-1.5948277E-2,9.578544E-4,-1.4772727E-2,1.2608695E-2,1.38157895E-2,-1.5492958E-2,-2.1182885E-2,-8.633094E-3,-1.29629625E-2,2.0289855E-2,-2.3809525E-3,-2.1484375E-2,4.289216E-3,1.9512195E-2,7.8125E-3,2.2315951E-2,-9.375E-3,2.1052632E-2,8.536586E-3,-1.4021165E-2,2.199074E-2,7.954545E-3],"categories":[],"categories_nodes":[],"categories_segments":[],"categories_sizes":[],"default_left":[0,0,0,0,0,0,1,0,0,0,0,0,0,0,0,0,0,0,0,0,0,0,0,0,0,0,0,0,0,1,0,0,0,0,0,0,0,0,0,0,0,0,0,1,0,0,0,0,0,0,0,0,0,0,0,0,0,0,0,0,0,0,0,0,0,0,0,0,0,0,0,0,0,0,0,0,0,0,0,0,0,0,0,0,0,0,0,0,0,0,0,0,0],"id":1,"left_children":[1,3,5,7,9,11,13,15,17,19,21,-1,-1,23,25,27,29,31,33,35,37,39,41,43,45,47,49,51,53,55,57,59,61,63,65,67,69,71,73,75,77,79,81,83,-1,85,-1,87,89,-1,91,-1,-1,-1,-1,-1,-1,-1,-1,-1,-1,-1,-1,-1,-1,-1,-1,-1,-1,-1,-1,-1,-1,-1,-1,-1,-1,-1,-1,-1,-1,-1,-1,-1,-1,-1,-1,-1,-1,-1,-1,-1,-1],"loss_changes":[3.869045E1,2.771704E1,1.5759567E1,2.1506159E1,5.4496758E1,2.9892359E0,1.6454437E1,2.0833672E1,2.5183937E1,1.6264034E1,1.3165176E1,0E0,0E0,9.4885025E0,1.4262647E1,1.730893E1,3.1873913E1,1.7613623E1,9.907459E0,1.3377632E1,8.220722E0,6.757477E0,1.3995736E1,9.086405E0,4.311054E0,1.1713267E1,1.0104609E1,7.8241014E0,1.7053019E1,1.1968384E1,4.556322E0,2.178611E1,1.9115623E1,6.900278E0,8.635788E-1,6.6849985E0,4.9665623E0,1.192222E1,5.511071E0,8.49368E0,6.959076E0,8.535028E0,2.1943827E0,7.0726566E0,0E0,3.3525772E0,0E0,6.1958876E0,6.817382E0,0E0,1.2852306E0,0E0,0E0,0E0,0E0,0E0,0E0,0E0,0E0,0E0,0E0,0E0,0E0,0E0,0E0,0E0,0E0,0E0,0E0,0E0,0E0,0E0,0E0,0E0,0E0,0E0,0E0,0E0,0E0,0E0,0E0,0E0,0E0,0E0,0E0,0E0,0E0,0E0,0E0,0E0,0E0,0E0,0E0],"parents":[2147483647,0,0,1,1,2,2,3,3,4,4,5,5,6,6,7,7,8,8,9,9,10,10,13,13,14,14,15,15,16,16,17,17,18,18,19,19,20,20,21,21,22,22,23,23,24,24,25,25,26,26,27,27,28,28,29,29,30,30,31,31,32,32,33,33,34,34,35,35,36,36,37,37,38,38,39,39,40,40,41,41,42,42,43,43,45,45,47,47,48,48,50,50],"right_children":[2,4,6,8,10,12,14,16,18,20,22,-1,-1,24,26,28,30,32,34,36,38,40,42,44,46,48,50,52,54,56,58,60,62,64,66,68,70,72,74,76,78,80,82,84,-1,86,-1,88,90,-1,92,-1,-1,-1,-1,-1,-1,-1,-1,-1,-1,-1,-1,-1,-1,-1,-1,-1,-1,-1,-1,-1,-1,-1,-1,-1,-1,-1,-1,-1,-1,-1,-1,-1,-1,-1,-1,-1,-1,-1,-1,-1,-1],"split_conditions":[2.176663E1,7.400759E9,8.306814E-1,9.583333E-1,3.9025E1,2.576545E9,-2.1903862E-1,1.0871491E0,3.879872E2,2.03E1,1.8093107E0,-5.0397336E-1,-3.2663494E-2,1.2868252E0,1.2136385E0,6.637335E1,6.2350977E2,5.6079227E-1,-3.4844298E-2,1.799798E-1,1.2878098E-1,1.7955394E-2,3.1476E-1,1.2836E-1,2.0179594E1,2.542385E1,4.0043288E-1,3.8381878E-1,7.318612E-1,-1.4514686E-2,2.21E1,4.854225E0,7.056891E0,9.128E-2,3.170187E-1,9.1473585E-1,-2.3E1,1.5852837E-1,1.454916E-1,3.993151E0,9.999999E1,8.21281E-1,5.833333E-1,5.105393E-1,-7.385844E-2,-1.96E1,-1.07856445E-1,2.099795E-1,6.2564793E1,-6.2475103E-1,1.6580025E1,5.5858374E-1,1.0029602E-1,-2.2496875E-1,4.772342E-1,-4.7591838E-1,-1.5272239E-1,7.69453E-1,-6.989901E-2,-1.04076825E-1,7.976526E-2,1.05919376E-1,-8.216926E-1,-7.7830553E-3,-3.1065115E-1,-3.203E-1,-6.0863465E-1,-2.3116648E-1,1.062663E-1,3.7786067E-3,5.1061505E-1,-3.16932E-1,1.3615447E-2,-4.3466684E-1,3.8585803E-1,2.2625719E-1,-2.2355561E-1,-4.9838954E-1,-2.5243333E-1,-2.602155E-1,2.9069567E-1,-2.1496916E-2,-3.4476024E-1,7.0286885E-2,2.8223324E-1,2.853367E-1,4.698607E-1,-1.9884871E-1,4.8797703E-1,1.3312954E-1,-3.549865E-1,7.595548E-1,3.5001183E-1],"split_indices":[28,65,32,38,58,65,8,83,30,58,31,0,0,38,3,56,30,31,72,31,72,62,0,0,41,28,14,12,5,3,60,36,39,0,3,80,60,3,31,67,57,83,7,12,0,60,0,57,56,0,67,0,0,0,0,0,0,0,0,0,0,0,0,0,0,0,0,0,0,0,0,0,0,0,0,0,0,0,0,0,0,0,0,0,0,0,0,0,0,0,0,0,0],"split_type":[0,0,0,0,0,0,0,0,0,0,0,0,0,0,0,0,0,0,0,0,0,0,0,0,0,0,0,0,0,0,0,0,0,0,0,0,0,0,0,0,0,0,0,0,0,0,0,0,0,0,0,0,0,0,0,0,0,0,0,0,0,0,0,0,0,0,0,0,0,0,0,0,0,0,0,0,0,0,0,0,0,0,0,0,0,0,0,0,0,0,0,0,0],"sum_hessian":[9.988E3,8.729E3,1.259E3,6.842E3,1.887E3,6.1E1,1.198E3,2.279E3,4.563E3,8.7E2,1.017E3,4E1,2.1E1,7.42E2,4.56E2,9.08E2,1.371E3,4.215E3,3.48E2,3.02E2,5.68E2,8.4E2,1.77E2,3.48E2,3.94E2,3.07E2,1.49E2,4.6E2,4.48E2,1.229E3,1.42E2,2.069E3,2.146E3,2.28E2,1.2E2,8.8E1,2.14E2,4.33E2,1.35E2,1.07E2,7.33E2,9.4E1,8.3E1,3.25E2,2.3E1,3.72E2,2.2E1,7.9E1,2.28E2,2.1E1,1.28E2,1.61E2,2.99E2,3.78E2,7E1,1.91E2,1.038E3,1.22E2,2E1,9.5E2,1.119E3,2.095E3,5.1E1,1.88E2,4E1,1E2,2E1,3.7E1,5.1E1,3.3E1,1.81E2,1.73E2,2.6E2,2.1E1,1.14E2,3.7E1,7E1,5.95E2,1.38E2,2.6E1,6.8E1,2E1,6.3E1,2.03E2,1.22E2,4.7E1,3.25E2,2.3E1,5.6E1,4E1,1.88E2,1.07E2,2.1E1],"tree_param":{"num_deleted":"0","num_feature":"86","num_nodes":"93","size_leaf_vector":"1"}},{"base_weights":[-3.1531532E-3,-2.5240384E-2,1.505976E-1,-8.00871E-2,2.4000868E-2,-2.9473683E-1,1.8690784E-1,1.35516655E-2,-1.5023276E-1,-8.041158E-2,6.559368E-2,4.761905E-3,-4E-1,-1.107595E-1,2.3356573E-1,5.4619014E-2,-1.9723183E-1,-2.9301746E-2,-2.1222791E-1,1.08641975E-1,-1.6464758E-1,1.6298528E-1,-1.5277778E-2,-2.4444444E-2,-1.2903226E-2,-2.2395832E-2,3.6036037E-2,3.4081197E-1,1.396648E-1,1.17934786E-1,-4.8758864E-2,1.2738854E-2,-4.4360903E-1,3.131313E-1,-7.741477E-2,-6.909789E-2,-2.8358924E-1,-1.5361446E-1,2.8958333E-1,-5.5045873E-2,-3.282967E-1,9.166667E-2,3.1578946E-1,-3.9122704E-2,3.377193E-1,2.3571429E-1,-2.9761904E-1,-1.3513514E-3,3.715278E-1,2.2779043E-1,-2.5252524E-1,9.72435E-3,-3.4514926E-3,7.34375E-3,-6.2962966E-3,9.198113E-3,-1.6826924E-2,-1.513158E-2,-2.4739584E-2,4.166667E-3,2.0357143E-2,-8.381783E-3,8.465609E-3,-1.0000001E-2,7.360406E-3,1.8571429E-2,-1.5302579E-2,-1.459854E-2,2.4166666E-2,1.797235E-2,-1.7708333E-2,-5.723542E-3,1.3855422E-2,-1.9362746E-2,-8.474576E-4,1.8070651E-2,1.6129032E-3,1.724138E-2,-0E0,1.898734E-2,-2.9832195E-3,2.3511905E-2,-1.6129032E-3,1.7934782E-2,-0E0,-4.761905E-3,-2.3863636E-2,2.082192E-2,6.25E-3,1.2858852E-2,-1.7045455E-2,1.1904762E-2,-1.898734E-2],"categories":[],"categories_nodes":[],"categories_segments":[],"categories_sizes":[],"default_left":[0,0,0,1,0,0,0,0,0,0,0,0,0,0,0,0,0,0,0,0,0,1,1,0,0,0,0,0,1,0,0,0,0,0,0,0,1,0,0,0,0,0,0,0,0,0,0,0,1,0,0,0,0,0,0,0,0,0,0,0,0,0,0,0,0,0,0,0,0,0,0,0,0,0,0,0,0,0,0,0,0,0,0,0,0,0,0,0,0,0,0,0,0],"id":2,"left_children":[1,3,5,7,9,11,13,15,17,19,21,-1,23,25,27,29,31,33,35,37,39,41,43,-1,-1,-1,45,47,49,51,53,55,57,59,61,63,65,67,69,71,73,75,77,79,81,83,85,-1,87,89,91,-1,-1,-1,-1,-1,-1,-1,-1,-1,-1,-1,-1,-1,-1,-1,-1,-1,-1,-1,-1,-1,-1,-1,-1,-1,-1,-1,-1,-1,-1,-1,-1,-1,-1,-1,-1,-1,-1,-1,-1,-1,-1],"loss_changes":[3.392913E1,2.359542E1,2.0348686E1,2.7149036E1,1.9999561E1,3.9378452E0,1.6150452E1,1.5341115E1,1.7709518E1,2.0911636E1,2.5938816E1,0E0,8.200712E-1,7.836061E0,1.0063202E1,9.712652E0,1.4956196E1,1.3237585E1,1.5934593E1,1.9262962E1,1.6268019E1,1.6252342E1,1.5164152E1,0E0,0E0,0E0,7.4653797E0,5.2977257E0,1.8617313E1,1.3180974E1,8.532916E0,9.451209E0,8.099346E-1,2.1048346E0,1.5699369E1,1.4781511E1,1.5444862E1,1.4769996E1,1.0921242E1,1.0789073E1,6.6751976E0,1.6334103E1,4.3557167E0,1.4538088E1,5.604471E0,2.0291927E0,1.4816017E0,0E0,4.7309227E0,7.424305E0,6.2697506E0,0E0,0E0,0E0,0E0,0E0,0E0,0E0,0E0,0E0,0E0,0E0,0E0,0E0,0E0,0E0,0E0,0E0,0E0,0E0,0E0,0E0,0E0,0E0,0E0,0E0,0E0,0E0,0E0,0E0,0E0,0E0,0E0,0E0,0E0,0E0,0E0,0E0,0E0,0E0,0E0,0E0,0E0],"parents":[2147483647,0,0,1,1,2,2,3,3,4,4,5,5,6,6,7,7,8,8,9,9,10,10,12,12,13,13,14,14,15,15,16,16,17,17,18,18,19,19,20,20,21,21,22,22,26,26,27,27,28,28,29,29,30,30,31,31,32,32,33,33,34,34,35,35,36,36,37,37,38,38,39,39,40,40,41,41,42,42,43,43,44,44,45,45,46,46,48,48,49,49,50,50],"right_children":[2,4,6,8,10,12,14,16,18,20,22,-1,24,26,28,30,32,34,36,38,40,42,44,-1,-1,-1,46,48,50,52,54,56,58,60,62,64,66,68,70,72,74,76,78,80,82,84,86,-1,88,90,92,-1,-1,-1,-1,-1,-1,-1,-1,-1,-1,-1,-1,-1,-1,-1,-1,-1,-1,-1,-1,-1,-1,-1,-1,-1,-1,-1,-1,-1,-1,-1,-1,-1,-1,-1,-1,-1,-1,-1,-1,-1,-1],"split_conditions":[2.176663E1,5.7787377E-1,-1.6257143E2,6.347836E-1,5.061389E-1,7.431444E-1,-1.22333336E2,8.376E9,3.76E1,-1.4405756E1,6.8417595E1,1.3906646E-2,3.6701844E0,5.0421786E-1,1.1562897E1,9.468826E0,2.566727E-1,3.927869E1,1.0804204E1,1.0421622E0,4.675E1,9.697619E1,1.3348044E1,-4.4509372E-1,-4.624269E-1,-4.1598582E-1,3.9036566E2,4.2276424E-1,5.149982E-1,4.3877397E0,4.5425E1,4.83E1,3.5925E1,2.19E1,1.0133112E-1,1.1249555E0,1.0699128E-1,3.7644267E-2,6.0552937E-1,3.529221E1,1.704723E1,-2.7625553E-2,9.4177216E2,6.067563E-1,6.1591125E-1,1.8754683E-1,4.4215077E-1,-7.757029E-2,1.6352941E3,6.654302E0,3.968063E-2,1.7191923E-1,-6.714261E-2,9.809428E-2,-9.547609E-2,6.291316E-2,-1.624068E-1,-2.3529272E-1,-3.0749065E-1,2.4823487E-2,2.5414798E-1,-1.6567926E-1,2.6261505E-1,-1.2448827E-1,1.0536792E-1,3.7237695E-1,-2.727932E-1,-3.4783155E-1,5.764685E-1,4.6473718E-1,-5.675289E-1,-2.2234698E-1,6.31463E-1,-4.428198E-1,-2.740112E-2,3.7866142E-1,2.4728656E-2,2.520915E-1,1.2756133E-2,3.4031016E-1,-3.903773E-2,2.1620618E-1,-1.1952347E-2,2.2269462E-1,-9.6758007E-4,-5.544123E-1,-6.3875765E-1,5.235309E-1,2.3756285E-1,1.9047002E-1,-8.600974E-1,1.9502223E-1,-2.5972307E-1],"split_indices":[28,31,40,84,9,66,27,82,58,28,56,0,68,9,34,35,67,40,20,32,58,40,75,0,0,0,76,9,2,67,58,58,58,55,72,84,41,62,3,20,28,3,40,41,9,78,3,0,40,75,77,0,0,0,0,0,0,0,0,0,0,0,0,0,0,0,0,0,0,0,0,0,0,0,0,0,0,0,0,0,0,0,0,0,0,0,0,0,0,0,0,0,0],"split_type":[0,0,0,0,0,0,0,0,0,0,0,0,0,0,0,0,0,0,0,0,0,0,0,0,0,0,0,0,0,0,0,0,0,0,0,0,0,0,0,0,0,0,0,0,0,0,0,0,0,0,0,0,0,0,0,0,0,0,0,0,0,0,0,0,0,0,0,0,0,0,0,0,0,0,0,0,0,0,0,0,0,0,0,0,0,0,0,0,0,0,0,0,0],"sum_hessian":[9.989E3,8.735E3,1.254E3,4.132E3,4.603E3,9.4E1,1.16E3,1.77E3,2.362E3,1.311E3,3.292E3,2E1,7.4E1,1.57E2,1.003E3,1.482E3,2.88E2,8.01E2,1.561E3,4.04E2,9.07E2,1.493E3,1.799E3,4.4E1,3E1,4.7E1,1.1E2,4.67E2,5.36E2,9.19E2,5.63E2,1.56E2,1.32E2,9.8E1,7.03E2,5.2E2,1.041E3,1.65E2,2.39E2,5.44E2,3.63E2,1.019E3,4.74E2,1.686E3,1.13E2,6.9E1,4.1E1,3.6E1,4.31E2,4.38E2,9.8E1,6.52E2,2.67E2,1.59E2,4.04E2,1.05E2,5.1E1,3.7E1,9.5E1,2.9E1,6.9E1,5.15E2,1.88E2,3.24E2,1.96E2,3.4E1,1.007E3,1.36E2,2.9E1,2.16E2,2.3E1,4.62E2,8.2E1,3.05E2,5.8E1,1.83E2,8.36E2,4.34E2,4E1,7.8E1,1.608E3,8.3E1,3E1,4.5E1,2.4E1,2E1,2.1E1,3.64E2,6.7E1,4.17E2,2.1E1,2E1,7.8E1],"tree_param":{"num_deleted":"0","num_feature":"86","num_nodes":"93","size_leaf_vector":"1"}},{"base_weights":[-3.1293463E-3,-2.3958215E-2,1.4246032E-1,2.8852606E-2,-7.83952E-2,-2.6630434E-1,1.7450812E-1,5.814863E-2,-1.4756672E-1,-2.6748309E-2,-2.0809716E-1,7.954545E-3,-3.943662E-1,-1.85E-1,2.0794393E-1,-1.3403042E-1,8.867069E-2,2.3571429E-1,-1.9454226E-1,-3.7083334E-1,-1.2902144E-2,-5.352798E-2,-2.8484848E-1,-2.4305556E-2,-1.4583333E-2,1.7708333E-2,-3.5064936E-1,3.5863096E-1,1.3877551E-1,3.8020834E-1,-2.4825986E-1,1.8321589E-1,4.285714E-3,2.1621622E-2,7.3529413E-4,-3.9790577E-1,-9.126984E-2,2E-3,-2.3697918E-2,1.9354838E-1,-3.4183297E-2,2.4210526E-1,-1.4195584E-1,-5.6930695E-2,-3.5817307E-1,-1.0416667E-3,-2.4537038E-2,4.1463414E-1,3E-2,2.6184833E-1,-2.7070064E-2,2.326389E-2,6E-3,-1.53289465E-2,9.134616E-3,9.787582E-3,-2.109375E-2,-4.5900694E-3,4.915254E-3,-2.251462E-2,2.3809525E-3,-1.2236842E-2,3.1746035E-3,1.8485917E-2,5.434783E-4,-5.9932945E-3,1.6677676E-3,1.9178083E-2,-1.0869565E-2,-1.1318898E-2,9.765625E-3,1.3736265E-2,-1.6294643E-2,-1.907563E-2,5.8333334E-3,2.1875E-2,7.2916667E-3,2.1590909E-2,-1.3793103E-2,1.7075164E-2,2.5641026E-3,4.048583E-3,-2.0955883E-2],"categories":[],"categories_nodes":[],"categories_segments":[],"categories_sizes":[],"default_left":[0,0,0,0,0,0,0,0,0,0,0,0,0,0,1,0,0,0,0,0,0,0,0,0,0,0,0,0,0,0,0,1,0,0,0,0,0,0,0,0,0,1,0,0,0,0,0,0,0,0,0,0,0,0,0,0,0,0,0,0,0,0,0,0,0,0,0,0,0,0,0,0,0,0,0,0,0,0,0,0,0,0,0],"id":3,"left_children":[1,3,5,7,9,11,13,15,17,19,21,-1,23,25,27,29,31,33,35,37,39,41,43,-1,-1,-1,45,47,49,51,53,55,57,-1,-1,59,61,-1,-1,63,65,67,69,71,73,-1,-1,75,77,79,81,-1,-1,-1,-1,-1,-1,-1,-1,-1,-1,-1,-1,-1,-1,-1,-1,-1,-1,-1,-1,-1,-1,-1,-1,-1,-1,-1,-1,-1,-1,-1,-1],"loss_changes":[3.0528236E1,2.5321173E1,1.6552488E1,2.311643E1,2.9046711E1,5.074615E0,1.4090366E1,2.2506847E1,1.1514935E1,1.4778706E1,1.4636032E1,0E0,5.2719116E-1,9.0554495E0,1.1102608E1,3.0992266E1,2.6407036E1,3.036986E0,1.1892729E1,5.1030216E0,1.3116835E1,1.0778818E1,1.3766991E1,0E0,0E0,0E0,3.547515E0,6.1714325E0,1.5009235E1,2.0692005E0,1.0888218E1,1.192318E1,1.581861E1,0E0,0E0,4.4792976E0,8.993359E0,0E0,0E0,8.974903E0,1.5663311E1,6.258262E0,9.070126E0,1.8108519E1,6.9600143E0,0E0,0E0,1.700203E0,6.2641687E0,7.060543E0,1.333419E1,0E0,0E0,0E0,0E0,0E0,0E0,0E0,0E0,0E0,0E0,0E0,0E0,0E0,0E0,0E0,0E0,0E0,0E0,0E0,0E0,0E0,0E0,0E0,0E0,0E0,0E0,0E0,0E0,0E0,0E0,0E0,0E0],"parents":[2147483647,0,0,1,1,2,2,3,3,4,4,5,5,6,6,7,7,8,8,9,9,10,10,12,12,13,13,14,14,15,15,16,16,17,17,18,18,19,19,20,20,21,21,22,22,26,26,27,27,28,28,29,29,30,30,31,31,32,32,35,35,36,36,39,39,40,40,41,41,42,42,43,43,44,44,47,47,48,48,49,49,50,50],"right_children":[2,4,6,8,10,12,14,16,18,20,22,-1,24,26,28,30,32,34,36,38,40,42,44,-1,-1,-1,46,48,50,52,54,56,58,-1,-1,60,62,-1,-1,64,66,68,70,72,74,-1,-1,76,78,80,82,-1,-1,-1,-1,-1,-1,-1,-1,-1,-1,-1,-1,-1,-1,-1,-1,-1,-1,-1,-1,-1,-1,-1,-1,-1,-1,-1,-1,-1,-1,-1,-1],"split_conditions":[2.176663E1,1.5748376E1,-1.6257143E2,8.381E9,7.400759E9,6.217049E1,-1.3478261E2,8.6176365E8,-2.8716145E0,-1.5050489E0,3.76E1,1.3879544E-1,3.017216E-2,3.3112583E1,4.067857E1,-7.6554337E0,1.4779044E0,9.009901E-1,-3.6135633E-2,-3.921655E2,1.2450397E-1,8.4674513E-1,2.1102829E-2,-5.591347E-1,-3.250204E-1,2.0401636E-1,3.76E-3,1.5286237E-1,5.149982E-1,1.1402597E0,5.76865E0,3.843375E1,4.81145E-1,2.6984906E-1,3.065654E-2,6.0866254E2,-3.3359084E-2,9.9530695E-3,-4.0232298E-1,-1.6962554E0,4.375E1,8.971428E-1,7.439765E-1,3.736382E0,6.1506245E-2,-2.2396397E-2,-4.6958455E-1,1.5042708E0,-3.3415678E0,4.6E-1,1.4E-1,7.086414E-1,3.7989247E-1,-5.221125E-1,4.363482E-1,1.3616936E-1,-3.4141052E-1,-7.0484415E-2,7.3664986E-2,-3.1045243E-1,6.0942143E-2,-1.9513021E-1,2.7095715E-2,4.190963E-1,4.923302E-2,-1.352446E-1,2.980649E-2,4.6668932E-1,-1.462345E-1,-2.2660151E-1,1.49526E-1,2.0558038E-1,-2.3145793E-1,-4.4358107E-1,8.9212805E-2,6.26249E-1,2.3855567E-1,2.9256994E-1,-1.8541189E-1,3.2547584E-1,9.637665E-2,1.343036E-1,-2.8034264E-1],"split_indices":[28,26,40,82,65,56,27,65,11,75,58,0,62,22,40,83,66,19,72,76,80,19,62,0,0,0,0,73,2,19,18,75,39,0,0,76,73,0,0,83,27,75,44,67,62,0,0,19,11,25,25,0,0,0,0,0,0,0,0,0,0,0,0,0,0,0,0,0,0,0,0,0,0,0,0,0,0,0,0,0,0,0,0],"split_type":[0,0,0,0,0,0,0,0,0,0,0,0,0,0,0,0,0,0,0,0,0,0,0,0,0,0,0,0,0,0,0,0,0,0,0,0,0,0,0,0,0,0,0,0,0,0,0,0,0,0,0,0,0,0,0,0,0,0,0,0,0,0,0,0,0,0,0,0,0,0,0,0,0,0,0,0,0,0,0,0,0,0,0],"sum_hessian":[1.0065E4,8.806E3,1.259E3,4.47E3,4.336E3,9.1E1,1.168E3,3.834E3,6.36E2,3.102E3,1.234E3,2.1E1,7E1,9.9E1,1.069E3,5.25E2,3.309E3,6.9E1,5.67E2,1.19E2,2.983E3,4.1E2,8.24E2,3.5E1,3.5E1,2.3E1,7.6E1,3.35E2,7.34E2,9.5E1,4.3E2,1.56E3,1.749E3,3.6E1,3.3E1,1.9E2,3.77E2,2.4E1,9.5E1,2.78E2,2.705E3,9.4E1,3.16E2,2.01E2,6.23E2,2.3E1,5.3E1,2.86E2,4.9E1,4.21E2,3.13E2,7.1E1,2.4E1,3.79E2,5.1E1,1.529E3,3.1E1,8.65E2,8.84E2,1.7E2,2E1,1.89E2,1.88E2,1.41E2,1.37E2,1.192E3,1.513E3,7.2E1,2.2E1,2.53E2,6.3E1,9E1,1.11E2,5.94E2,2.9E1,2.63E2,2.3E1,2.1E1,2.8E1,3.05E2,1.16E2,2.46E2,6.7E1],"tree_param":{"num_deleted":"0","num_feature":"86","num_nodes":"83","size_leaf_vector":"1"}},{"base_weights":[-2.36086E-3,1.4858261E-1,-1.9648455E-2,3.6144577E-2,2.9571107E-1,1.1469181E-2,-1.4066777E-1,-1.3384321E-2,2.3728814E-2,3.394256E-1,1.6393442E-2,4.8550623E-3,4.5673078E-1,1.402214E-1,-1.8946692E-1,-2.2453703E-1,1.3474026E-1,3.8017753E-1,3.2608695E-2,-1.4772727E-2,9.375E-3,-6.855692E-2,4.223228E-2,2.4691358E-2,1.5625E-2,3.4437087E-1,-1.1570248E-1,-2.3921725E-1,1.4705882E-2,1.5625E-2,-2.9015544E-1,2.6834863E-1,-1.8681319E-1,3.4090912E-3,4.0063092E-1,1.904762E-2,-1.25E-2,4.5323048E-2,-1.5749812E-1,6.3690476E-2,-1.6176471E-1,4.0234375E-1,1.0416667E-3,1.0769231E-1,-3.6842105E-1,-8.796296E-2,-3.5343617E-1,4.2613637E-1,-1.5068494E-1,-5.434783E-4,-1.875E-2,1.8664384E-2,2.739726E-3,7.236842E-3,-2.0833334E-2,2.3401164E-2,1.5924659E-2,9.548254E-3,-4.1742288E-3,-5.229307E-3,-1.3306453E-2,1.3755796E-3,9.239131E-3,3.1007752E-3,-1.2659236E-2,9.677419E-3,2.3214286E-2,1.6875E-2,-1.25E-2,-2.4305556E-2,-7.954545E-3,1.0824743E-2,-7.7139637E-3,-5.5288463E-3,-1.9713115E-2,1.5714286E-2,2.4537038E-2,8.474576E-3,-1.3354038E-2],"categories":[],"categories_nodes":[],"categories_segments":[],"categories_sizes":[],"default_left":[0,0,0,0,0,0,0,0,0,0,0,0,0,0,0,0,0,0,0,0,0,0,0,0,0,0,0,0,0,0,0,0,0,0,0,0,0,0,0,0,0,0,0,0,0,0,0,0,1,0,0,0,0,0,0,0,0,0,0,0,0,0,0,0,0,0,0,0,0,0,0,0,0,0,0,0,0,0,0],"id":4,"left_children":[1,3,5,7,9,11,13,15,-1,17,19,21,23,25,27,29,31,33,35,-1,-1,37,39,-1,-1,41,43,45,47,-1,49,51,53,-1,55,-1,-1,57,59,61,63,65,-1,67,69,71,73,75,77,-1,-1,-1,-1,-1,-1,-1,-1,-1,-1,-1,-1,-1,-1,-1,-1,-1,-1,-1,-1,-1,-1,-1,-1,-1,-1,-1,-1,-1,-1],"loss_changes":[2.5977377E1,1.691263E1,3.363805E1,1.2622789E1,5.403572E0,2.0925045E1,2.5069542E1,1.6388075E1,0E0,4.776394E0,3.310311E0,1.9218676E1,4.021244E-1,1.4198708E1,1.5819004E1,7.702409E0,1.3282497E1,2.129589E0,4.623706E0,0E0,0E0,2.394107E1,2.0325851E1,0E0,0E0,2.8238335E0,6.8708534E0,2.1598587E1,2.088654E1,0E0,4.569229E0,4.8649597E0,6.995229E0,0E0,1.6056786E0,0E0,0E0,1.946986E1,7.5996017E0,1.8395025E1,9.058133E0,1.565588E0,0E0,5.427404E0,1.3269205E0,1.0936282E1,7.0258026E0,4.8165894E-1,8.206785E0,0E0,0E0,0E0,0E0,0E0,0E0,0E0,0E0,0E0,0E0,0E0,0E0,0E0,0E0,0E0,0E0,0E0,0E0,0E0,0E0,0E0,0E0,0E0,0E0,0E0,0E0,0E0,0E0,0E0,0E0],"parents":[2147483647,0,0,1,1,2,2,3,3,4,4,5,5,6,6,7,7,9,9,10,10,11,11,12,12,13,13,14,14,15,15,16,16,17,17,18,18,21,21,22,22,25,25,26,26,27,27,28,28,30,30,31,31,32,32,34,34,37,37,38,38,39,39,40,40,41,41,43,43,44,44,45,45,46,46,47,47,48,48],"right_children":[2,4,6,8,10,12,14,16,-1,18,20,22,24,26,28,30,32,34,36,-1,-1,38,40,-1,-1,42,44,46,48,-1,50,52,54,-1,56,-1,-1,58,60,62,64,66,-1,68,70,72,74,76,78,-1,-1,-1,-1,-1,-1,-1,-1,-1,-1,-1,-1,-1,-1,-1,-1,-1,-1,-1,-1,-1,-1,-1,-1,-1,-1,-1,-1,-1,-1],"split_conditions":[1.96E1,9.0554214E1,7.6404854E9,3.281882E1,6.6413504E-1,1.8400647E3,2.4711647E1,1.5683E10,6.521E-1,3.791464E2,9.79788E-9,9.583333E-1,1.6394648E9,3.581632E1,1.6340851E10,-2.8202766E-1,8.48E-3,-5.7593584E-1,8.490566E-1,-1.0367965E-1,1.3710946E-1,6.61804E1,3.879872E2,8.475987E-1,3.5469443E-1,1.434675E-1,-5.3448277E1,4E1,1.7981659E-1,3.502719E-1,-9.596868E-2,1.0532639E0,1.5819939E1,8.683161E-1,3.687589E0,2.294994E0,-6.8090044E-2,1.0871491E0,6.2118465E-1,1.16568306E2,7.0018016E-2,2.9166666E1,4.7431793E-2,7.4791493E0,4.9544863E-2,8.487565E-1,1.8419102E-2,-5.1010376E-1,8.568421E-1,-7.358771E-2,-3.595715E-1,2.8763366E-1,1.7178614E-2,7.279904E-2,-2.7904543E-1,5.1905495E-1,3.597339E-1,2.1633855E-1,-1.19851544E-1,-1.16453245E-1,-2.4305339E-1,1.9026324E-2,1.4659508E-1,1.2339053E-1,-2.1028148E-1,4.9499783E-1,3.7558344E-1,1.365132E0,-2.4828982E-1,-8.6849636E-1,-1.3833776E0,2.8929943E-1,-1.807297E-1,-1.2161908E-1,-4.2604375E-1,1.0094293E-1,2.555897E-1,1.4968167E-1,-1.1879877E-1],"split_indices":[58,40,65,20,77,30,33,79,0,30,57,38,65,75,82,5,0,48,10,0,0,56,30,0,0,72,27,58,2,0,72,19,56,0,84,0,0,83,12,30,77,22,0,5,62,19,62,48,75,0,0,0,0,0,0,0,0,0,0,0,0,0,0,0,0,0,0,0,0,0,0,0,0,0,0,0,0,0,0],"split_type":[0,0,0,0,0,0,0,0,0,0,0,0,0,0,0,0,0,0,0,0,0,0,0,0,0,0,0,0,0,0,0,0,0,0,0,0,0,0,0,0,0,0,0,0,0,0,0,0,0,0,0,0,0,0,0,0,0,0,0,0,0,0,0,0,0,0,0,0,0,0,0,0,0,0,0,0,0,0,0],"sum_hessian":[9.953E3,1.022E3,8.931E3,5.8E2,4.42E2,7.105E3,1.826E3,5.22E2,5.8E1,3.82E2,6E1,7.002E3,1.03E2,2.7E2,1.556E3,2.15E2,3.07E2,3.37E2,4.5E1,2.1E1,3.9E1,2.362E3,4.64E3,8E1,2.3E1,1.5E2,1.2E2,1.251E3,3.05E2,2.3E1,1.92E2,2.17E2,9E1,2.1E1,3.16E2,2E1,2.5E1,1.036E3,1.326E3,4.199E3,4.41E2,1.27E2,2.3E1,6.4E1,5.6E1,5.39E2,7.12E2,8.7E1,2.18E2,4.5E1,1.47E2,1.45E2,7.2E1,3.7E1,5.3E1,1.71E2,1.45E2,4.86E2,5.5E2,8.93E2,4.33E2,3.234E3,9.65E2,1.28E2,3.13E2,3E1,9.7E1,3.9E1,2.5E1,3.5E1,2.1E1,9.6E1,4.43E2,1.03E2,6.09E2,3.4E1,5.3E1,5.8E1,1.6E2],"tree_param":{"num_deleted":"0","num_feature":"86","num_nodes":"79","size_leaf_vector":"1"}},{"base_weights":[-4.9771053E-5,-1.9776292E-2,1.2436364E-1,-1.3145787E-4,-1.5994371E-1,-2.9891303E-1,1.5459502E-1,1.4382786E-1,-1.9033458E-2,1.8506494E-1,-2.1796276E-1,-8.333334E-4,-4.2857143E-1,3.8709676E-1,1.07209735E-1,2.7360776E-1,2.972399E-2,-4.642857E-1,-8.597079E-3,3.4375E-1,-2.3255815E-1,1.7708333E-2,-2.3314607E-1,-2.4418605E-2,-1.4285715E-2,4.3589744E-1,-2.1739132E-3,1.2895256E-1,-2.8070176E-1,3.846154E-1,5.6737587E-2,2.4858756E-1,-1.0169491E-1,-1.1904762E-2,-2.4813434E-2,-2.9956895E-1,2.0501497E-3,2.331081E-2,5.1282053E-3,-0E0,-2.173913E-2,-1.5551537E-1,-3.5946745E-1,4.7878787E-1,9.677419E-3,2.040521E-1,-3.2608695E-2,-2.4193548E-2,-1.8518519E-3,7.1428576E-3,2.0158103E-2,1.5530303E-2,-8.2236845E-3,1.7938932E-2,-3.1914895E-3,9.195402E-3,-1.1004785E-2,2.0833334E-3,-2.0809248E-2,-3.3299353E-3,3.0744337E-3,-1.25625E-2,4.7077923E-3,-5.1136366E-3,-1.9830508E-2,1.8269232E-2,2.4821429E-2,1.2072981E-2,-1.5104167E-2,1.1280487E-2,-6.0165976E-3],"categories":[],"categories_nodes":[],"categories_segments":[],"categories_sizes":[],"default_left":[0,1,0,0,0,0,0,1,0,0,0,0,0,0,0,0,0,0,0,1,0,0,0,0,0,0,0,0,0,0,0,0,0,0,0,0,0,0,0,0,0,0,0,0,0,1,0,0,0,0,0,0,0,0,0,0,0,0,0,0,0,0,0,0,0,0,0,0,0,0,0],"id":5,"left_children":[1,3,5,7,9,11,13,15,17,19,21,-1,23,25,27,29,31,33,35,37,39,-1,41,-1,-1,43,-1,45,47,49,51,53,55,-1,-1,57,59,-1,-1,-1,-1,61,63,65,-1,67,69,-1,-1,-1,-1,-1,-1,-1,-1,-1,-1,-1,-1,-1,-1,-1,-1,-1,-1,-1,-1,-1,-1,-1,-1],"loss_changes":[2.4657791E1,2.38789E1,1.7641037E1,2.070229E1,2.1378534E1,3.3596525E0,1.410453E1,1.3067673E1,3.1245884E1,1.0285606E1,8.013638E0,0E0,3.9867115E-1,4.5786324E0,9.0440235E0,9.920841E0,1.3572565E1,9.9591064E-1,2.036096E1,3.2603416E0,2.0222447E0,0E0,8.67181E0,0E0,0E0,1.9342499E0,0E0,1.2285427E1,2.8038735E0,1.166481E0,7.9694448E0,6.116232E0,1.0016083E1,0E0,0E0,9.249441E0,2.5877829E1,0E0,0E0,0E0,0E0,1.3241563E1,3.1883202E0,1.486969E-1,0E0,1.3155832E1,7.321016E0,0E0,0E0,0E0,0E0,0E0,0E0,0E0,0E0,0E0,0E0,0E0,0E0,0E0,0E0,0E0,0E0,0E0,0E0,0E0,0E0,0E0,0E0,0E0,0E0],"parents":[2147483647,0,0,1,1,2,2,3,3,4,4,5,5,6,6,7,7,8,8,9,9,10,10,12,12,13,13,14,14,15,15,16,16,17,17,18,18,19,19,20,20,22,22,25,25,27,27,28,28,29,29,30,30,31,31,32,32,35,35,36,36,41,41,42,42,43,43,45,45,46,46],"right_children":[2,4,6,8,10,12,14,16,18,20,22,-1,24,26,28,30,32,34,36,38,40,-1,42,-1,-1,44,-1,46,48,50,52,54,56,-1,-1,58,60,-1,-1,-1,-1,62,64,66,-1,68,70,-1,-1,-1,-1,-1,-1,-1,-1,-1,-1,-1,-1,-1,-1,-1,-1,-1,-1,-1,-1,-1,-1,-1,-1],"split_conditions":[1.7940847E1,5.7247076E0,-1.6257143E2,-2.781391E0,1.5110505E1,2.908E-2,9.3E-3,1.5660034E0,1.4833307E8,1.0970985E-1,2.1241531E0,-6.132594E-3,5.4885584E-1,1.3225978E2,9.957042E2,1.6188666E-1,1.1899126E9,6.200191E-1,-7.9785717E-1,1.0523616E1,-1.2100181E-1,5.168768E-1,4.2484E-1,-4.7962114E-1,-3.69324E-1,9.1299295E-2,-1.2173293E-1,-3.843934E-2,4.643123E0,1.0825E1,4.340206E1,4.505761E1,-1.3144091E-2,-5.3238994E-1,-7.1173185E-1,-4.2979784E0,5.6079227E-1,6.600324E-1,1.6443661E-1,2.3310084E-2,-5.892016E-1,4.76967E-1,-1.5410726E-1,3.2315903E0,2.9344413E-1,3.1952568E1,-8.902686E-1,-4.2468652E-1,-2.9812304E-2,1.611243E-1,4.4757372E-1,2.859039E-1,-3.211945E-1,3.6156067E-1,-7.7488355E-2,1.288299E-1,-2.0152679E-1,1.5361482E-2,-4.1453E-1,-5.2572783E-2,4.8494436E-2,-3.4919372E-1,8.34594E-2,-1.0442171E-1,-3.5925922E-1,3.1700763E-1,8.0005324E-1,2.1957128E-1,-1.927223E-1,7.5928384E-1,-1.3815127E-1],"split_indices":[28,84,40,83,56,0,25,71,65,73,41,0,12,69,30,73,65,13,75,75,78,0,0,0,0,17,0,8,18,58,40,33,73,0,0,11,31,0,0,0,0,9,21,18,0,41,73,0,0,0,0,0,0,0,0,0,0,0,0,0,0,0,0,0,0,0,0,0,0,0,0],"split_type":[0,0,0,0,0,0,0,0,0,0,0,0,0,0,0,0,0,0,0,0,0,0,0,0,0,0,0,0,0,0,0,0,0,0,0,0,0,0,0,0,0,0,0,0,0,0,0,0,0,0,0,0,0,0,0,0,0,0,0,0,0,0,0,0,0,0,0,0,0,0,0],"sum_hessian":[1.0045E4,8.671E3,1.374E3,7.606E3,1.065E3,9.1E1,1.283E3,8.82E2,6.724E3,1.53E2,9.12E2,2.9E1,6.2E1,2.16E2,1.067E3,4.12E2,4.7E2,1.53E2,6.571E3,1.11E2,4.2E1,2.3E1,8.89E2,4.2E1,2E1,1.94E2,2.2E1,1.011E3,5.6E1,2.72E2,1.4E2,1.76E2,2.94E2,2E1,1.33E2,2.31E2,6.34E3,7.3E1,3.8E1,2E1,2.2E1,5.52E2,3.37E2,1.64E2,3E1,6.9E2,3.21E2,3E1,2.6E1,2E1,2.52E2,6.5E1,7.5E1,1.3E2,4.6E1,8.6E1,2.08E2,5.9E1,1.72E2,2.942E3,3.398E3,3.99E2,1.53E2,4.3E1,2.94E2,2.5E1,1.39E2,6.43E2,4.7E1,8.1E1,2.4E2],"tree_param":{"num_deleted":"0","num_feature":"86","num_nodes":"71","size_leaf_vector":"1"}},{"base_weights":[-4.510826E-4,-1.9272685E-2,1.297619E-1,6.162876E-3,-1.1035208E-1,-2.5E-1,1.6023993E-1,2.0724569E-2,-1.7979798E-1,6.329923E-2,-2.3128343E-1,7.2916667E-3,-3.802817E-1,3.8084114E-1,1.10587E-1,-3.4074074E-1,2.8608372E-2,-2.640625E-1,-2.5568182E-2,-7.259953E-2,2.261236E-1,-2.854145E-1,7.3529415E-2,-2.3529412E-2,-7.1428576E-3,4.2487046E-1,-1.1363637E-3,1.8083462E-1,-3.733766E-2,1.0416667E-3,-4.1517857E-1,-2.1551725E-2,8.834986E-2,1.6666668E-2,-3.05E-1,7.394366E-2,-2.1428572E-2,2.3255816E-2,-1.3246754E-1,4.3820226E-1,1.5485075E-1,-4.2382812E-1,-2.3424068E-1,-3.469388E-1,2.4180327E-1,4.6130952E-1,8.653847E-3,2.2610922E-1,-2.5E-1,-1.4634146E-1,1.7788461E-1,-2.4147727E-2,-8E-3,7.913044E-3,-2.9301075E-3,-8.831522E-3,5.3388868E-3,-1.7784553E-2,-3.6363637E-3,9.318182E-3,-1.5151516E-2,6.3063065E-3,-1.1818182E-2,1.4285715E-2,2.3913044E-2,2.0000001E-2,3.7990198E-3,-2.2521554E-2,-8E-3,2.9069767E-4,-1.3376835E-2,-7.954545E-3,-2.4107143E-2,1.861111E-2,-6.0606063E-3,1.5833333E-2,2.4460433E-2,1.4423077E-2,1.7241379E-3,-2.3076924E-2,5.2083335E-3,5.059524E-3,-1.5778689E-2,-1.5217391E-2,1.5548781E-2],"categories":[],"categories_nodes":[],"categories_segments":[],"categories_sizes":[],"default_left":[0,0,0,0,0,0,0,0,0,0,0,0,0,0,0,0,0,0,0,0,0,0,0,0,0,0,0,0,1,0,0,0,0,0,0,0,0,0,0,0,0,0,0,0,0,0,0,0,0,0,0,0,0,0,0,0,0,0,0,0,0,0,0,0,0,0,0,0,0,0,0,0,0,0,0,0,0,0,0,0,0,0,0,0,0],"id":6,"left_children":[1,3,5,7,9,11,13,15,17,19,21,-1,23,25,27,29,31,33,35,37,39,41,43,-1,-1,45,-1,47,49,-1,51,53,55,-1,57,59,-1,-1,61,63,65,67,69,71,73,75,-1,77,79,81,83,-1,-1,-1,-1,-1,-1,-1,-1,-1,-1,-1,-1,-1,-1,-1,-1,-1,-1,-1,-1,-1,-1,-1,-1,-1,-1,-1,-1,-1,-1,-1,-1,-1,-1],"loss_changes":[2.4451855E1,2.0194965E1,1.4623795E1,1.8458097E1,3.9977425E1,4.903023E0,1.2740612E1,1.8022839E1,6.426319E0,1.7320223E1,1.853381E1,0E0,1.4550838E0,3.812191E0,9.920104E0,3.6421452E0,1.8542107E1,7.9275513E0,7.089923E0,1.3807585E1,5.313244E0,6.6509705E0,1.2112039E1,0E0,0E0,1.6909561E0,0E0,1.2676823E1,7.251726E0,0E0,1.8597641E0,2.242069E1,1.3808521E1,0E0,3.5063763E0,6.0743494E0,0E0,0E0,1.0373558E1,4.0700722E-1,5.15139E0,1.7246895E0,5.580574E0,1.1677876E0,5.8210955E0,5.2303314E-1,0E0,6.991789E0,4.6931095E0,8.619465E0,6.769448E0,0E0,0E0,0E0,0E0,0E0,0E0,0E0,0E0,0E0,0E0,0E0,0E0,0E0,0E0,0E0,0E0,0E0,0E0,0E0,0E0,0E0,0E0,0E0,0E0,0E0,0E0,0E0,0E0,0E0,0E0,0E0,0E0,0E0,0E0],"parents":[2147483647,0,0,1,1,2,2,3,3,4,4,5,5,6,6,7,7,8,8,9,9,10,10,12,12,13,13,14,14,15,15,16,16,17,17,18,18,19,19,20,20,21,21,22,22,25,25,27,27,28,28,30,30,31,31,32,32,34,34,35,35,38,38,39,39,40,40,41,41,42,42,43,43,44,44,45,45,47,47,48,48,49,49,50,50],"right_children":[2,4,6,8,10,12,14,16,18,20,22,-1,24,26,28,30,32,34,36,38,40,42,44,-1,-1,46,-1,48,50,-1,52,54,56,-1,58,60,-1,-1,62,64,66,68,70,72,74,76,-1,78,80,82,84,-1,-1,-1,-1,-1,-1,-1,-1,-1,-1,-1,-1,-1,-1,-1,-1,-1,-1,-1,-1,-1,-1,-1,-1,-1,-1,-1,-1,-1,-1,-1,-1,-1,-1],"split_conditions":[2.176663E1,7.400759E9,-1.6257143E2,8.655204E1,3.6725E1,6.124576E1,9.3E-3,-1.4331899E0,2.2671244E-1,9.60429E1,1.6426786E10,1.3815488E-1,9.716859E-1,1.3975967E2,6.4144474E-3,-3.921655E2,5.4145772E-2,-9.913044E-2,1.412112E1,3.4922073E0,2.85E1,1.0010162E-2,-1.0390869E-1,-4.0962276E-1,-2.541462E-1,3.8458135E-2,-9.259776E-2,8.12085E1,2.165795E0,1.459341E-2,-1.5050489E0,-4.1264908E1,-1.1733564E1,3.5606655E-1,1.1771673E0,5.4007754E0,-3.0608675E-1,4.9196488E-1,-1.7342187E-1,-8.716149E-1,7.9001194E-1,1.8093107E0,1.7955394E-2,5.35862E-1,7.465526E-2,-6.0397166E-1,3.5314164E-1,5.1E-1,2.576545E9,2.5342734E2,-4.88159E-1,-3.5548776E-1,-6.730061E-2,2.591455E-1,-5.1836748E-2,-3.0800715E-1,7.442977E-2,-2.4840625E-1,-2.6739443E-2,1.0246489E-1,-3.7005478E-1,2.4005476E-1,-1.7151313E-1,2.541668E-1,5.563243E-1,4.837887E-1,9.2161335E-2,-4.6907026E-1,-1.1087308E-1,1.1503631E-2,-3.502463E-1,-1.1044289E-1,-3.421964E-1,2.0368901E-1,-5.227509E-2,4.9401617E-1,7.4358505E-1,3.3200523E-1,3.2746773E-2,-4.3461084E-1,1.6493628E-2,1.0010233E-1,-3.896839E-1,-3.8648066E-1,6.156233E-1],"split_indices":[28,65,40,56,58,56,25,75,44,57,82,0,84,69,8,76,28,21,41,29,55,57,72,0,0,1,0,29,75,0,75,28,37,0,39,67,0,0,78,63,19,31,62,9,4,44,0,25,65,76,72,0,0,0,0,0,0,0,0,0,0,0,0,0,0,0,0,0,0,0,0,0,0,0,0,0,0,0,0,0,0,0,0,0,0],"split_type":[0,0,0,0,0,0,0,0,0,0,0,0,0,0,0,0,0,0,0,0,0,0,0,0,0,0,0,0,0,0,0,0,0,0,0,0,0,0,0,0,0,0,0,0,0,0,0,0,0,0,0,0,0,0,0,0,0,0,0,0,0,0,0,0,0,0,0,0,0,0,0,0,0,0,0,0,0,0,0,0,0,0,0,0,0],"sum_hessian":[9.975E3,8.716E3,1.259E3,6.814E3,1.902E3,9.3E1,1.166E3,6.32E3,4.94E2,7.81E2,1.121E3,2.3E1,7E1,2.13E2,9.53E2,1.34E2,6.186E3,3.19E2,1.75E2,4.26E2,3.55E2,9.52E2,1.69E2,5E1,2E1,1.92E2,2.1E1,6.46E2,3.07E2,2.3E1,1.11E2,3.363E3,2.823E3,2E1,2.99E2,1.41E2,3.4E1,4.2E1,3.84E2,8.8E1,2.67E2,2.55E2,6.97E2,4.8E1,1.21E2,1.67E2,2.5E1,5.85E2,6.1E1,2.04E2,1.03E2,8.7E1,2.4E1,5.74E2,2.789E3,1.83E2,2.64E3,2.45E2,5.4E1,1.09E2,3.2E1,1.1E2,2.74E2,2E1,6.8E1,6.4E1,2.03E2,2.31E2,2.4E1,8.5E1,6.12E2,2.1E1,2.7E1,8.9E1,3.2E1,2.9E1,1.38E2,4.41E2,1.44E2,3.8E1,2.3E1,8.3E1,1.21E2,2.2E1,8.1E1],"tree_param":{"num_deleted":"0","num_feature":"86","num_nodes":"85","size_leaf_vector":"1"}},{"base_weights":[-9.0461355E-3,4.385246E-1,-1.4601139E-2,2.4754902E-2,7.1428576E-3,-3.188406E-2,1.0921927E-1,-1.07519785E-2,-1.8499044E-1,-2.616279E-1,1.3762288E-1,1.2716763E-1,-2.8513996E-2,1.5697674E-1,-2.1540062E-1,6.521739E-3,-3.984375E-1,3.575E-1,8.9673914E-2,1.6066998E-1,-3.25E-1,-2.4436092E-2,-1.9213244E-2,2.2844827E-2,-2.2413794E-2,-9.937239E-2,-3.2954547E-1,-2.4358975E-2,-1.25E-2,4.375E-3,4.2236024E-1,2.4521072E-1,2.8030302E-2,1.8629808E-2,4.3405676E-3,-2.3809525E-3,-2.3125E-2,8.188824E-3,-1.7433234E-3,-9.455588E-3,7.115385E-3,-4.166667E-3,-1.9240506E-2,5.6818184E-3,2.3392858E-2,1.7801048E-2,-2.8169013E-3,1.5037593E-2,-2.0359848E-3],"categories":[],"categories_nodes":[],"categories_segments":[],"categories_sizes":[],"default_left":[0,0,0,0,0,1,0,0,0,0,0,0,0,0,0,0,0,0,0,1,0,0,0,0,0,0,0,0,0,0,0,0,0,0,0,0,0,0,0,0,0,0,0,0,0,0,0,0,0],"id":7,"left_children":[1,3,5,-1,-1,7,9,11,13,15,17,19,21,23,25,-1,27,29,31,33,35,-1,37,-1,-1,39,41,-1,-1,-1,43,45,47,-1,-1,-1,-1,-1,-1,-1,-1,-1,-1,-1,-1,-1,-1,-1,-1],"loss_changes":[2.4742176E1,1.9699574E0,2.1035187E1,0E0,0E0,2.790382E1,1.2718217E1,1.8572584E1,1.0911465E1,4.6648326E0,1.1765427E1,1.3155823E1,2.8736965E1,1.5816158E1,1.2694759E1,0E0,7.2125435E-1,3.465496E0,8.81395E0,1.258363E1,2.2663684E0,0E0,1.8864786E1,0E0,0E0,1.039388E1,6.5536385E0,0E0,0E0,0E0,2.2082367E0,8.74129E0,1.2386988E1,0E0,0E0,0E0,0E0,0E0,0E0,0E0,0E0,0E0,0E0,0E0,0E0,0E0,0E0,0E0,0E0],"parents":[2147483647,0,0,1,1,2,2,5,5,6,6,7,7,8,8,9,9,10,10,11,11,12,12,13,13,14,14,16,16,17,17,18,18,19,19,20,20,22,22,25,25,26,26,30,30,31,31,32,32],"right_children":[2,4,6,-1,-1,8,10,12,14,16,18,20,22,24,26,-1,28,30,32,34,36,-1,38,-1,-1,40,42,-1,-1,-1,44,46,48,-1,-1,-1,-1,-1,-1,-1,-1,-1,-1,-1,-1,-1,-1,-1,-1],"split_conditions":[6.854008E0,1.87E1,2.176663E1,6.405012E-1,2.3290625E-1,5.585211E0,-1.6257143E2,-2.781391E0,1.0940114E1,6.217049E1,2.1878E7,8.088226E9,1.3990909E8,3.9128373E0,3.9025E1,8.814786E-2,8.921345E-1,-8.3E-1,1.7318249E0,-2.444E-2,8.946144E-1,-6.900549E-1,-3.6277676E1,2.9492232E-1,-3.0784288E-1,7.5356714E-2,-2.329951E0,-3.9761046E-1,-3.4123945E-1,1.173408E-1,2.857143E-1,5.294118E-1,2.542385E1,5.0983506E-1,1.0431143E-1,-8.6336635E-2,-8.91842E-1,3.09119E-1,-2.6730916E-2,-1.7196916E-1,1.605401E-1,-1.6326547E-1,-3.7638903E-1,9.8460875E-2,6.6098404E-1,2.5530097E-1,-8.4984384E-2,3.744795E-1,-2.5527025E-2],"split_indices":[56,58,28,0,0,84,40,83,20,56,74,65,65,83,58,0,84,51,67,0,19,0,28,0,0,72,68,0,0,0,7,10,28,0,0,0,0,0,0,0,0,0,0,0,0,0,0,0,0],"split_type":[0,0,0,0,0,0,0,0,0,0,0,0,0,0,0,0,0,0,0,0,0,0,0,0,0,0,0,0,0,0,0,0,0,0,0,0,0,0,0,0,0,0,0,0,0,0,0,0,0],"sum_hessian":[9.948E3,1.21E2,9.827E3,1.01E2,2E1,8.624E3,1.203E3,7.579E3,1.045E3,8.5E1,1.118E3,8.64E2,6.715E3,8.5E1,9.6E2,2.2E1,6.3E1,1.99E2,9.19E2,8.05E2,5.9E1,1.32E2,6.583E3,5.7E1,2.8E1,4.77E2,4.83E2,3.8E1,2.5E1,3.9E1,1.6E2,2.6E2,6.59E2,2.07E2,5.98E2,2E1,3.9E1,5.18E2,6.065E3,3.48E2,1.29E2,8.9E1,3.94E2,2.1E1,1.39E2,1.9E2,7E1,1.32E2,5.27E2],"tree_param":{"num_deleted":"0","num_feature":"86","num_nodes":"49","size_leaf_vector":"1"}},{"base_weights":[-4.2595346E-3,4.08E-1,-9.427339E-3,-0E0,2.4285715E-2,3.9615384E-1,-1.4783581E-2,4.6391752E-1,9.558824E-3,-2.9281768E-1,-9.573587E-3,2.4675325E-2,1.6666668E-2,5.6603774E-2,-4.3410853E-1,-4.9123157E-2,3.315393E-2,-1.3392857E-2,2.0192308E-2,-2.4311928E-2,-7.1428576E-3,-2.2993792E-2,-2.1865672E-1,9.131804E-2,-2.0222865E-2,-3.451087E-3,2.845912E-3,2.1634616E-3,-1.3315697E-2,-7.900944E-3,5.877237E-3,-9.904661E-3,1.1398566E-3],"categories":[],"categories_nodes":[],"categories_segments":[],"categories_sizes":[],"default_left":[0,0,0,0,0,1,0,0,0,0,0,0,0,0,0,0,1,0,0,0,0,0,0,0,0,0,0,0,0,0,0,0,0],"id":8,"left_children":[1,3,5,-1,-1,7,9,11,-1,13,15,-1,-1,17,19,21,23,-1,-1,-1,-1,25,27,29,31,-1,-1,-1,-1,-1,-1,-1,-1],"loss_changes":[2.151101E1,3.9634285E0,2.1666763E1,0E0,0E0,1.7170143E0,1.4253883E1,2.1029091E-1,0E0,8.960552E0,1.6329006E1,0E0,0E0,6.079502E0,1.8891354E0,2.222373E1,1.4422777E1,0E0,0E0,0E0,0E0,1.6000362E1,8.374905E0,1.4555399E1,1.8545267E1,0E0,0E0,0E0,0E0,0E0,0E0,0E0,0E0],"parents":[2147483647,0,0,1,1,2,2,5,5,6,6,7,7,9,9,10,10,13,13,14,14,15,15,16,16,21,21,22,22,23,23,24,24],"right_children":[2,4,6,-1,-1,8,10,12,-1,14,16,-1,-1,18,20,22,24,-1,-1,-1,-1,26,28,30,32,-1,-1,-1,-1,-1,-1,-1,-1],"split_conditions":[6.854008E0,1.0646855E-1,1.225661E8,7.646592E-2,5.6026125E-1,6.524E-2,-1.5050489E0,2.525773E-1,1.035625E-1,-3.068342E2,7.910921E-1,5.1893073E-1,4.4809207E-1,2.6823428E-1,1.2442698E-1,5.7247076E0,8.4186465E-1,-1.20855324E-1,1.7697327E-1,-3.6902165E-1,-1.1327404E-1,1.1478823E2,2.5640464E0,3.4562793E0,-4.551355E-1,-5.97458E-2,5.3569376E-2,2.3063123E-2,-2.571643E-1,-1.6694048E-1,1.3237591E-1,-1.5845275E-1,1.3911205E-2],"split_indices":[56,57,82,0,0,0,75,4,0,76,28,0,0,12,4,84,75,0,0,0,0,30,61,28,39,0,0,0,0,0,0,0,0],"split_type":[0,0,0,0,0,0,0,0,0,0,0,0,0,0,0,0,0,0,0,0,0,0,0,0,0,0,0,0,0,0,0,0,0],"sum_hessian":[1.0094E4,1.24E2,9.97E3,2E1,1.04E2,1.29E2,9.841E3,9.6E1,3.3E1,1.8E2,9.661E3,7.6E1,2E1,5.2E1,1.28E2,5.017E3,4.644E3,2.7E1,2.5E1,1.08E2,2E1,4.348E3,6.69E2,2.222E3,2.422E3,2.759E3,1.589E3,1.03E2,5.66E2,2.11E2,2.011E3,4.71E2,1.951E3],"tree_param":{"num_deleted":"0","num_feature":"86","num_nodes":"33","size_leaf_vector":"1"}},{"base_weights":[-5.994605E-4,1.4054601E-1,-1.6073607E-2,2.7385158E-2,2.912736E-1,2.2927015E-3,-1.3919726E-1,1.879562E-1,-1.2286689E-1,4.0811965E-1,1.4659686E-1,1.3323045E-1,-1.6206395E-2,-2.6124197E-1,-5.815603E-2,3.8613862E-1,7.183908E-2,-2.2510822E-1,2.5396827E-1,4.504717E-1,-0E0,3.7037037E-2,4.0350878E-1,2.0707831E-1,-2.5889968E-2,-2.287823E-2,4.1037735E-1,-1.3147411E-1,-4.1013825E-1,1.03559874E-1,-1.8387909E-1,2.3397436E-2,5.2083335E-3,3.3333334E-1,-9.90566E-2,9.836066E-2,-3.3918127E-1,-1.1363637E-3,3.9285713E-1,4.701087E-1,1.5517241E-2,1.2946428E-1,-1.9791668E-2,1.1904762E-2,2.4324326E-2,3.6842105E-1,1.1124402E-1,7.459678E-2,-4.2741936E-1,-1.2927757E-1,2.7467497E-3,2.34375E-2,1.1111111E-2,-2.4120604E-1,2.8301886E-1,-9.166667E-3,-4.4414893E-1,2.389937E-1,-3.97351E-2,-2.6067072E-1,1.7857143E-1,2.1276597E-2,6.521739E-3,-1.6810345E-2,9.183674E-3,1.875E-2,-1.4423077E-2,-1.1052632E-2,-2.4025975E-2,2.3863636E-2,1.4285715E-2,1.7045455E-2,2.4233129E-2,1.1607143E-2,-8.62069E-3,-0E0,2.0044053E-2,1.2853773E-2,-1.9323671E-3,-5.871212E-3,1.45299155E-2,-1.5625E-2,-2.4358975E-2,-1.2380573E-2,-1.0537792E-3,2.85533E-3,-2.6349851E-3,-2.2352941E-2,-4.3478264E-3,2.4074076E-2,3.7037039E-3,-2.4456521E-2,-1.5686275E-2,-1.5E-3,1.7954545E-2,1.2711865E-2,-1.1290322E-2,-2.1008404E-2,-8.452381E-3,-2.4390244E-3,2.4166666E-2],"categories":[],"categories_nodes":[],"categories_segments":[],"categories_sizes":[],"default_left":[0,0,1,0,0,0,0,0,0,0,0,0,0,0,0,0,0,0,0,0,0,0,0,1,0,0,0,0,0,0,0,0,0,0,0,0,0,0,0,0,0,0,0,0,0,0,0,0,0,1,0,0,0,1,0,0,0,0,0,0,0,0,0,0,0,0,0,0,0,0,0,0,0,0,0,0,0,0,0,0,0,0,0,0,0,0,0,0,0,0,0,0,0,0,0,0,0,0,0,0,0],"id":9,"left_children":[1,3,5,7,9,11,13,15,17,19,21,23,25,27,29,31,33,35,37,39,-1,41,43,45,47,49,51,53,55,57,59,-1,-1,61,63,65,67,-1,69,71,-1,73,-1,-1,-1,75,77,79,81,83,85,-1,-1,87,89,-1,91,93,95,97,99,-1,-1,-1,-1,-1,-1,-1,-1,-1,-1,-1,-1,-1,-1,-1,-1,-1,-1,-1,-1,-1,-1,-1,-1,-1,-1,-1,-1,-1,-1,-1,-1,-1,-1,-1,-1,-1,-1,-1,-1],"loss_changes":[2.186297E1,1.686086E1,2.039975E1,1.3678483E1,7.107853E0,1.9019087E1,1.1566763E1,6.27765E0,1.1345911E1,4.0446205E0,5.361175E0,1.1427044E1,1.9590528E1,8.969429E0,1.4352692E1,2.2811375E0,7.808772E0,8.557051E0,2.4300141E0,4.3745804E-1,0E0,5.452464E0,6.6653156E-1,1.0225897E1,1.2499533E1,1.8472261E1,1.0600433E0,1.1484528E1,1.5924683E0,6.006256E0,1.1096317E1,0E0,0E0,1.2352757E0,7.1690016E0,6.6357975E0,2.7488117E0,0E0,2.4350643E-1,1.8076324E-1,0E0,3.511623E0,0E0,0E0,0E0,2.9538574E0,9.146945E0,1.0320377E1,2.7354813E-1,1.6831991E1,1.6462797E1,0E0,0E0,6.279912E0,2.1621242E0,0E0,9.4947433E-1,5.1473293E0,8.317083E0,4.722246E0,4.873751E0,0E0,0E0,0E0,0E0,0E0,0E0,0E0,0E0,0E0,0E0,0E0,0E0,0E0,0E0,0E0,0E0,0E0,0E0,0E0,0E0,0E0,0E0,0E0,0E0,0E0,0E0,0E0,0E0,0E0,0E0,0E0,0E0,0E0,0E0,0E0,0E0,0E0,0E0,0E0,0E0],"parents":[2147483647,0,0,1,1,2,2,3,3,4,4,5,5,6,6,7,7,8,8,9,9,10,10,11,11,12,12,13,13,14,14,15,15,16,16,17,17,18,18,19,19,21,21,22,22,23,23,24,24,25,25,26,26,27,27,28,28,29,29,30,30,33,33,34,34,35,35,36,36,38,38,39,39,41,41,45,45,46,46,47,47,48,48,49,49,50,50,53,53,54,54,56,56,57,57,58,58,59,59,60,60],"right_children":[2,4,6,8,10,12,14,16,18,20,22,24,26,28,30,32,34,36,38,40,-1,42,44,46,48,50,52,54,56,58,60,-1,-1,62,64,66,68,-1,70,72,-1,74,-1,-1,-1,76,78,80,82,84,86,-1,-1,88,90,-1,92,94,96,98,100,-1,-1,-1,-1,-1,-1,-1,-1,-1,-1,-1,-1,-1,-1,-1,-1,-1,-1,-1,-1,-1,-1,-1,-1,-1,-1,-1,-1,-1,-1,-1,-1,-1,-1,-1,-1,-1,-1,-1,-1],"split_conditions":[1.87E1,9.0554214E1,5.2465177E0,-2.6570477E0,9.266958E1,-2.671591E0,4.262304E-2,2.0841366E1,9.9999664E1,9.1979885E0,5.698814E0,1.8417098E-1,1.8400647E3,-2.4567015E-1,7.8911567E-1,6.5495715E-2,-1.7520913E0,1.1617647E1,5.342249E0,1.247216E0,-5.321479E-3,4.0816326E1,5.1929367E-1,4.7902523E1,1.9317778E2,6.7291856E-1,3.529221E1,7.112831E1,3.7019115E1,3.9410582E0,1.51379795E1,3.1973252E-1,9.460175E-2,7.6009617E0,5.442399E-1,9.24E-3,-1.0743802E0,-4.853243E-2,1.5007402E-1,3.9094862E-1,3.286434E-1,1.0036526E-2,-3.909626E-1,3.2072797E-1,7.567195E-1,-1.99E1,8.009579E-2,1.7842742E0,6.347836E-1,5.485714E-1,1.5748376E1,7.102103E-1,6.921354E-1,4.984596E0,5.8072954E-1,-1.8180989E-1,4.148411E0,1.0887234E2,-2.1760776E0,5.0747466E-1,-4.88159E-1,2.7813867E-1,8.197767E-3,-2.69734E-1,1.356445E-1,2.1692057E-1,-1.9913591E-1,-1.3441624E-1,-3.313677E-1,4.3668452E-1,3.7536454E-1,4.2964742E-1,5.2784455E-1,1.03795245E-1,-4.554817E-2,-1.0994322E-2,4.9195552E-1,3.7991068E-1,-3.361437E-2,-1.2769476E-1,3.7887117E-1,-5.629613E-1,-8.419024E-1,-2.3742257E-1,-2.4231482E-2,3.7485074E-2,-4.3933522E-2,-7.2835106E-1,-6.090281E-2,2.6833916E-1,3.4067255E-2,-3.76091E-1,-5.539066E-1,-6.7793117E-3,2.966332E-1,1.7334312E-1,-1.365128E-1,-3.9382395E-1,-2.0714453E-1,-2.0863919E-1,1.230474E0],"split_indices":[58,40,84,23,30,83,39,56,57,84,18,73,30,68,7,73,11,20,36,19,0,26,14,76,40,38,20,56,56,83,83,0,0,26,12,0,23,0,2,12,0,1,0,0,0,60,77,32,84,7,26,0,0,75,9,0,68,40,11,12,72,0,0,0,0,0,0,0,0,0,0,0,0,0,0,0,0,0,0,0,0,0,0,0,0,0,0,0,0,0,0,0,0,0,0,0,0,0,0,0,0],"split_type":[0,0,0,0,0,0,0,0,0,0,0,0,0,0,0,0,0,0,0,0,0,0,0,0,0,0,0,0,0,0,0,0,0,0,0,0,0,0,0,0,0,0,0,0,0,0,0,0,0,0,0,0,0,0,0,0,0,0,0,0,0,0,0,0,0,0,0,0,0,0,0,0,0,0,0,0,0,0,0,0,0,0,0,0,0,0,0,0,0,0,0,0,0,0,0,0,0,0,0,0,0],"sum_hessian":[1.0008E4,9.88E2,9.02E3,5.65E2,4.23E2,7.85E3,1.17E3,2.73E2,2.92E2,2.33E2,1.9E2,9.71E2,6.879E3,4.66E2,7.04E2,1E2,1.73E2,2.3E2,6.2E1,2.11E2,2.2E1,1.34E2,5.6E1,6.63E2,3.08E2,6.774E3,1.05E2,2.5E2,2.16E2,3.08E2,3.96E2,7.7E1,2.3E1,6.8E1,1.05E2,6E1,1.7E2,2.1E1,4.1E1,1.83E2,2.8E1,1.11E2,2.3E1,2E1,3.6E1,2.46E2,4.17E2,2.47E2,6.1E1,1.314E3,5.46E3,7.9E1,2.6E1,1.98E2,5.2E1,2.9E1,1.87E2,1.58E2,1.5E2,3.27E2,6.9E1,4.6E1,2.2E1,5.7E1,4.8E1,3.5E1,2.5E1,9.4E1,7.6E1,2.1E1,2E1,2.1E1,1.62E2,8.3E1,2.8E1,2E1,2.26E2,2.11E2,2.06E2,1.31E2,1.16E2,2.3E1,3.8E1,6.27E2,6.87E2,2.757E3,2.703E3,8.4E1,1.14E2,2.6E1,2.6E1,1.37E2,5E1,4.9E1,1.09E2,5.8E1,9.2E1,1.18E2,2.09E2,4E1,2.9E1],"tree_param":{"num_deleted":"0","num_feature":"86","num_nodes":"101","size_leaf_vector":"1"}},{"base_weights":[-3.0469531E-3,-2.021301E-2,1.1415168E-1,-3.454119E-3,-1.4137606E-1,-2.2580644E-1,1.4069082E-1,-7.2510324E-2,2.3935203E-2,-2.3294508E-1,-2.1691974E-2,4.2857146E-3,-4.0677965E-1,3.3531746E-1,8.8141024E-2,-1.7235683E-1,-1.1792453E-3,9.644522E-2,-8.997089E-3,-1.2096774E-2,-2.8974897E-1,1.6334662E-1,-2.4170616E-1,-2.4358975E-2,-1.1904762E-2,3.9631337E-1,-2.0833334E-3,1.6581632E-1,-4.2979944E-2,-7.996633E-2,-3.4603176E-1,3.7209302E-1,-4.3269232E-2,2.0802377E-1,2.4425287E-2,-3.1434476E-2,1.8494898E-1,1.9375E-2,-2E-1,-4.2211056E-1,-1.9464286E-1,-1.8269232E-2,2.2345133E-1,-4.2857143E-1,-1.6107382E-1,6.8965517E-3,4.3386245E-1,2.3076923E-1,-1.25E-1,1.0372341E-1,-2.1296297E-1,-1.01878615E-2,4.618474E-3,7.1428576E-3,-1.8983051E-2,2.1559633E-2,2.3809525E-3,-1.7456897E-2,-4.373178E-4,5.949657E-3,1.8565401E-2,1.2231183E-2,-1.1641444E-3,-4.080282E-3,3.4982176E-3,1.8698348E-2,-5.9602647E-3,1.1290322E-2,-2.1818181E-2,-1.1428571E-2,-2.3030303E-2,5.729167E-3,-1.2875536E-2,1.9565217E-2,2.4553572E-3,-2.4390245E-2,-1.5217391E-2,-2.7472528E-3,-1.6101696E-2,9.821429E-3,2.3611112E-2,1.6207952E-2,1.6129032E-3,6.329114E-4,-2.4166666E-2,-1.6477274E-2,1.1724139E-2,1.2857144E-2,-1.6992187E-2],"categories":[],"categories_nodes":[],"categories_segments":[],"categories_sizes":[],"default_left":[0,0,0,0,0,0,1,0,0,0,0,0,0,1,0,0,0,0,0,0,0,0,0,0,0,0,0,0,0,0,0,1,0,0,0,0,0,0,0,0,0,0,0,0,0,0,0,0,0,0,0,0,0,0,0,0,0,0,0,0,0,0,0,0,0,0,0,0,0,0,0,0,0,0,0,0,0,0,0,0,0,0,0,0,0,0,0,0,0],"id":10,"left_children":[1,3,5,7,9,11,13,15,17,19,21,-1,23,25,27,29,31,33,35,37,39,41,43,-1,-1,45,-1,47,49,51,53,55,57,59,61,63,65,-1,67,69,71,-1,73,75,77,-1,79,81,83,85,87,-1,-1,-1,-1,-1,-1,-1,-1,-1,-1,-1,-1,-1,-1,-1,-1,-1,-1,-1,-1,-1,-1,-1,-1,-1,-1,-1,-1,-1,-1,-1,-1,-1,-1,-1,-1,-1,-1],"loss_changes":[2.014081E1,1.7730347E1,1.1571157E1,1.4512576E1,1.1622822E1,5.2779193E0,1.2110594E1,1.5518981E1,1.3120107E1,7.536064E0,1.8807306E1,0E0,6.841755E-1,5.811125E0,9.540155E0,1.4542017E1,2.0000525E1,1.378449E1,1.6450672E1,9.388104E0,5.935093E0,8.058234E0,3.1101866E0,0E0,0E0,2.045494E0,0E0,1.1135794E1,8.72513E0,1.2690981E1,5.233143E0,2.453207E0,1.2076977E1,9.739418E0,1.097319E1,1.7241474E1,2.2580902E1,0E0,8.653372E0,1.377346E0,5.4728165E0,0E0,6.594494E0,3.1510448E-1,2.527598E0,0E0,1.6286354E0,8.906759E0,5.3334913E0,1.0728216E1,9.750266E0,0E0,0E0,0E0,0E0,0E0,0E0,0E0,0E0,0E0,0E0,0E0,0E0,0E0,0E0,0E0,0E0,0E0,0E0,0E0,0E0,0E0,0E0,0E0,0E0,0E0,0E0,0E0,0E0,0E0,0E0,0E0,0E0,0E0,0E0,0E0,0E0,0E0,0E0],"parents":[2147483647,0,0,1,1,2,2,3,3,4,4,5,5,6,6,7,7,8,8,9,9,10,10,12,12,13,13,14,14,15,15,16,16,17,17,18,18,19,19,20,20,21,21,22,22,25,25,27,27,28,28,29,29,30,30,31,31,32,32,33,33,34,34,35,35,36,36,38,38,39,39,40,40,42,42,43,43,44,44,46,46,47,47,48,48,49,49,50,50],"right_children":[2,4,6,8,10,12,14,16,18,20,22,-1,24,26,28,30,32,34,36,38,40,42,44,-1,-1,46,-1,48,50,52,54,56,58,60,62,64,66,-1,68,70,72,-1,74,76,78,-1,80,82,84,86,88,-1,-1,-1,-1,-1,-1,-1,-1,-1,-1,-1,-1,-1,-1,-1,-1,-1,-1,-1,-1,-1,-1,-1,-1,-1,-1,-1,-1,-1,-1,-1,-1,-1,-1,-1,-1,-1,-1],"split_conditions":[2.176663E1,5.7247076E0,-1.6257143E2,9.313725E-1,9.916789E1,3.915084E-1,-1.0621429E2,1.1478823E2,5.9593377E0,-1.4417823E-1,8.7189484E-1,3.472326E-2,5.553862E0,8.593119E2,5.2506167E-1,5.9603876E-1,8.51804E8,3.1440893E1,4.446809E-1,1.175942E2,1.7655426E-1,2.7918488E-1,6.666667E-1,-4.584682E-1,-2.4215475E-1,-2.2830255E0,-6.568225E-2,9.927536E1,4.158654E1,3.745946E1,2.1003644E-1,-1.0198939E-1,-1.5050489E0,1.3008496E0,3.0015798E0,4.7058823E1,2.0406176E-1,2.9961866E-1,1.3863354E0,3.5905522E-1,7.196303E-1,-7.6319593E-1,6.21196E0,7.8E-1,-8.4952556E-2,7.4782096E-2,-8.3E-1,3.355675E-2,8.5224676E-1,-4.88159E-1,2.247932E0,-2.0168424E-1,1.5703452E-1,5.9921302E-2,-3.2629442E-1,6.6726106E-1,4.51349E-1,-2.3341422E-1,-1.0045058E-2,9.291764E-2,2.2532038E-1,5.615744E-1,-3.0088669E-2,-6.3865595E-2,4.4563588E-2,1.4605223E-1,-6.5987684E-2,3.5372266E-1,-6.5829486E-1,-3.0013463E-1,-3.485168E-1,6.0788143E-2,-2.2556916E-1,3.1174773E-1,5.547721E-2,-2.5593996E-1,-1.3125797E-1,-6.789034E-2,-3.6052534E-1,6.8107736E-1,5.713232E-1,3.4423953E-1,1.8760616E-2,6.554216E-3,-3.3371207E-1,-5.725779E-1,4.451395E-1,1.7632966E-1,-2.518725E-1],"split_indices":[28,84,40,38,57,3,40,30,26,78,68,0,14,76,2,12,79,30,77,40,3,12,10,0,0,11,0,26,26,40,41,8,75,84,35,27,3,0,75,12,80,0,61,47,63,0,51,72,80,72,67,0,0,0,0,0,0,0,0,0,0,0,0,0,0,0,0,0,0,0,0,0,0,0,0,0,0,0,0,0,0,0,0,0,0,0,0,0,0],"split_type":[0,0,0,0,0,0,0,0,0,0,0,0,0,0,0,0,0,0,0,0,0,0,0,0,0,0,0,0,0,0,0,0,0,0,0,0,0,0,0,0,0,0,0,0,0,0,0,0,0,0,0,0,0,0,0,0,0,0,0,0,0,0,0,0,0,0,0,0,0,0,0,0,0,0,0,0,0,0,0,0,0,0,0,0,0,0,0,0,0],"sum_hessian":[1.0009E4,8.731E3,1.278E3,7.671E3,1.06E3,9.2E1,1.186E3,2.178E3,5.493E3,6E2,4.6E2,3.4E1,5.8E1,2.51E2,9.35E2,9.07E2,1.271E3,1.715E3,3.778E3,1.23E2,4.77E2,2.5E2,2.1E2,3.8E1,2E1,2.16E2,3.5E1,5.87E2,3.48E2,5.93E2,3.14E2,1.28E2,1.143E3,6.72E2,1.043E3,3.387E3,3.91E2,3.9E1,8.4E1,1.98E2,2.79E2,2.5E1,2.25E2,6.2E1,1.48E2,2.8E1,1.88E2,4.8E2,1.07E2,1.87E2,1.61E2,3.45E2,2.48E2,2E1,2.94E2,1.08E2,2E1,1.15E2,1.028E3,4.36E2,2.36E2,1.85E2,8.58E2,2.266E3,1.121E3,2.41E2,1.5E2,3E1,5.4E1,3.4E1,1.64E2,4.7E1,2.32E2,1.14E2,1.11E2,4E1,2.2E1,9E1,5.8E1,2.7E1,1.61E2,3.26E2,1.54E2,7.8E1,2.9E1,4.3E1,1.44E2,3.4E1,1.27E2],"tree_param":{"num_deleted":"0","num_feature":"86","num_nodes":"89","size_leaf_vector":"1"}},{"base_weights":[-4.4243387E-3,1.0750729E-1,-2.210199E-2,5.2849263E-2,3.1578946E-1,-1.06961384E-1,2.7529763E-3,4.0530303E-1,4.179728E-3,3.9910313E-1,1.5873017E-2,3.218391E-1,-1.2672688E-1,1.6439395E-1,-1.4849035E-2,1.38157895E-2,4.526316E-1,3.880597E-1,-2.4691358E-2,4.732143E-1,1.6964285E-1,1.9791668E-2,-1.0625E-2,2.3134328E-2,-7.1428576E-3,-4.34375E-1,-9.808473E-2,2.956081E-1,5.7534248E-2,-2.174278E-2,3.726415E-1,2.4609376E-2,1.796875E-2,2.443182E-2,9.375E-3,2.184874E-1,-6.209573E-2,2.4482759E-2,1.7708333E-2,2.4107143E-2,-6.8965517E-3,-9.52381E-3,-4.6785715E-1,-1.3118062E-2,-2.1282402E-1,3.5856575E-1,-5.4347824E-2,-1.7666666E-1,2.199074E-1,-2.1543778E-1,-6.518197E-3,4.2352942E-1,7.954545E-3,-1.0000001E-2,1.631579E-2,1.1944445E-2,-5.0804093E-3,-2.4766356E-2,-1.8382354E-2,1.6891891E-3,-1.1376405E-2,-1.2536337E-2,1.7934782E-2,1.9213974E-2,4.3478264E-3,-2.2115385E-2,2.1428572E-2,1.9318182E-2,-1.3565892E-2,1.8229168E-2,-3.4246575E-3,6.845238E-3,-1.4957266E-2,4.6178032E-4,-9.54023E-3,2.3846155E-2,1.1904762E-2],"categories":[],"categories_nodes":[],"categories_segments":[],"categories_sizes":[],"default_left":[0,0,0,0,0,0,0,0,0,0,0,0,0,1,0,0,0,0,0,0,0,0,0,0,0,0,0,0,0,1,0,0,0,0,0,0,0,0,0,0,0,0,0,0,0,0,0,0,0,0,0,0,0,0,0,0,0,0,0,0,0,0,0,0,0,0,0,0,0,0,0,0,0,0,0,0,0],"id":11,"left_children":[1,3,5,7,9,11,13,15,17,19,21,23,25,27,29,-1,31,33,35,37,39,-1,-1,-1,-1,41,43,45,47,49,51,-1,-1,-1,-1,53,55,-1,-1,-1,-1,-1,57,59,61,63,65,67,69,71,73,75,-1,-1,-1,-1,-1,-1,-1,-1,-1,-1,-1,-1,-1,-1,-1,-1,-1,-1,-1,-1,-1,-1,-1,-1,-1],"loss_changes":[1.9904024E1,1.560256E1,1.832272E1,1.8661598E1,7.115E0,1.6720488E1,1.9122225E1,6.8076134E-1,1.0616043E1,3.7119637E0,5.5507936E0,5.7603607E0,1.6541018E1,9.237186E0,1.6198618E1,0E0,1.735611E-1,1.2598801E0,8.118057E0,1.5539932E-1,5.4490457E0,0E0,0E0,0E0,0E0,1.2174873E0,1.6794762E1,6.5410748E0,1.3919048E1,1.7562397E1,1.0845375E0,0E0,0E0,0E0,0E0,5.4351172E0,9.217285E0,0E0,0E0,0E0,0E0,0E0,2.032814E-1,9.973407E0,1.5968296E1,1.7195892E0,8.807812E0,8.098549E0,9.03749E0,1.28412285E1,1.60362E1,7.2803307E-1,0E0,0E0,0E0,0E0,0E0,0E0,0E0,0E0,0E0,0E0,0E0,0E0,0E0,0E0,0E0,0E0,0E0,0E0,0E0,0E0,0E0,0E0,0E0,0E0,0E0],"parents":[2147483647,0,0,1,1,2,2,3,3,4,4,5,5,6,6,7,7,8,8,9,9,10,10,11,11,12,12,13,13,14,14,16,16,17,17,18,18,19,19,20,20,25,25,26,26,27,27,28,28,29,29,30,30,35,35,36,36,42,42,43,43,44,44,45,45,46,46,47,47,48,48,49,49,50,50,51,51],"right_children":[2,4,6,8,10,12,14,16,18,20,22,24,26,28,30,-1,32,34,36,38,40,-1,-1,-1,-1,42,44,46,48,50,52,-1,-1,-1,-1,54,56,-1,-1,-1,-1,-1,58,60,62,64,66,68,70,72,74,76,-1,-1,-1,-1,-1,-1,-1,-1,-1,-1,-1,-1,-1,-1,-1,-1,-1,-1,-1,-1,-1,-1,-1,-1,-1],"split_conditions":[2.37E1,6.0124904E-1,4.7235325E-1,4.080043E-1,3.5363635E2,-2.320132E2,-2.671591E0,1.7714321E1,1.7849892E-2,5.1135325E0,-1.7978142E0,2.1957573E2,7.61706E8,2.611758E2,1.8400647E3,1.4889266E-1,-1.7758315E2,2.796526E-1,-3.6942127E-1,7.893371E0,1.9856341E-1,6.8169516E-1,-8.194599E-2,5.138564E-1,-2.6541388E-1,-2.02E1,8.30933E9,1.7327272E2,6.898503E1,-1.6257143E2,1.6394648E9,1.1041014E0,3.7959886E-1,4.2627335E-1,5.7288017E-2,-1.93E1,-2.501224E0,4.2659354E-1,3.217604E-1,3.300912E-1,-2.6414359E-2,-5.6124794E-1,1.5E-1,1.6188666E-1,7.8667545E-1,7.75E1,-1.7408123E-2,1.1415525E-1,8.2680154E-1,-2.012855E2,8.896439E1,5.7608886E0,1.4374505E-1,-3.6572987E-1,2.525508E-1,2.9674375E-1,-9.5320806E-2,-5.4764384E-1,-4.5497695E-1,2.4262518E-2,-2.4026708E-1,-2.8819314E-1,2.6943064E-1,3.843076E-1,9.655004E-2,-1.1438873E0,2.4458575E-1,3.0577695E-1,-1.725571E-1,2.9990396E-1,-6.42927E-2,1.1921554E-1,-3.6989197E-1,6.9415392E-3,-1.5993726E-1,6.894304E-1,5.2659667E-1],"split_indices":[58,9,9,9,40,27,83,29,62,84,23,76,65,76,30,0,76,77,73,71,2,0,0,0,0,60,65,40,30,40,65,0,0,0,0,60,8,0,0,0,0,0,45,73,44,55,5,7,80,76,56,68,0,0,0,0,0,0,0,0,0,0,0,0,0,0,0,0,0,0,0,0,0,0,0,0,0],"split_type":[0,0,0,0,0,0,0,0,0,0,0,0,0,0,0,0,0,0,0,0,0,0,0,0,0,0,0,0,0,0,0,0,0,0,0,0,0,0,0,0,0,0,0,0,0,0,0,0,0,0,0,0,0,0,0,0,0,0,0,0,0,0,0,0,0,0,0,0,0,0,0,0,0,0,0,0,0],"sum_hessian":[1.0057E4,1.371E3,8.686E3,1.087E3,2.84E2,1.967E3,6.719E3,1.31E2,9.56E2,2.22E2,6.2E1,8.6E1,1.881E3,6.59E2,6.06E3,3.7E1,9.4E1,6.6E1,8.9E2,1.67E2,5.5E1,2.3E1,3.9E1,6.6E1,2E1,1.59E2,1.722E3,2.95E2,3.64E2,5.955E3,1.05E2,6.3E1,3.1E1,4.3E1,2.3E1,1.18E2,7.72E2,1.44E2,2.3E1,2.7E1,2.8E1,2E1,1.39E2,9.9E2,7.32E2,2.5E2,4.5E1,1.49E2,2.15E2,4.33E2,5.522E3,8.4E1,2.1E1,2.4E1,9.4E1,8.9E1,6.83E2,1.06E2,3.3E1,8.13E2,1.77E2,6.87E2,4.5E1,2.28E2,2.2E1,2.5E1,2E1,2.1E1,1.28E2,1.43E2,7.2E1,8.3E1,3.5E2,5.088E3,4.34E2,6.4E1,2E1],"tree_param":{"num_deleted":"0","num_feature":"86","num_nodes":"77","size_leaf_vector":"1"}},{"base_weights":[-1.1509208E-3,2.4702381E-2,-5.348673E-3,9.789243E-3,-1.12469435E-1,-2.7745664E-1,1.5626837E-2,-1.5986055E-1,1.00446425E-1,5.6603774E-2,-4.214876E-1,3.3333334E-1,1.0966742E-2,-1.9415204E-1,3.6666665E-2,1.658031E-1,-1.484375E-2,-1.25E-2,1.328125E-2,-4.6391752E-1,-1.2E-2,2.3790322E-2,1.8548387E-1,4.56185E-2,-3.3451185E-2,-2.3614958E-1,3.358209E-2,2.559524E-1,-2.3880596E-1,3.0232558E-1,-1.0769231E-1,-1.6666668E-2,-2.4675325E-2,1.7857144E-3,2.3809524E-2,-1.0047847E-2,2.8523863E-3,-1.6816144E-4,-1.0116907E-2,-5.448718E-3,-1.4826176E-2,-2.2522523E-3,1.9791668E-2,2.0312501E-2,2.7027028E-3,-2.2499999E-2,-3.289474E-3,2.0833334E-3,1.994681E-2,1.48148155E-2,-1.923077E-2],"categories":[],"categories_nodes":[],"categories_segments":[],"categories_sizes":[],"default_left":[0,0,1,0,0,0,0,0,0,0,0,1,0,0,0,0,0,0,0,0,0,0,0,0,0,0,0,0,0,0,0,0,0,0,0,0,0,0,0,0,0,0,0,0,0,0,0,0,0,0,0],"id":12,"left_children":[1,-1,3,5,7,9,11,13,15,17,19,21,23,25,27,29,-1,-1,-1,31,-1,-1,33,35,37,39,41,43,45,47,49,-1,-1,-1,-1,-1,-1,-1,-1,-1,-1,-1,-1,-1,-1,-1,-1,-1,-1,-1,-1],"loss_changes":[2.077322E1,0E0,1.606939E1,1.4564202E1,1.2396881E1,8.347761E0,1.2597239E1,6.7732887E0,5.8659673E0,3.4630013E0,8.204212E-1,2.5026884E0,1.2913532E1,8.185383E0,9.122205E0,7.238845E0,0E0,0E0,0E0,2.1029091E-1,0E0,0E0,2.6824114E0,1.3293478E1,1.8683857E1,5.5112534E0,3.8345225E0,2.527007E0,2.418578E0,3.2319088E0,7.3857546E0,0E0,0E0,0E0,0E0,0E0,0E0,0E0,0E0,0E0,0E0,0E0,0E0,0E0,0E0,0E0,0E0,0E0,0E0,0E0,0E0],"parents":[2147483647,0,0,2,2,3,3,4,4,5,5,6,6,7,7,8,8,9,9,10,10,11,11,12,12,13,13,14,14,15,15,19,19,22,22,23,23,24,24,25,25,26,26,27,27,28,28,29,29,30,30],"right_children":[2,-1,4,6,8,10,12,14,16,18,20,22,24,26,28,30,-1,-1,-1,32,-1,-1,34,36,38,40,42,44,46,48,50,-1,-1,-1,-1,-1,-1,-1,-1,-1,-1,-1,-1,-1,-1,-1,-1,-1,-1,-1,-1],"split_conditions":[5.1997423E0,6.008158E-1,5.585211E0,-1.5050489E0,1.4661377E1,-1.6674026E0,1.225661E8,6.8519135E1,7.221611E-1,-5.281385E-1,9.6803653E-1,-6.1132866E-1,8.33563E-2,5.7550255E-2,7.0483005E-1,7.7303755E-1,-4.6319637E-1,-9.868646E-2,1.5457316E-1,5.01E1,-2.1444057E-1,5.061981E-1,1.08243614E2,1.3990909E8,7.723E9,3.7019115E1,5.9603876E-1,2.326616E-2,1.1021505E1,1.241265E10,-9.6172535E-1,-1.5730982E-1,-3.635905E-1,2.7907073E-2,2.5788102E-1,-3.406648E-1,4.125778E-2,-2.8379709E-3,-9.4471455E-2,-5.315469E-2,-3.0887517E-1,-4.9126636E-2,3.542442E-1,1.4581963E-1,1.8316722E-2,-2.3283792E-1,-4.595946E-2,5.7060838E-2,7.864913E-1,1.7502011E-1,-3.895782E-1],"split_indices":[56,0,84,75,28,68,82,33,77,63,7,23,78,62,80,12,0,0,0,55,0,0,69,65,82,56,12,62,20,65,66,0,0,0,0,0,0,0,0,0,0,0,0,0,0,0,0,0,0,0,0],"split_type":[0,0,0,0,0,0,0,0,0,0,0,0,0,0,0,0,0,0,0,0,0,0,0,0,0,0,0,0,0,0,0,0,0,0,0,0,0,0,0,0,0,0,0,0,0,0,0,0,0,0,0],"sum_hessian":[9.991E3,8.3E1,9.908E3,8.682E3,1.226E3,1.72E2,8.51E3,1.003E3,2.23E2,5.2E1,1.2E2,1.22E2,8.388E3,8.54E2,1.49E2,1.92E2,3.1E1,2.1E1,3.1E1,9.6E1,2.4E1,6.1E1,6.1E1,4.712E3,3.676E3,7.21E2,1.33E2,8.3E1,6.6E1,1.28E2,6.4E1,2E1,7.6E1,4.1E1,2E1,2.08E2,4.504E3,3.121E3,5.55E2,2.33E2,4.88E2,1.1E2,2.3E1,4.7E1,3.6E1,2.9E1,3.7E1,3.5E1,9.3E1,2.6E1,3.8E1],"tree_param":{"num_deleted":"0","num_feature":"86","num_nodes":"51","size_leaf_vector":"1"}},{"base_weights":[1.0391924E-3,2.147651E-1,-8.852765E-3,3.5907337E-1,1.5873017E-2,6.257967E-3,-1.3543689E-1,4.050633E-1,-6.521739E-3,-4.7904193E-2,2.3913044E-2,1.2144956E-1,-9.199632E-3,-2.7949437E-1,-5.925926E-2,2.1739132E-3,4.4186047E-1,-1.2592593E-1,1.3636365E-2,1.546724E-1,-2.1978022E-1,-4.190141E-1,-1.405999E-3,-4.3269232E-2,-3.7549406E-1,-2.527174E-1,1.3211383E-2,4.7891566E-1,3.1E-1,9.375E-3,-1.9196428E-1,2.2279412E-1,-2.9761905E-2,-3.5384616E-1,5.5555557E-3,-4.7131148E-1,-4.761905E-3,-2.4080883E-1,7.642073E-3,2.8301886E-1,-3.75E-1,-4.054054E-3,-4.2396313E-1,9.375E-3,-3.167702E-1,2.6442307E-1,-5.3984575E-2,2.0000001E-2,2.4810607E-2,2.2222223E-2,7.2916667E-3,-2.1739132E-3,-2.1022728E-2,1.7384617E-2,5.407303E-3,-1.35204075E-2,6.1290325E-3,-2.4418605E-2,-4.3478264E-3,-1.9696971E-2,-2.4722222E-2,8.928572E-3,-1.9211823E-2,1.0346379E-3,-7.844991E-3,-0E0,2.2727273E-2,-2.4218751E-2,-9.52381E-3,-1.3942308E-2,-2.3343375E-2,-2E-3,-1.8248176E-2,1.7469881E-2,-3.4090912E-3,7.739938E-4,-1.9402986E-2],"categories":[],"categories_nodes":[],"categories_segments":[],"categories_sizes":[],"default_left":[0,0,1,0,0,0,0,0,0,0,0,0,0,0,0,0,1,0,0,0,0,0,0,0,0,0,0,0,0,0,0,0,0,0,0,0,0,0,0,0,0,0,0,0,0,0,0,0,0,0,0,0,0,0,0,0,0,0,0,0,0,0,0,0,0,0,0,0,0,0,0,0,0,0,0,0,0],"id":13,"left_children":[1,3,5,7,9,11,13,15,-1,17,-1,19,21,23,25,-1,27,29,-1,31,33,35,37,39,41,43,45,47,49,-1,51,53,55,57,-1,59,-1,61,63,65,67,-1,69,-1,71,73,75,-1,-1,-1,-1,-1,-1,-1,-1,-1,-1,-1,-1,-1,-1,-1,-1,-1,-1,-1,-1,-1,-1,-1,-1,-1,-1,-1,-1,-1,-1],"loss_changes":[2.136345E1,1.2823992E1,1.8474464E1,5.8835564E0,5.596484E0,1.5365789E1,1.1286615E1,3.1341515E0,0E0,4.212053E0,0E0,1.1608685E1,2.4302126E1,8.056955E0,9.466862E0,0E0,9.0205E-1,2.8302414E0,0E0,1.1703695E1,4.0761895E0,2.3595486E0,1.617853E1,1.1363071E1,3.5759163E0,5.24767E0,8.319437E0,2.8095245E-2,1.0387502E0,0E0,3.781612E0,9.699547E0,9.271634E0,2.2912655E0,0E0,2.3578644E-2,0E0,1.642961E1,1.5457971E1,2.5728989E0,9.572172E-1,0E0,1.22089E0,0E0,2.1328964E0,2.9631686E0,9.033276E0,0E0,0E0,0E0,0E0,0E0,0E0,0E0,0E0,0E0,0E0,0E0,0E0,0E0,0E0,0E0,0E0,0E0,0E0,0E0,0E0,0E0,0E0,0E0,0E0,0E0,0E0,0E0,0E0,0E0,0E0],"parents":[2147483647,0,0,1,1,2,2,3,3,4,4,5,5,6,6,7,7,9,9,11,11,12,12,13,13,14,14,16,16,17,17,19,19,20,20,21,21,22,22,23,23,24,24,25,25,26,26,27,27,28,28,30,30,31,31,32,32,33,33,35,35,37,37,38,38,39,39,40,40,42,42,44,44,45,45,46,46],"right_children":[2,4,6,8,10,12,14,16,-1,18,-1,20,22,24,26,-1,28,30,-1,32,34,36,38,40,42,44,46,48,50,-1,52,54,56,58,-1,60,-1,62,64,66,68,-1,70,-1,72,74,76,-1,-1,-1,-1,-1,-1,-1,-1,-1,-1,-1,-1,-1,-1,-1,-1,-1,-1,-1,-1,-1,-1,-1,-1,-1,-1,-1,-1,-1,-1],"split_conditions":[1.5110505E1,8.358953E0,5.8447943E0,2.808E-2,3.32E1,-2.781391E0,1.9120035E-1,5.1723355E-1,-8.44865E-2,4.6845776E-1,6.0235256E-1,7.5605304E9,1.3990909E8,-4.726E-1,1.6354652E-2,5.363805E-2,2.8850877E0,4.457143E-1,2.3420547E-1,3.856E-2,-7.6554337E0,2.8797865E-1,-7.9785717E-1,1.2224138E2,2.5086231E1,6.836014E9,1.3378212E0,3.9150544E-2,6.1160843E1,1.286671E-1,4.8440065E-2,6.3477222E1,4.824187E-2,1.2534243E-1,2.4439327E-2,-6E-2,-2.3056088E-1,-2.5600723E2,7.396302E1,3.4952035E0,-2.3427492E-1,-1.651182E-1,1.48937645E1,6.653275E-2,9.383284E1,8.549133E-1,8E1,1.500788E-1,5.8668846E-1,6.0562366E-1,2.6196915E-1,-3.8116332E-2,-2.8951094E-1,4.1358224E-1,1.2322479E-1,-2.63587E-1,1.0231724E-1,-7.6046795E-1,-2.1215092E-1,-4.696207E-1,-6.127405E-1,3.930403E-2,-3.4608302E-1,1.6185632E-2,-1.0853837E-1,-1.3145358E-4,2.8577492E-1,-8.884968E-1,-1.3135579E-1,-1.105526E-1,-4.3832666E-1,-1.6951943E-2,-2.7095434E-1,2.7378651E-1,-1.8584663E-2,9.101666E-3,-3.4146294E-1],"split_indices":[56,61,84,0,55,83,3,84,0,9,0,65,65,0,57,0,75,75,0,0,83,2,75,40,33,65,75,62,22,0,5,56,39,72,0,6,0,76,33,18,2,0,29,0,69,80,55,0,0,0,0,0,0,0,0,0,0,0,0,0,0,0,0,0,0,0,0,0,0,0,0,0,0,0,0,0,0],"split_type":[0,0,0,0,0,0,0,0,0,0,0,0,0,0,0,0,0,0,0,0,0,0,0,0,0,0,0,0,0,0,0,0,0,0,0,0,0,0,0,0,0,0,0,0,0,0,0,0,0,0,0,0,0,0,0,0,0,0,0,0,0,0,0,0,0,0,0,0,0,0,0,0,0,0,0,0,0],"sum_hessian":[1.0103E4,4.46E2,9.657E3,2.58E2,1.88E2,8.628E3,1.029E3,2.36E2,2.2E1,1.66E2,2.2E1,1.02E3,7.608E3,3.55E2,6.74E2,2.2E1,2.14E2,1.34E2,3.2E1,9.3E2,9E1,1.41E2,7.467E3,1.03E2,2.52E2,1.83E2,4.91E2,1.65E2,4.9E1,2.3E1,1.11E2,6.79E2,2.51E2,6.4E1,2.6E1,1.21E2,2E1,2.71E2,7.196E3,5.2E1,5.1E1,3.6E1,2.16E2,2.3E1,1.6E2,1.03E2,3.88E2,3.4E1,1.31E2,2.6E1,2.3E1,6.8E1,4.3E1,3.24E2,3.55E2,9.7E1,1.54E2,4.2E1,2.2E1,3.2E1,8.9E1,6.9E1,2.02E2,6.668E3,5.28E2,2E1,3.2E1,3.1E1,2E1,5.1E1,1.65E2,2.4E1,1.36E2,8.2E1,2.1E1,3.22E2,6.6E1],"tree_param":{"num_deleted":"0","num_feature":"86","num_nodes":"77","size_leaf_vector":"1"}},{"base_weights":[4.985542E-4,4.5833334E-1,-3.3681882E-3,1.6666668E-2,2.4609376E-2,3.2971016E-1,-8.053828E-3,4.293478E-1,1.2765957E-1,5.9733562E-2,-2.9132701E-2,1.484375E-2,2.4590164E-2,1.8000001E-2,-6.521739E-3,7.956104E-2,-2.4822696E-1,-7.4371025E-2,1.3188519E-2,3.4036145E-1,5.811078E-2,-7.692308E-2,-3.8961038E-1,-8.169843E-2,2.2499999E-2,1.6773504E-1,-8.088236E-3,8.928572E-4,2.0143885E-2,1.875E-2,1.8694049E-3,-1.5517241E-2,5.4054055E-3,-2.2727273E-2,-1.0869565E-2,1.5162722E-3,-5.3923265E-3,1.03448285E-2,-1.6911766E-2,-1.0423453E-2,5.8985135E-4],"categories":[],"categories_nodes":[],"categories_segments":[],"categories_sizes":[],"default_left":[0,0,0,0,0,0,0,0,1,0,0,0,0,0,0,0,0,0,0,0,0,0,0,0,0,0,0,0,0,0,0,0,0,0,0,0,0,0,0,0,0],"id":14,"left_children":[1,3,5,-1,-1,7,9,11,13,15,17,-1,-1,-1,-1,19,21,23,25,27,29,31,33,35,-1,37,39,-1,-1,-1,-1,-1,-1,-1,-1,-1,-1,-1,-1,-1,-1],"loss_changes":[1.7756176E1,1.9140625E-1,1.552523E1,0E0,0E0,2.7233849E0,1.4017642E1,6.151695E-1,2.865347E0,1.42286E1,1.4327492E1,0E0,0E0,0E0,0E0,1.2214816E1,3.384983E0,1.3934288E1,1.2717013E1,3.3396587E0,1.3264038E1,2.8409204E0,7.6228046E-1,1.0454695E1,0E0,9.343194E0,1.3550184E1,0E0,0E0,0E0,0E0,0E0,0E0,0E0,0E0,0E0,0E0,0E0,0E0,0E0,0E0],"parents":[2147483647,0,0,1,1,2,2,5,5,6,6,7,7,8,8,9,9,10,10,15,15,16,16,17,17,18,18,19,19,20,20,21,21,22,22,23,23,25,25,26,26],"right_children":[2,4,6,-1,-1,8,10,12,14,16,18,-1,-1,-1,-1,20,22,24,26,28,30,32,34,36,-1,38,40,-1,-1,-1,-1,-1,-1,-1,-1,-1,-1,-1,-1,-1,-1],"split_conditions":[5.1997423E0,1.1630182E-2,1.225661E8,4.225339E-1,5.825576E-1,9.9999725E1,8.3449954E-1,-1E-1,5.6E-2,8.896439E1,5.4145772E-2,3.0296946E-1,3.68623E-1,4.6124822E-1,-5.2847333E-2,2.0841366E1,7.431119E-1,1.029112E1,-1.4857936E0,-4.7718185E2,-2.1764706E2,-4.551355E-1,6.9738775E-1,2.5853658E-1,4.2349926E-1,7.7E-1,1.73682E8,2.231592E-2,4.4395813E-1,2.33947E-1,2.288886E-2,-1.5421048E-1,1.0219201E-1,-3.1706887E-1,-1.8897717E-1,2.8046548E-2,-8.634523E-2,2.6182243E-1,-4.5412707E-1,-1.9794822E-1,7.5715543E-3],"split_indices":[56,2,82,0,0,57,19,52,0,56,28,0,0,0,0,56,13,32,83,76,27,39,14,7,0,25,82,0,0,0,0,0,0,0,0,0,0,0,0,0,0],"split_type":[0,0,0,0,0,0,0,0,0,0,0,0,0,0,0,0,0,0,0,0,0,0,0,0,0,0,0,0,0,0,0,0,0,0,0,0,0,0,0,0,0],"sum_hessian":[1.0028E4,8.3E1,9.945E3,2E1,6.3E1,1.37E2,9.808E3,9.1E1,4.6E1,2.326E3,7.482E3,3.1E1,6E1,2.4E1,2.2E1,2.186E3,1.4E2,3.616E3,3.866E3,1.65E2,2.021E3,6.4E1,7.6E1,3.567E3,4.9E1,4.67E2,3.399E3,2.7E1,1.38E2,1.23E2,1.898E3,2.8E1,3.6E1,5.4E1,2.2E1,6.75E2,2.892E3,4.34E2,3.3E1,3.06E2,3.093E3],"tree_param":{"num_deleted":"0","num_feature":"86","num_nodes":"41","size_leaf_vector":"1"}},{"base_weights":[-4.05E-3,8.967991E-2,-2.4789352E-2,2.888889E-1,4.7730308E-2,-1.5039856E-3,-1.2524335E-1,-3.289474E-3,3.3633092E-1,1.9415449E-1,-2.1078432E-2,6.949807E-3,-3.1428573E-1,-1.7220077E-1,1.2145749E-1,4.4378698E-1,1.6818182E-1,2.1084337E-2,2.8503186E-1,-5.6216218E-2,3.1770834E-1,-6.2397033E-2,4.854249E-2,-3.7867647E-1,-4.375E-3,-2.1488763E-1,2.8508771E-2,2.4264706E-2,6.308411E-2,3.425926E-1,2.4353448E-2,-1.0869565E-2,2.6704547E-1,-2.9347825E-1,1.4049587E-1,3.525641E-1,8.6419754E-2,5.335366E-3,-2.0555556E-1,4.1447368E-1,-2.3809525E-3,3.7662336E-1,-7.67432E-2,-2.994924E-1,6.632918E-2,-4.761905E-3,-4.2672414E-1,-6.1946902E-2,-2.8561643E-1,3.962264E-1,-8.238637E-2,1.9254659E-1,-3.2407406E-1,7.1428576E-3,2.2794118E-2,3.4482758E-3,1.7916666E-2,-2.3809524E-2,-6.7307698E-3,8.333334E-4,2.4218751E-2,-1.6129032E-3,2.0465687E-2,1.5454546E-2,-1.8518519E-2,1.4285715E-2,-1.5948275E-3,9.259259E-3,-1.2397542E-2,2.3660716E-2,1.1904762E-2,2.3611112E-2,7.2916667E-3,-1.6756756E-2,-2.7329335E-3,1.03448285E-2,-1.923077E-2,7.3846155E-3,3.478456E-4,-9.52381E-3,-2.3697918E-2,-1.754386E-4,-1.818182E-2,3.0612245E-3,-1.5505865E-2,1.25E-2,2.4218751E-2,3.3730161E-3,-2.254902E-2,1.8534483E-2,4.567308E-3,-2.132353E-2,-7.1428576E-3],"categories":[],"categories_nodes":[],"categories_segments":[],"categories_sizes":[],"default_left":[0,0,0,0,0,1,0,0,0,0,0,0,0,0,0,0,0,0,0,0,0,0,0,0,0,0,0,0,0,0,0,0,0,0,0,0,0,0,0,0,0,0,0,0,0,0,0,0,0,0,1,0,0,0,0,0,0,0,0,0,0,0,0,0,0,0,0,0,0,0,0,0,0,0,0,0,0,0,0,0,0,0,0,0,0,0,0,0,0,0,0,0,0],"id":15,"left_children":[1,3,5,7,9,11,13,-1,15,17,19,21,23,25,27,29,31,33,35,37,39,41,43,45,-1,47,49,-1,51,53,-1,-1,55,57,59,61,63,65,67,69,-1,71,73,75,77,-1,79,81,83,85,87,89,91,-1,-1,-1,-1,-1,-1,-1,-1,-1,-1,-1,-1,-1,-1,-1,-1,-1,-1,-1,-1,-1,-1,-1,-1,-1,-1,-1,-1,-1,-1,-1,-1,-1,-1,-1,-1,-1,-1,-1,-1],"loss_changes":[1.94412E1,1.5128621E1,1.9154768E1,5.322529E0,1.5096837E1,1.7583418E1,1.7872532E1,0E0,4.9484425E0,7.5277786E0,1.2160162E1,1.8679007E1,2.5223732E0,1.110125E1,5.2152643E0,5.7333755E-1,4.2511606E0,6.276591E0,4.1811256E0,8.503764E0,3.413435E0,1.53210745E1,2.5078558E1,1.8114815E0,0E0,1.1535198E1,9.33005E0,0E0,1.0788604E1,1.1567845E0,0E0,0E0,1.5665298E0,1.271102E0,5.144383E0,5.123415E0,8.353311E0,6.857126E0,4.5186167E0,6.747341E-1,0E0,1.6300058E0,1.3403283E1,8.571327E0,1.8606884E1,0E0,1.2041645E0,5.9753513E0,6.2224464E0,5.620575E-1,9.75136E0,2.868672E0,9.410987E-1,0E0,0E0,0E0,0E0,0E0,0E0,0E0,0E0,0E0,0E0,0E0,0E0,0E0,0E0,0E0,0E0,0E0,0E0,0E0,0E0,0E0,0E0,0E0,0E0,0E0,0E0,0E0,0E0,0E0,0E0,0E0,0E0,0E0,0E0,0E0,0E0,0E0,0E0,0E0,0E0],"parents":[2147483647,0,0,1,1,2,2,3,3,4,4,5,5,6,6,8,8,9,9,10,10,11,11,12,12,13,13,14,14,15,15,16,16,17,17,18,18,19,19,20,20,21,21,22,22,23,23,25,25,26,26,28,28,29,29,32,32,33,33,34,34,35,35,36,36,37,37,38,38,39,39,41,41,42,42,43,43,44,44,46,46,47,47,48,48,49,49,50,50,51,51,52,52],"right_children":[2,4,6,8,10,12,14,-1,16,18,20,22,24,26,28,30,32,34,36,38,40,42,44,46,-1,48,50,-1,52,54,-1,-1,56,58,60,62,64,66,68,70,-1,72,74,76,78,-1,80,82,84,86,88,90,92,-1,-1,-1,-1,-1,-1,-1,-1,-1,-1,-1,-1,-1,-1,-1,-1,-1,-1,-1,-1,-1,-1,-1,-1,-1,-1,-1,-1,-1,-1,-1,-1,-1,-1,-1,-1,-1,-1,-1,-1],"split_conditions":[3E1,7.78778E-1,7.6404854E9,-6.199282E-1,3.5602746E0,2.8447065E1,2.4527372E1,-4.8315447E-2,4.4588776E0,2.2467224E-1,5.414489E0,5.845E1,1.16137E1,1.6340851E10,-1.0392945E0,0E0,9.198266E-1,3.99879E1,1.3492793E1,-1.7978142E0,2.6666666E1,-2.444363E0,-7.5893027E-1,5.491808E-1,-3.9780587E-2,4.1325E1,1.7605871E-1,1.1370302E0,6.1509365E-1,4.580067E1,5.476732E-1,-4.3613203E-2,9.842149E0,1.0208949E0,9.9999664E1,3.708332E9,2.3377013E0,1.8163672E-1,2.0039493E-2,4.797534E-1,-1.0851276E-2,-8.479709E-1,1.3990909E8,-3.1631398E0,5.155154E-1,-1.5861866E-1,-4.88E-1,1.3652595E1,1.5958028E-2,1.0721476E1,2.165795E0,2.304561E0,2.5179856E-2,2.1306752E-1,3.460647E-1,3.443129E-2,2.775901E-1,-4.1350126E-1,-2.6221326E-1,1.5694637E-2,2.8153634E-1,-2.2321552E-2,3.378959E-1,4.022757E-1,-1.514459E-1,3.406421E-1,-2.0827819E-2,3.722018E-1,-1.9689687E-1,3.7714666E-1,2.8173748E-1,6.65581E-1,3.782966E-1,-4.303403E-1,-4.337999E-2,8.907498E-2,-2.6911482E-1,1.1313226E-1,4.9978616E-3,-1.642894E-1,-5.1571155E-1,-3.3941052E-3,-4.2891607E-1,1.3946283E-2,-3.4755257E-1,1.624019E-1,1.5643887E-1,3.8738724E-2,-3.1410465E-1,4.6232668E-1,9.3591444E-2,-4.7051507E-1,-1.453462E-1],"split_indices":[58,19,65,39,61,41,28,0,41,3,71,58,83,82,73,60,38,33,41,23,37,29,75,66,0,58,2,0,2,33,0,0,29,84,57,65,71,80,62,3,0,23,65,83,12,0,6,61,62,57,75,83,17,0,0,0,0,0,0,0,0,0,0,0,0,0,0,0,0,0,0,0,0,0,0,0,0,0,0,0,0,0,0,0,0,0,0,0,0,0,0,0,0],"split_type":[0,0,0,0,0,0,0,0,0,0,0,0,0,0,0,0,0,0,0,0,0,0,0,0,0,0,0,0,0,0,0,0,0,0,0,0,0,0,0,0,0,0,0,0,0,0,0,0,0,0,0,0,0,0,0,0,0,0,0,0,0,0,0,0,0,0,0,0,0,0,0,0,0,0,0,0,0,0,0,0,0,0,0,0,0,0,0,0,0,0,0,0,0],"sum_hessian":[9.999E3,1.811E3,8.188E3,3.14E2,1.497E3,6.648E3,1.54E3,3.7E1,2.77E2,4.78E2,1.019E3,6.474E3,1.74E2,1.294E3,2.46E2,1.68E2,1.09E2,1.65E2,3.13E2,9.24E2,9.5E1,2.427E3,4.047E3,1.35E2,3.9E1,1.067E3,2.27E2,3.3E1,2.13E2,5.3E1,1.15E2,2.2E1,8.7E1,4.5E1,1.2E2,2.33E2,8E1,6.55E2,2.69E2,7.5E1,2E1,7.6E1,2.351E3,1.96E2,3.851E3,2E1,1.15E2,3.38E2,7.29E2,5.2E1,1.75E2,1.6E2,5.3E1,2E1,3.3E1,2.8E1,5.9E1,2E1,2.5E1,8.9E1,3.1E1,3E1,2.03E2,5.4E1,2.6E1,7.6E1,5.79E2,2.6E1,2.43E2,5.5E1,2E1,5.3E1,2.3E1,1.84E2,2.167E3,2.8E1,1.68E2,1.624E3,2.227E3,2E1,9.5E1,2.84E2,5.4E1,4.8E1,6.81E2,2.1E1,3.1E1,1.25E2,5E1,5.7E1,1.03E2,3.3E1,2E1],"tree_param":{"num_deleted":"0","num_feature":"86","num_nodes":"93","size_leaf_vector":"1"}},{"base_weights":[-2.101471E-3,3.821138E-1,-6.8888664E-3,-0E0,4.6534654E-1,-1.8709677E-1,2.0197725E-3,1.7045455E-2,2.46875E-2,1.9078948E-2,-2.3714954E-1,-2.3128227E-3,3.6160713E-1,-8.012821E-2,-3.2600734E-1,-6.342701E-2,2.0935412E-2,6.7307698E-3,4.2528737E-1,-2.3660715E-1,3.1111112E-1,5.6818184E-2,-3.9782608E-1,-2.857143E-1,-3.8411457E-2,-3.3430703E-2,6.6757865E-2,1.5833333E-2,2.3706896E-2,7.0312503E-3,-1.9135803E-2,4.761905E-3,2.4E-2,2.3913044E-2,-1.9318182E-2,-2.1497585E-2,-5.2083335E-3,6.25E-3,-1.8402778E-2,9.09091E-3,-3.2772906E-3,-4.332553E-3,4.3294616E-3,2.2135418E-2,2.8300562E-3],"categories":[],"categories_nodes":[],"categories_segments":[],"categories_sizes":[],"default_left":[0,0,0,0,0,1,0,0,0,0,0,0,0,0,0,1,0,0,0,0,0,0,0,0,0,0,0,0,0,0,0,0,0,0,0,0,0,0,0,0,0,0,0,0,0],"id":16,"left_children":[1,3,5,-1,7,9,11,-1,-1,-1,13,15,17,19,21,23,25,-1,27,29,31,33,35,37,39,41,43,-1,-1,-1,-1,-1,-1,-1,-1,-1,-1,-1,-1,-1,-1,-1,-1,-1,-1],"loss_changes":[1.8383661E1,3.9119377E0,1.5847353E1,0E0,1.8865585E-1,1.3326151E1,1.4656439E1,0E0,0E0,0E0,5.9455776E0,1.3209057E1,1.561696E0,9.6240425E0,7.5284805E0,1.4235381E1,1.678039E1,0E0,3.1149483E-1,6.226921E0,1.5949211E0,8.402915E0,2.1250305E0,8.805059E0,1.3780132E1,1.9687399E1,1.3931311E1,0E0,0E0,0E0,0E0,0E0,0E0,0E0,0E0,0E0,0E0,0E0,0E0,0E0,0E0,0E0,0E0,0E0,0E0],"parents":[2147483647,0,0,1,1,2,2,4,4,5,5,6,6,10,10,11,11,12,12,13,13,14,14,15,15,16,16,18,18,19,19,20,20,21,21,22,22,23,23,24,24,25,25,26,26],"right_children":[2,4,6,-1,8,10,12,-1,-1,-1,14,16,18,20,22,24,26,-1,28,30,32,34,36,38,40,42,44,-1,-1,-1,-1,-1,-1,-1,-1,-1,-1,-1,-1,-1,-1,-1,-1,-1,-1],"split_conditions":[6.854008E0,-1.7408123E-2,9.820209E-1,1.8482877E-2,-6.8E0,-2.609808E-1,1.8400647E3,3.831675E-1,4.7681966E-1,5.530724E-1,4.4531055E1,9.583333E-1,-2.7E-1,1.1172925E-1,-7.70807E8,2.9009524E-1,4.5687562E-1,1.83457E-1,-7.6E-2,-6.2170472E-2,1.2944123E-1,2.3972603E-2,1.2870569E2,4.347826E-2,-1.9662365E0,1.4452207E0,5.5112547E-1,6.1924005E-1,6.266749E-1,7.079112E-2,-2.530701E-1,3.8571727E-2,3.9895955E-1,4.4689676E-1,-5.826904E-1,-4.0020305E-1,-1.9586901E-1,7.210105E-2,-3.9709732E-1,1.8352048E-1,-5.453297E-2,-6.705536E-2,6.936829E-2,5.0091E-1,4.266988E-2],"split_indices":[56,5,32,0,59,5,30,0,0,0,56,38,51,72,74,12,31,0,6,2,44,4,69,10,8,39,41,0,0,0,0,0,0,0,0,0,0,0,0,0,0,0,0,0,0],"split_type":[0,0,0,0,0,0,0,0,0,0,0,0,0,0,0,0,0,0,0,0,0,0,0,0,0,0,0,0,0,0,0,0,0,0,0,0,0,0,0,0,0,0,0,0,0],"sum_hessian":[9.992E3,1.22E2,9.87E3,2.2E1,1E2,4.64E2,9.406E3,2.1E1,7.9E1,3.7E1,4.27E2,9.295E3,1.11E2,1.55E2,2.72E2,2.561E3,6.734E3,2.5E1,8.6E1,1.11E2,4.4E1,4.3E1,2.29E2,2.58E2,2.303E3,3.08E3,3.654E3,2.9E1,5.7E1,3.1E1,8E1,2E1,2.4E1,2.2E1,2.1E1,2.06E2,2.3E1,4.3E1,2.15E2,2.52E2,2.051E3,2.134E3,9.46E2,9.5E1,3.559E3],"tree_param":{"num_deleted":"0","num_feature":"86","num_nodes":"45","size_leaf_vector":"1"}},{"base_weights":[5.004504E-4,3.9370078E-1,-4.561581E-3,2.4193548E-2,7.1428576E-3,-1.0829949E-2,2.243346E-1,-1.451562E-2,3.5051546E-1,1.0191083E-1,4.0186915E-1,-1.7055085E-1,-6.363435E-3,3.4090912E-3,4.276316E-1,2.4793388E-1,-1.891892E-2,2.4137931E-2,2.3809525E-3,-2.7896342E-1,7.586207E-2,7.151741E-3,-1.1534604E-1,1.4285715E-2,2.3660716E-2,3.2323232E-1,-4.3478264E-3,1.25E-2,-1.6555184E-2,1.5625E-2,-1.4224137E-2,7.3018525E-4,-1.0408922E-2,3.6504425E-3,-8.51684E-3,6.8750004E-3,2.2083333E-2],"categories":[],"categories_nodes":[],"categories_segments":[],"categories_sizes":[],"default_left":[0,0,0,0,0,0,1,0,0,0,0,0,0,0,0,0,0,0,0,0,0,0,0,0,0,0,0,0,0,0,0,0,0,0,0,0,0],"id":17,"left_children":[1,3,5,-1,-1,7,9,11,13,15,17,19,21,-1,23,25,-1,-1,-1,27,29,31,33,-1,-1,35,-1,-1,-1,-1,-1,-1,-1,-1,-1,-1,-1],"loss_changes":[1.9887808E1,2.8034382E0,1.4156786E1,0E0,0E0,1.2794367E1,5.675206E0,1.2092085E1,2.0827732E0,1.110474E1,3.043106E0,1.2630291E1,1.33101225E1,0E0,3.5643768E-1,3.079331E0,0E0,0E0,0E0,9.12911E0,1.2453233E1,1.2904287E1,1.0339139E1,0E0,0E0,2.1169825E0,0E0,0E0,0E0,0E0,0E0,0E0,0E0,0E0,0E0,0E0,0E0],"parents":[2147483647,0,0,1,1,2,2,5,5,6,6,7,7,8,8,9,9,10,10,11,11,12,12,14,14,15,15,19,19,20,20,21,21,22,22,25,25],"right_children":[2,4,6,-1,-1,8,10,12,14,16,18,20,22,-1,24,26,-1,-1,-1,28,30,32,34,-1,-1,36,-1,-1,-1,-1,-1,-1,-1,-1,-1,-1,-1],"split_conditions":[6.854008E0,2.5167678E-2,8.026886E0,5.1040924E-1,1.0133349E-1,1.8400647E3,-4.715618E-2,9.820209E-1,2.4257425E1,1.364E-2,1.1396813E0,4.008136E-2,6.6694546E0,1.3967219E-1,4.273178E-2,1.5227422E-1,-2.9900286E-1,3.5958856E-1,1.1362697E-1,-3.8128E-1,8.617923E-2,7.054762E-1,8.164961E-1,4.7561285E-1,6.280531E-1,1.9912883E2,-5.8025967E-2,1.393295E-1,-3.116983E-1,4.248746E-1,-2.6254576E-1,1.1123133E-2,-2.2786275E-1,2.0656561E-2,-1.3638584E-1,4.3900587E-2,3.768169E-1],"split_indices":[56,73,32,0,0,30,3,32,22,0,13,62,36,0,4,78,0,0,0,0,77,77,19,0,0,30,0,0,0,0,0,0,0,0,0,0,0],"split_type":[0,0,0,0,0,0,0,0,0,0,0,0,0,0,0,0,0,0,0,0,0,0,0,0,0,0,0,0,0,0,0,0,0,0,0,0,0],"sum_hessian":[9.99E3,1.26E2,9.864E3,9.2E1,3.4E1,9.602E3,2.62E2,9.506E3,9.6E1,1.56E2,1.06E2,4.71E2,9.035E3,2.1E1,7.5E1,1.2E2,3.6E1,8.6E1,2E1,3.27E2,1.44E2,8.039E3,9.96E2,2E1,5.5E1,9.8E1,2.2E1,2.9E1,2.98E2,8.7E1,5.7E1,7.771E3,2.68E2,2.25E2,7.71E2,3.9E1,5.9E1],"tree_param":{"num_deleted":"0","num_feature":"86","num_nodes":"37","size_leaf_vector":"1"}},{"base_weights":[3.487445E-4,2.0554273E-1,-8.90254E-3,3.5625E-1,1.8041236E-2,5.2303714E-3,-1.18505016E-1,4.351852E-1,1.8987341E-1,2.2115385E-2,-4.733728E-2,-2.3989456E-2,6.420717E-2,-2.5956938E-1,-3.161765E-2,4.659091E-1,1.4516129E-2,4E-1,-4.2857146E-3,1.6428572E-1,-1.95E-1,1.0991957E-1,-5.675853E-2,1.3306217E-1,-4.367607E-2,-3.275401E-1,3.1111112E-1,2.1714285E-1,-1.1758893E-1,1.7741935E-2,2.4754902E-2,2.4E-2,1.4285715E-2,1.796875E-2,-0E0,-4.3396226E-1,7.2916664E-2,1.5174897E-1,-1.6554055E-1,1.953125E-1,-6.779274E-2,4.2605633E-1,1.0664557E-1,-2.1560846E-1,4.6398893E-2,-4.0074906E-1,-1.4351852E-1,2.1428572E-2,1.0000001E-2,4.3661973E-1,6.666667E-2,2.4107143E-2,-1.5240084E-1,-1.6666668E-2,-2.4242425E-2,-5.6818184E-3,1.1111111E-2,1.8567638E-3,1.1199664E-2,-1.44E-2,2.3958333E-2,1.7094018E-2,-1.644737E-3,-7.863384E-3,-1.5850144E-3,1.171875E-2,2.3873875E-2,-1.7948719E-2,5.9176395E-3,-1.8614719E-2,1.5202704E-3,1.632653E-2,-1.2586806E-3,-4.3478264E-3,-2.1428572E-2,2.1590909E-2,-1.4367816E-2,2.4509804E-2,1.4285715E-2,-1.1290322E-2,9.333334E-3,1.0416668E-4,-1.53125E-2],"categories":[1],"categories_nodes":[3],"categories_segments":[0],"categories_sizes":[1],"default_left":[0,0,0,1,0,0,0,0,0,0,0,1,0,0,0,0,0,0,0,0,0,0,0,0,0,0,0,0,0,0,0,0,0,0,0,1,0,0,0,0,0,0,0,1,0,0,0,0,0,0,0,0,0,0,0,0,0,0,0,0,0,0,0,0,0,0,0,0,0,0,0,0,0,0,0,0,0,0,0,0,0,0,0],"id":18,"left_children":[1,3,5,7,9,11,13,15,17,-1,19,21,23,25,27,29,-1,31,-1,33,35,37,39,41,43,45,47,49,51,-1,-1,-1,-1,-1,-1,53,55,57,59,61,63,65,67,69,71,73,75,-1,-1,77,79,-1,81,-1,-1,-1,-1,-1,-1,-1,-1,-1,-1,-1,-1,-1,-1,-1,-1,-1,-1,-1,-1,-1,-1,-1,-1,-1,-1,-1,-1,-1,-1],"loss_changes":[1.905325E1,1.2229218E1,1.4877236E1,3.0692806E0,5.4020925E0,1.4663306E1,1.3437404E1,5.857582E-1,4.609041E0,0E0,5.3130875E0,2.4974386E1,2.094619E1,1.6315945E1,1.4568192E1,2.5226784E-1,0E0,2.7428627E-1,0E0,2.243527E0,6.4338408E0,1.291861E1,1.2729823E1,1.3274948E1,1.7030003E1,4.981022E0,5.015874E-1,5.750449E0,1.0637648E1,0E0,0E0,0E0,0E0,0E0,0E0,1.097765E-1,1.3622159E0,8.040026E0,1.1822673E1,6.4332323E0,1.4142885E1,1.2877102E0,8.655247E0,1.458205E1,1.4484123E1,2.2937622E0,9.061644E0,0E0,0E0,4.3397617E-1,3.7273116E0,0E0,1.1385155E1,0E0,0E0,0E0,0E0,0E0,0E0,0E0,0E0,0E0,0E0,0E0,0E0,0E0,0E0,0E0,0E0,0E0,0E0,0E0,0E0,0E0,0E0,0E0,0E0,0E0,0E0,0E0,0E0,0E0,0E0],"parents":[2147483647,0,0,1,1,2,2,3,3,4,4,5,5,6,6,7,7,8,8,10,10,11,11,12,12,13,13,14,14,15,15,17,17,19,19,20,20,21,21,22,22,23,23,24,24,25,25,26,26,27,27,28,28,35,35,36,36,37,37,38,38,39,39,40,40,41,41,42,42,43,43,44,44,45,45,46,46,49,49,50,50,52,52],"right_children":[2,4,6,8,10,12,14,16,18,-1,20,22,24,26,28,30,-1,32,-1,34,36,38,40,42,44,46,48,50,52,-1,-1,-1,-1,-1,-1,54,56,58,60,62,64,66,68,70,72,74,76,-1,-1,78,80,-1,82,-1,-1,-1,-1,-1,-1,-1,-1,-1,-1,-1,-1,-1,-1,-1,-1,-1,-1,-1,-1,-1,-1,-1,-1,-1,-1,-1,-1,-1,-1],"split_conditions":[1.5110505E1,5.3604543E-2,5.585211E0,1E-45,-2.738719E0,9.824286E1,4.262304E-2,4.0045187E-2,1.1396813E0,4.7914562E-1,4.095926E-1,-4.4180978E-2,4.004484E1,2.380032E10,7.2289157E-1,6.5789473E-1,2.2003244E-1,-1.8452431E0,-3.79702E-2,-3.428802E-2,4.601893E0,6.3972603E1,-4.1976547E1,1.9375E1,2.5740676E0,3.1172888E0,-8.4E-3,-1.858407E0,-1.6962554E0,3.0607414E-1,4.3319708E-1,3.5278827E-1,1.5978597E-1,3.1314892E-1,3.6185146E-3,-1.1193059E-1,8.113208E-1,4.8002928E-1,-8.849857E-2,4.692826E-1,8.6923075E-1,2.59E1,-2.0729828E-1,4.2883456E-1,4.9655172E-1,1.8482594E1,4.4531055E1,3.6301395E-1,1.1259945E-1,6.413793E-1,3.4437084E1,9.082624E-1,5.115E1,-2.3459971E-1,-6.2459105E-1,-5.045418E-2,1.01122476E-1,1.7663836E-2,2.5921306E-1,-2.5987348E-1,2.0383191E-1,3.7449652E-1,-1.3111591E-2,-1.3316403E-1,-1.9302685E-2,2.3692408E-1,3.5271174E-1,-5.138637E-1,9.2779316E-2,-6.2493277E-1,5.9706878E-2,3.865316E-1,-1.9403422E-2,-2.3813576E-2,-3.9068943E-1,1.4899583E-1,-2.0614973E-1,2.2350632E-1,6.49926E-2,-1.1769414E-1,6.0364056E-2,6.7760947E-4,-2.915864E-1],"split_indices":[56,73,84,70,8,40,39,66,13,0,9,3,26,65,7,10,0,8,0,5,36,40,28,58,28,83,16,23,83,0,0,0,0,0,0,5,10,9,3,9,38,55,21,3,80,56,56,0,0,7,27,0,58,0,0,0,0,0,0,0,0,0,0,0,0,0,0,0,0,0,0,0,0,0,0,0,0,0,0,0,0,0,0],"split_type":[0,0,0,1,0,0,0,0,0,0,0,0,0,0,0,0,0,0,0,0,0,0,0,0,0,0,0,0,0,0,0,0,0,0,0,0,0,0,0,0,0,0,0,0,0,0,0,0,0,0,0,0,0,0,0,0,0,0,0,0,0,0,0,0,0,0,0,0,0,0,0,0,0,0,0,0,0,0,0,0,0,0,0],"sum_hessian":[1.0035E4,4.32E2,9.603E3,2.39E2,1.93E2,8.507E3,1.096E3,1.61E2,7.8E1,2.5E1,1.68E2,5.689E3,2.818E3,4.17E2,6.79E2,1.31E2,3E1,4.4E1,3.4E1,6.9E1,9.9E1,1.118E3,4.571E3,1.72E3,1.098E3,3.73E2,4.4E1,1.74E2,5.05E2,3E1,1.01E2,2.4E1,2E1,3.1E1,3.8E1,5.2E1,4.7E1,9.71E2,1.47E2,1.91E2,4.38E3,1.41E2,1.579E3,3.77E2,7.21E2,2.66E2,1.07E2,2E1,2.4E1,7E1,1.04E2,2.7E1,4.78E2,2E1,3.2E1,2.1E1,2.6E1,3.76E2,5.95E2,1.24E2,2.3E1,1.16E2,7.5E1,1.258E3,3.122E3,3.1E1,1.1E2,3.8E1,1.541E3,2.3E2,1.47E2,1.46E2,5.75E2,2.2E1,2.44E2,2.1E1,8.6E1,5E1,2E1,3E1,7.4E1,2.39E2,2.39E2],"tree_param":{"num_deleted":"0","num_feature":"86","num_nodes":"83","size_leaf_vector":"1"}},{"base_weights":[1.854079E-3,4.5679012E-1,-1.8690644E-3,2.4553573E-2,1.8269232E-2,-5.925018E-3,3.590909E-1,-4.1883726E-2,2.8651573E-2,4.2613637E-1,4.3478264E-3,1.4940828E-1,-5.636486E-2,5.9529703E-2,-1.02415964E-1,1.4E-2,2.3828125E-2,1.9614148E-1,-1.875E-2,1.10192835E-1,-7.109756E-2,1.3413915E-1,5.54371E-3,-2.6753247E-1,9.683099E-3,-1.5517241E-2,1.2367492E-2,2.074689E-4,1.5853658E-2,7.9835765E-4,-5.141431E-3,-1.3265306E-2,7.2967233E-3,9.31677E-3,-2.0665594E-3,-6.9117653E-3,-1.8402778E-2,1.0986547E-2,-6.286127E-3],"categories":[],"categories_nodes":[],"categories_segments":[],"categories_sizes":[],"default_left":[0,0,0,0,0,0,0,0,0,0,0,1,0,0,0,0,0,0,0,0,0,0,0,0,0,0,0,0,0,0,0,0,0,0,0,0,0,0,0],"id":19,"left_children":[1,3,5,-1,-1,7,9,11,13,15,-1,17,19,21,23,-1,-1,25,-1,27,29,31,33,35,37,-1,-1,-1,-1,-1,-1,-1,-1,-1,-1,-1,-1,-1,-1],"loss_changes":[1.6901512E1,7.438469E-2,1.4493164E1,0E0,0E0,1.2172153E1,1.9699373E0,1.3302252E1,2.0205275E1,5.1504135E-1,0E0,8.357012E0,1.095689E1,1.6271832E1,1.7623543E1,0E0,0E0,8.1429615E0,0E0,7.9622893E0,1.1328531E1,8.029562E0,1.9880617E1,4.953102E0,1.618249E1,0E0,0E0,0E0,0E0,0E0,0E0,0E0,0E0,0E0,0E0,0E0,0E0,0E0,0E0],"parents":[2147483647,0,0,1,1,2,2,5,5,6,6,7,7,8,8,9,9,11,11,12,12,13,13,14,14,17,17,19,19,20,20,21,21,22,22,23,23,24,24],"right_children":[2,4,6,-1,-1,8,10,12,14,16,-1,18,20,22,24,-1,-1,26,-1,28,30,32,34,36,38,-1,-1,-1,-1,-1,-1,-1,-1,-1,-1,-1,-1,-1,-1],"split_conditions":[5.1997423E0,2.687988E0,1.8400647E3,3.8268328E-1,1.3980206E0,5.4145772E-2,5.958426E0,-2.1764706E2,4.5652233E1,-1.3E-1,2.7433574E-1,-7.595645E-2,2.0841366E1,1.4103051E0,1.4661377E1,5.330761E-1,5.821705E-1,2.19E1,-3.3655134E-1,7.781326E-2,1.1695377E0,3.226815E-1,2.3464458E0,5.0384003E1,4.1264242E-1,-4.3545195E-1,1.8206623E-1,1.1486888E-3,2.4147248E-1,1.3978481E-2,-8.394362E-2,-3.4332633E-1,1.0725585E-1,3.0659956E-1,-2.8751368E-2,-1.1620834E-1,-3.6005986E-1,3.124093E-1,-1.1332053E-1],"split_indices":[56,75,30,0,0,28,68,27,29,47,0,8,56,66,28,0,0,55,0,72,41,75,36,29,12,0,0,0,0,0,0,0,0,0,0,0,0,0,0],"split_type":[0,0,0,0,0,0,0,0,0,0,0,0,0,0,0,0,0,0,0,0,0,0,0,0,0,0,0,0,0,0,0,0,0,0,0,0,0,0,0],"sum_hessian":[9.977E3,8E1,9.897E3,5.5E1,2.5E1,9.788E3,1.09E2,4.798E3,4.99E3,8.7E1,2.2E1,3.37E2,4.461E3,4.039E3,9.51E2,2.4E1,6.3E1,3.1E2,2.7E1,3.62E2,4.099E3,1.695E3,2.344E3,3.84E2,5.67E2,2.8E1,2.82E2,2.4E2,1.22E2,1.095E3,3.004E3,4.8E1,1.647E3,4.82E2,1.862E3,1.69E2,2.15E2,2.22E2,3.45E2],"tree_param":{"num_deleted":"0","num_feature":"86","num_nodes":"39","size_leaf_vector":"1"}},{"base_weights":[-6.98812E-4,1.918736E-1,-9.608355E-3,3.4387353E-1,-1.0471204E-2,-1.9529411E-1,-9.834991E-4,4.5564517E-1,2.3461539E-1,-1.3059701E-1,2.672414E-1,1.6883117E-1,-2.7507162E-1,6.275441E-3,-2.0941558E-1,1.7741935E-2,2.4202129E-2,3.580247E-1,3E-2,4.918033E-2,-2.7702704E-1,2.1710528E-2,-2.3809525E-3,3.482143E-1,-1.4772727E-2,9.677419E-3,-3.197492E-1,2.0032052E-3,3.4862384E-1,1.1029412E-2,-2.6181817E-1,7.1428576E-3,4.262295E-1,1.5217391E-2,-9.821429E-3,1.171875E-2,-7.5000003E-3,1.0416667E-3,-4.117647E-1,1.1290322E-2,2.4038462E-2,-3.5E-1,-8.333334E-4,1.0114915E-2,-1.7493473E-1,3.4090912E-3,4.1477272E-1,-3.6647728E-1,-7.5E-2,2.4390245E-2,1.4285715E-2,-1.4285715E-2,-2.4193548E-2,-1.8796297E-2,-0E0,1.0373844E-3,-6.742557E-3,1.8292684E-2,-1.1953353E-2,2.3863636E-2,1.0869565E-2,-2.0588236E-2,-3.125E-3,2.8985508E-3,-1.796875E-2],"categories":[],"categories_nodes":[],"categories_segments":[],"categories_sizes":[],"default_left":[0,0,0,0,0,0,0,0,0,0,0,0,0,0,0,0,0,0,0,1,0,0,0,0,0,0,0,0,0,0,0,0,0,0,0,0,0,0,0,0,0,0,0,0,0,0,0,0,0,0,0,0,0,0,0,0,0,0,0,0,0,0,0,0,0],"id":20,"left_children":[1,3,5,7,9,11,13,15,17,19,21,23,25,27,29,-1,-1,31,33,35,37,-1,-1,39,-1,-1,41,43,45,-1,47,-1,49,-1,-1,-1,-1,-1,51,-1,-1,53,-1,55,57,-1,59,61,63,-1,-1,-1,-1,-1,-1,-1,-1,-1,-1,-1,-1,-1,-1,-1,-1],"loss_changes":[1.7188332E1,1.3628683E1,1.5334295E1,2.9827232E0,6.4067473E0,1.2392271E1,1.3846741E1,1.8321037E-1,3.271947E0,3.5411475E0,3.069851E0,6.515828E0,7.3688335E0,1.2934476E1,6.9980145E0,0E0,0E0,1.1278229E0,3.165792E0,2.2852714E0,2.9784212E0,0E0,0E0,8.0008173E-1,0E0,0E0,2.9189148E0,1.2540281E1,1.9937716E0,0E0,5.3493767E0,0E0,3.884163E-1,0E0,0E0,0E0,0E0,0E0,3.2529163E-1,0E0,0E0,2.6314812E0,0E0,1.2879579E1,1.3370676E1,0E0,9.81843E-1,2.3971424E0,3.8021965E0,0E0,0E0,0E0,0E0,0E0,0E0,0E0,0E0,0E0,0E0,0E0,0E0,0E0,0E0,0E0,0E0],"parents":[2147483647,0,0,1,1,2,2,3,3,4,4,5,5,6,6,7,7,8,8,9,9,10,10,11,11,12,12,13,13,14,14,17,17,18,18,19,19,20,20,23,23,26,26,27,27,28,28,30,30,32,32,38,38,41,41,43,43,44,44,46,46,47,47,48,48],"right_children":[2,4,6,8,10,12,14,16,18,20,22,24,26,28,30,-1,-1,32,34,36,38,-1,-1,40,-1,-1,42,44,46,-1,48,-1,50,-1,-1,-1,-1,-1,52,-1,-1,54,-1,56,58,-1,60,62,64,-1,-1,-1,-1,-1,-1,-1,-1,-1,-1,-1,-1,-1,-1,-1,-1],"split_conditions":[1.5110505E1,5.3604543E-2,9.820209E-1,6.3526373E0,9.375981E1,-1.4317925E-1,9.0088264E1,-1.7229858E-1,1.1564789E0,8.955916E0,4.1795558E-1,-1.3799483E0,8.851884E-2,1.8400647E3,-9.806835E-2,3.7381756E-1,5.07157E-1,9E-2,1.0330469E1,3.776683E-2,1.1480851E2,6.3013655E-1,-2.8661687E-2,1.0097088E0,-3.180218E-1,4.421528E-1,5.2626343E0,7.056891E0,2.4257425E1,1.6646552E-1,8.159943E0,1.8407978E-1,5.3E-1,2.2828071E-1,-1.14820495E-1,1.717018E-1,-1.2815075E-1,7.737017E-3,9.26388E-1,9.683189E-2,4.6617532E-1,4.3593505E-1,-5.741811E-3,7.396302E1,-4.436E-2,1.0455022E-1,1.6238282E9,1.2782524E0,2.0917727E10,2.9037067E-1,2.5178197E-1,-1.727727E-1,-3.6158952E-1,-3.3137992E-1,1.1975229E-3,1.3720262E-2,-7.484063E-2,7.228387E-1,-3.331014E-1,5.709669E-1,2.0455539E-1,-2.630818E-1,-3.685056E-2,3.3073157E-2,-4.0143952E-1],"split_indices":[56,73,32,61,57,21,56,50,13,61,9,11,80,30,21,0,0,25,35,5,40,0,0,19,0,0,18,39,22,0,83,0,45,0,0,0,0,0,19,0,0,3,0,33,0,0,65,19,65,0,0,0,0,0,0,0,0,0,0,0,0,0,0,0,0],"split_type":[0,0,0,0,0,0,0,0,0,0,0,0,0,0,0,0,0,0,0,0,0,0,0,0,0,0,0,0,0,0,0,0,0,0,0,0,0,0,0,0,0,0,0,0,0,0,0,0,0,0,0,0,0,0,0,0,0,0,0,0,0,0,0,0,0],"sum_hessian":[1.0016E4,4.42E2,9.574E3,2.52E2,1.9E2,4.24E2,9.15E3,1.23E2,1.29E2,1.33E2,5.7E1,7.6E1,3.48E2,8.843E3,3.07E2,3E1,9.3E1,8E1,4.9E1,6E1,7.3E1,3.7E1,2E1,5.5E1,2.1E1,3E1,3.18E2,8.735E3,1.08E2,3.3E1,2.74E2,2E1,6E1,2.2E1,2.7E1,3.1E1,2.9E1,2.3E1,5E1,3E1,2.5E1,2.89E2,2.9E1,8.353E3,3.82E2,2.1E1,8.7E1,1.75E2,9.9E1,4E1,2E1,2E1,3E1,2.69E2,2E1,7.783E3,5.7E2,4E1,3.42E2,6.5E1,2.2E1,1.52E2,2.3E1,6.8E1,3.1E1],"tree_param":{"num_deleted":"0","num_feature":"86","num_nodes":"65","size_leaf_vector":"1"}},{"base_weights":[3.7279597E-3,1.9630484E-1,-5.0563575E-3,4.0397352E-1,8.480565E-2,3.1923077E-1,-9.557881E-3,1.0576923E-2,4.4047618E-1,1.2741312E-1,-1.8000001E-2,3.9545456E-1,-4.761905E-3,6.806775E-2,-2.5479347E-2,2.3349058E-2,1.4285715E-2,3.409091E-1,5.412371E-2,1.1805556E-2,2.3333333E-2,-2.1907216E-1,1.0778016E-1,-4.4316437E-2,7.171157E-2,4.2391303E-1,7.1428576E-3,1.0526316E-1,-1.5625E-2,2.0535715E-2,-3.233533E-1,1.6317365E-1,-3.125E-2,-1.1924513E-2,-1.3676731E-1,1.5206813E-2,1.7687075E-1,1.6666668E-2,2.4038462E-2,-2.118644E-4,1.712963E-2,-2.0212768E-2,5.5555557E-3,3.4305316E-3,1.4702382E-2,7.692308E-3,-1.0315534E-2,-2.3201856E-4,-2.1646341E-2,4.9157306E-3,-8.217593E-3,-2.0537125E-3,1.0131579E-2,1.09974425E-2,-7.843138E-3],"categories":[],"categories_nodes":[],"categories_segments":[],"categories_sizes":[],"default_left":[0,0,0,0,0,1,0,0,0,0,0,0,0,0,0,0,0,0,0,0,0,0,1,0,0,0,0,0,0,0,0,0,0,0,0,0,1,0,0,0,0,0,0,0,0,0,0,0,0,0,0,0,0,0,0],"id":21,"left_children":[1,3,5,7,9,11,13,-1,15,17,-1,19,-1,21,23,-1,-1,25,27,-1,-1,29,31,33,35,37,-1,39,-1,-1,41,43,45,47,49,51,53,-1,-1,-1,-1,-1,-1,-1,-1,-1,-1,-1,-1,-1,-1,-1,-1,-1,-1],"loss_changes":[1.6790684E1,9.991806E0,1.3860803E1,9.675064E-1,5.409298E0,4.1446705E0,1.1574831E1,0E0,3.8342285E-1,4.03412E0,0E0,1.1380062E0,0E0,1.8200018E1,1.4230278E1,0E0,0E0,1.0244212E0,3.6701877E0,0E0,0E0,1.2873725E1,1.0794714E1,1.949362E1,7.496107E0,7.66449E-2,0E0,4.445345E0,0E0,0E0,5.9148083E0,1.2380415E1,1.2992964E1,1.4785331E1,1.0968689E1,8.679161E0,6.374585E0,0E0,0E0,0E0,0E0,0E0,0E0,0E0,0E0,0E0,0E0,0E0,0E0,0E0,0E0,0E0,0E0,0E0,0E0],"parents":[2147483647,0,0,1,1,2,2,3,3,4,4,5,5,6,6,8,8,9,9,11,11,13,13,14,14,17,17,18,18,21,21,22,22,23,23,24,24,25,25,27,27,30,30,31,31,32,32,33,33,34,34,35,35,36,36],"right_children":[2,4,6,8,10,12,14,-1,16,18,-1,20,-1,22,24,-1,-1,26,28,-1,-1,30,32,34,36,38,-1,40,-1,-1,42,44,46,48,50,52,54,-1,-1,-1,-1,-1,-1,-1,-1,-1,-1,-1,-1,-1,-1,-1,-1,-1,-1],"split_conditions":[1.5110505E1,6.1771984E0,1.225661E8,-5.3968143E0,3.504E-2,8.724845E-1,1.8726822E0,1.8172257E-1,-3.7182402E-2,1.153125E0,-1.7308822E-1,-8E-2,-1.9630289E-2,4.639133E-1,1.711371E1,4.649248E-1,9.763392E-2,1.121552E0,1.3464187E10,2.067691E-1,3.8939914E-1,-3.0738585E0,5.5622034E0,6.688204E9,1.4454353E-1,-2.214149E-3,1.2083986E-1,9.852996E1,-2.1935506E-1,3.805557E-1,-2.5932062E-1,1.0208949E0,1.7955296E2,3.0222754E1,1.7849892E-2,7.41E2,8.412731E-1,1.6615453E-1,2.3027387E-1,-3.4241118E-3,3.2570618E-1,-4.899555E-1,4.290013E-2,7.542937E-2,2.0253988E-1,1.10514455E-1,-1.5113309E-1,-2.4396225E-3,-6.0894334E-1,4.5632627E-2,-1.3251022E-1,-2.8149515E-2,3.8432425E-1,1.5805171E-1,-8.499795E-2],"split_indices":[56,61,82,28,0,12,26,0,21,75,0,51,0,9,28,0,0,19,65,0,0,11,41,65,44,1,0,57,0,0,63,84,76,41,62,40,12,0,0,0,0,0,0,0,0,0,0,0,0,0,0,0,0,0,0],"split_type":[0,0,0,0,0,0,0,0,0,0,0,0,0,0,0,0,0,0,0,0,0,0,0,0,0,0,0,0,0,0,0,0,0,0,0,0,0,0,0,0,0,0,0,0,0,0,0,0,0,0,0,0,0,0,0],"sum_hessian":[9.924E3,4.32E2,9.492E3,1.5E2,2.82E2,1.29E2,9.363E3,2.5E1,1.25E2,2.58E2,2.4E1,1.09E2,2E1,1.593E3,7.77E3,1.05E2,2E1,6.5E1,1.93E2,3.5E1,7.4E1,1.93E2,1.4E3,6.509E3,1.261E3,4.5E1,2E1,1.7E2,2.3E1,2.7E1,1.66E2,1.001E3,3.99E2,4.821E3,1.688E3,8.21E2,4.4E2,2E1,2.5E1,1.17E2,5.3E1,1.4E2,2.6E1,5.82E2,4.19E2,1.94E2,2.05E2,4.74E3,8.1E1,1.77E2,1.511E3,6.32E2,1.89E2,3.9E2,5E1],"tree_param":{"num_deleted":"0","num_feature":"86","num_nodes":"55","size_leaf_vector":"1"}},{"base_weights":[4.1533224E-3,1.463964E-1,-6.004074E-3,2.4631579E-1,-1.015625E-1,3.2824427E-1,-1.076438E-2,3.8509318E-1,1.7460318E-1,2.8125E-1,-2.2758621E-1,4.0865386E-1,8.928572E-4,-1.968276E-3,-1.4616756E-1,2.159091E-1,4.4491526E-1,2.8E-1,4.255319E-2,-0E0,2.4107143E-2,6.410257E-3,-3.5514018E-1,2.34375E-2,1.0000001E-2,-8.265937E-3,2.2826087E-1,-5.6265984E-2,-3.508772E-1,1.9565217E-2,1.1363637E-3,1.1904762E-2,2.4234695E-2,9.558824E-2,3.935185E-1,-1.5625E-1,2.983871E-1,-8.125E-3,-2.3161765E-2,8.813883E-3,-1.228231E-1,-1.9565217E-2,2.9567307E-1,-2.027559E-1,2.1376811E-1,-5.46875E-3,-4.0357143E-1,-8.59375E-3,1.6216217E-2,1.1458334E-2,2.1764707E-2,6E-3,-1.3839285E-2,5.8333334E-3,2.2727273E-2,7.87676E-4,-1.660959E-2,1.2316177E-2,-8.760461E-3,2.0833334E-2,2.8169013E-3,-1.3100437E-2,1.6346155E-2,1.588983E-2,-1.904762E-2,-7.1428576E-3,-2.2291666E-2],"categories":[],"categories_nodes":[],"categories_segments":[],"categories_sizes":[],"default_left":[0,0,0,0,0,0,0,0,0,0,0,1,0,0,0,0,0,0,0,0,0,0,0,0,0,0,0,0,0,0,0,0,0,0,0,0,0,0,0,1,0,0,0,0,0,0,0,0,0,0,0,0,0,0,0,0,0,0,0,0,0,0,0,0,0,0,0],"id":22,"left_children":[1,3,5,7,9,11,13,15,17,19,21,23,-1,25,27,29,31,33,35,-1,-1,-1,37,-1,-1,39,41,43,45,-1,-1,-1,-1,47,49,51,53,-1,-1,55,57,-1,59,61,63,-1,65,-1,-1,-1,-1,-1,-1,-1,-1,-1,-1,-1,-1,-1,-1,-1,-1,-1,-1,-1,-1],"loss_changes":[1.4437513E1,1.6525768E1,1.4843949E1,4.6600037E0,9.326752E0,3.2622128E0,1.09535265E1,1.533411E0,4.3721457E0,2.7120538E0,6.6260076E0,1.2103367E0,0E0,1.2524718E1,1.0304744E1,1.4819667E0,8.553829E-1,3.6258593E0,7.217967E0,0E0,0E0,0E0,2.152834E0,0E0,0E0,1.6452309E1,9.721939E0,1.5510237E1,2.1319675E0,0E0,0E0,0E0,0E0,4.215881E0,6.417618E-1,2.697054E0,1.7063541E0,0E0,0E0,1.7322954E1,2.1141085E1,0E0,5.99979E0,8.057442E0,8.658833E0,0E0,1.4788685E0,0E0,0E0,0E0,0E0,0E0,0E0,0E0,0E0,0E0,0E0,0E0,0E0,0E0,0E0,0E0,0E0,0E0,0E0,0E0,0E0],"parents":[2147483647,0,0,1,1,2,2,3,3,4,4,5,5,6,6,7,7,8,8,9,9,10,10,11,11,13,13,14,14,15,15,16,16,17,17,18,18,22,22,25,25,26,26,27,27,28,28,33,33,34,34,35,35,36,36,39,39,40,40,42,42,43,43,44,44,46,46],"right_children":[2,4,6,8,10,12,14,16,18,20,22,24,-1,26,28,30,32,34,36,-1,-1,-1,38,-1,-1,40,42,44,46,-1,-1,-1,-1,48,50,52,54,-1,-1,56,58,-1,60,62,64,-1,66,-1,-1,-1,-1,-1,-1,-1,-1,-1,-1,-1,-1,-1,-1,-1,-1,-1,-1,-1,-1],"split_conditions":[2.0841366E1,9.392968E-2,1.225661E8,8.645473E-1,-1.4152907E-1,7.9E1,2.483609E1,9.198266E-1,1.6937048E1,-5.28133E0,4.0549135E-1,2.1137393E-1,4.421568E-3,1.51379795E1,9.139785E-2,5.1502866E-1,5.045872E-1,-6.10742E-1,6.346388E0,-1.603767E-2,6.2342167E-1,6.061951E-2,-4.4375464E2,3.831291E-1,2.3437217E-1,8.179614E9,3.499578E-1,1.6340851E10,3.0368763E1,4.813945E-1,1.1779833E-2,2.6449838E-1,4.186763E-1,1.1278871E1,