{"learner":{"attributes":{"best_iteration":"499","best_score":"0.117572"},"feature_names":["Volume","SMA_50","Price_vs_SMA_50","Price_vs_SMA_150","Price_vs_SMA_200","ATR","Vol_MA","Vol_Ratio","nATR","VCP_Ratio","Consolidation_Width","Dry_Up_Volume","RSI_14","RSI_Regime","Dist_From_52W_High","Is_Green_Day","Green_Days_Ratio_20D","SMA_50_Slope","alpha001","alpha006","alpha009","alpha012","alpha101"],"feature_types":["float","float","float","float","float","float","float","float","float","float","float","float","float","int","float","int","float","float","float","float","float","float","float"],"gradient_booster":{"model":{"cats":{"enc":[],"feature_segments":[],"sorted_idx":[]},"gbtree_model_param":{"num_parallel_tree":"1","num_trees":"500"},"iteration_indptr":[0,1,2,3,4,5,6,7,8,9,10,11,12,13,14,15,16,17,18,19,20,21,22,23,24,25,26,27,28,29,30,31,32,33,34,35,36,37,38,39,40,41,42,43,44,45,46,47,48,49,50,51,52,53,54,55,56,57,58,59,60,61,62,63,64,65,66,67,68,69,70,71,72,73,74,75,76,77,78,79,80,81,82,83,84,85,86,87,88,89,90,91,92,93,94,95,96,97,98,99,100,101,102,103,104,105,106,107,108,109,110,111,112,113,114,115,116,117,118,119,120,121,122,123,124,125,126,127,128,129,130,131,132,133,134,135,136,137,138,139,140,141,142,143,144,145,146,147,148,149,150,151,152,153,154,155,156,157,158,159,160,161,162,163,164,165,166,167,168,169,170,171,172,173,174,175,176,177,178,179,180,181,182,183,184,185,186,187,188,189,190,191,192,193,194,195,196,197,198,199,200,201,202,203,204,205,206,207,208,209,210,211,212,213,214,215,216,217,218,219,220,221,222,223,224,225,226,227,228,229,230,231,232,233,234,235,236,237,238,239,240,241,242,243,244,245,246,247,248,249,250,251,252,253,254,255,256,257,258,259,260,261,262,263,264,265,266,267,268,269,270,271,272,273,274,275,276,277,278,279,280,281,282,283,284,285,286,287,288,289,290,291,292,293,294,295,296,297,298,299,300,301,302,303,304,305,306,307,308,309,310,311,312,313,314,315,316,317,318,319,320,321,322,323,324,325,326,327,328,329,330,331,332,333,334,335,336,337,338,339,340,341,342,343,344,345,346,347,348,349,350,351,352,353,354,355,356,357,358,359,360,361,362,363,364,365,366,367,368,369,370,371,372,373,374,375,376,377,378,379,380,381,382,383,384,385,386,387,388,389,390,391,392,393,394,395,396,397,398,399,400,401,402,403,404,405,406,407,408,409,410,411,412,413,414,415,416,417,418,419,420,421,422,423,424,425,426,427,428,429,430,431,432,433,434,435,436,437,438,439,440,441,442,443,444,445,446,447,448,449,450,451,452,453,454,455,456,457,458,459,460,461,462,463,464,465,466,467,468,469,470,471,472,473,474,475,476,477,478,479,480,481,482,483,484,485,486,487,488,489,490,491,492,493,494,495,496,497,498,499,500],"tree_info":[0,0,0,0,0,0,0,0,0,0,0,0,0,0,0,0,0,0,0,0,0,0,0,0,0,0,0,0,0,0,0,0,0,0,0,0,0,0,0,0,0,0,0,0,0,0,0,0,0,0,0,0,0,0,0,0,0,0,0,0,0,0,0,0,0,0,0,0,0,0,0,0,0,0,0,0,0,0,0,0,0,0,0,0,0,0,0,0,0,0,0,0,0,0,0,0,0,0,0,0,0,0,0,0,0,0,0,0,0,0,0,0,0,0,0,0,0,0,0,0,0,0,0,0,0,0,0,0,0,0,0,0,0,0,0,0,0,0,0,0,0,0,0,0,0,0,0,0,0,0,0,0,0,0,0,0,0,0,0,0,0,0,0,0,0,0,0,0,0,0,0,0,0,0,0,0,0,0,0,0,0,0,0,0,0,0,0,0,0,0,0,0,0,0,0,0,0,0,0,0,0,0,0,0,0,0,0,0,0,0,0,0,0,0,0,0,0,0,0,0,0,0,0,0,0,0,0,0,0,0,0,0,0,0,0,0,0,0,0,0,0,0,0,0,0,0,0,0,0,0,0,0,0,0,0,0,0,0,0,0,0,0,0,0,0,0,0,0,0,0,0,0,0,0,0,0,0,0,0,0,0,0,0,0,0,0,0,0,0,0,0,0,0,0,0,0,0,0,0,0,0,0,0,0,0,0,0,0,0,0,0,0,0,0,0,0,0,0,0,0,0,0,0,0,0,0,0,0,0,0,0,0,0,0,0,0,0,0,0,0,0,0,0,0,0,0,0,0,0,0,0,0,0,0,0,0,0,0,0,0,0,0,0,0,0,0,0,0,0,0,0,0,0,0,0,0,0,0,0,0,0,0,0,0,0,0,0,0,0,0,0,0,0,0,0,0,0,0,0,0,0,0,0,0,0,0,0,0,0,0,0,0,0,0,0,0,0,0,0,0,0,0,0,0,0,0,0,0,0,0,0,0,0,0,0,0,0,0,0,0,0,0,0,0,0,0,0,0,0,0,0,0,0,0,0,0,0,0,0,0,0,0,0,0,0,0,0,0,0,0,0,0,0,0,0,0,0,0,0,0,0,0,0,0,0,0,0,0,0,0,0,0,0,0,0,0,0,0,0,0],"trees":[{"base_weights":[6.4937365E-3,-8.2973826E-1,4.591764E-1,-1.406162E0,-5.906185E-1,1.6138339E-1,8.03135E-1,-1.6547182E0,-1.1566398E0,-3.6737928E-1,-7.3698723E-1,3.9972457E-1,-4.0615806E-3,1.110759E0,6.8659496E-1,-2.1271646E-2,-1.7161183E-2,-4.4553666E-3,-1.3737749E-2,-2.895251E-4,-6.7437897E-3,-8.564557E-3,1.4758453E-2,2.1740647E-3,6.477826E-3,3.0752125E-3,-2.0228089E-3,2.3334392E-3,1.2993194E-2,5.7492997E-3,9.880267E-3],"categories":[],"categories_nodes":[],"categories_segments":[],"categories_sizes":[],"default_left":[1,1,0,1,0,0,0,0,0,0,0,0,0,0,0,0,0,0,0,0,0,0,0,0,0,0,0,0,0,0,0],"id":0,"left_children":[1,3,5,7,9,11,13,15,17,19,21,23,25,27,29,-1,-1,-1,-1,-1,-1,-1,-1,-1,-1,-1,-1,-1,-1,-1,-1],"loss_changes":[1.3350265E4,1.7059951E3,2.34337E3,2.2260449E2,2.8564502E2,4.837104E2,3.7949023E2,5.3148926E1,7.435156E1,2.6918817E2,1.9350732E2,1.7883026E2,3.47063E2,9.0336426E1,2.5454126E2,0E0,0E0,0E0,0E0,0E0,0E0,0E0,0E0,0E0,0E0,0E0,0E0,0E0,0E0,0E0,0E0],"parents":[2147483647,0,0,1,1,2,2,3,3,4,4,5,5,6,6,7,7,8,8,9,9,10,10,11,11,12,12,13,13,14,14],"right_children":[2,4,6,8,10,12,14,16,18,20,22,24,26,28,30,-1,-1,-1,-1,-1,-1,-1,-1,-1,-1,-1,-1,-1,-1,-1,-1],"split_conditions":[1.0975754E1,5.687453E0,2.1101126E1,4.254631E0,-2.3150635E-1,1.94775E1,8.442594E0,1.7623962E1,-1.7099991E0,2.8904318E1,1.03636E8,1.4819609E1,-7.258072E-1,7.088E3,3.0834238E1,-2.1271646E-2,-1.7161183E-2,-4.4553666E-3,-1.3737749E-2,-2.895251E-4,-6.7437897E-3,-8.564557E-3,1.4758453E-2,2.1740647E-3,6.477826E-3,3.0752125E-3,-2.0228089E-3,2.3334392E-3,1.2993194E-2,5.7492997E-3,9.880267E-3],"split_indices":[4,4,4,4,21,1,1,1,21,1,6,4,21,0,4,0,0,0,0,0,0,0,0,0,0,0,0,0,0,0,0],"split_type":[0,0,0,0,0,0,0,0,0,0,0,0,0,0,0,0,0,0,0,0,0,0,0,0,0,0,0,0,0,0,0],"sum_hessian":[3.5265004E4,1.2385054E4,2.2879951E4,3.6295566E3,8.755497E3,1.2264055E4,1.0615897E4,1.8148589E3,1.8146978E3,3.4692463E3,5.2862505E3,5.024767E3,7.2392876E3,2.9137708E3,7.7021265E3,7.065323E2,1.1083267E3,1.2094759E2,1.6937501E3,1.3851494E3,2.084097E3,5.241069E3,4.5181465E1,2.2694883E3,2.7552788E3,2.8063877E3,4.4329E3,1.0721373E2,2.8065571E3,3.899662E3,3.8024646E3],"tree_param":{"num_deleted":"0","num_feature":"23","num_nodes":"31","size_leaf_vector":"1"}},{"base_weights":[1.1970338E-3,-6.318876E-1,4.3235132E-1,-1.0349176E0,-3.118613E-1,2.1377231E-1,7.376138E-1,-1.4817669E0,-7.8201365E-1,-3.9842504E-1,3.7067956E-1,3.4376554E-2,4.90505E-1,5.388665E-1,1.1474464E0,-1.1443314E-2,-1.8496512E-2,-4.2573162E-3,-1.0172274E-2,-3.6046403E-3,-9.180585E-3,1.6192349E-2,3.5745907E-3,9.938839E-4,-1.1261145E-2,7.4733146E-3,3.2021427E-3,3.903332E-3,8.075535E-3,1.0580782E-2,1.5917689E-2],"categories":[],"categories_nodes":[],"categories_segments":[],"categories_sizes":[],"default_left":[0,0,0,0,0,0,0,0,0,0,0,0,0,0,1,0,0,0,0,0,0,0,0,0,0,0,0,0,0,0,0],"id":1,"left_children":[1,3,5,7,9,11,13,15,17,19,21,23,25,27,29,-1,-1,-1,-1,-1,-1,-1,-1,-1,-1,-1,-1,-1,-1,-1,-1],"loss_changes":[9.654447E3,1.8476123E3,1.4035891E3,7.149995E2,4.721775E2,6.0869244E2,7.140967E2,1.5865967E2,1.8822339E2,2.3461536E2,5.208104E1,4.0665216E2,1.6856042E2,1.9877649E2,1.5550659E2,0E0,0E0,0E0,0E0,0E0,0E0,0E0,0E0,0E0,0E0,0E0,0E0,0E0,0E0,0E0,0E0],"parents":[2147483647,0,0,1,1,2,2,3,3,4,4,5,5,6,6,7,7,8,8,9,9,10,10,11,11,12,12,13,13,14,14],"right_children":[2,4,6,8,10,12,14,16,18,20,22,24,26,28,30,-1,-1,-1,-1,-1,-1,-1,-1,-1,-1,-1,-1,-1,-1,-1,-1],"split_conditions":[2.457714E0,1.8313328E0,5.7694397E1,5.523414E0,-1.4527782E0,3.98138E0,2.2174143E1,8.328703E-1,8.1418395E-1,1.1609209E0,7.3104674E-1,1.4610006E0,1.1102716E0,1.4412636E1,-4.8235216E0,-1.1443314E-2,-1.8496512E-2,-4.2573162E-3,-1.0172274E-2,-3.6046403E-3,-9.180585E-3,1.6192349E-2,3.5745907E-3,9.938839E-4,-1.1261145E-2,7.4733146E-3,3.2021427E-3,3.903332E-3,8.075535E-3,1.0580782E-2,1.5917689E-2],"split_indices":[8,8,12,10,14,8,10,9,9,9,9,9,9,10,14,0,0,0,0,0,0,0,0,0,0,0,0,0,0,0,0],"split_type":[0,0,0,0,0,0,0,0,0,0,0,0,0,0,0,0,0,0,0,0,0,0,0,0,0,0,0,0,0,0,0],"sum_hessian":[3.536774E4,1.4328143E4,2.1039598E4,6.340352E3,7.9877905E3,1.2261982E4,8.777614E3,2.2893516E3,4.0510002E3,7.089374E3,8.984165E2,7.440444E3,4.821539E3,5.9130483E3,2.864566E3,5.4905664E2,1.7402949E3,8.913956E2,3.1596047E3,5.926878E3,1.1624961E3,4.3430916E1,8.549856E2,7.0749365E3,3.6550693E2,2.6658562E3,2.1556829E3,2.7820352E3,3.1310132E3,1.5590557E3,1.3055101E3],"tree_param":{"num_deleted":"0","num_feature":"23","num_nodes":"31","size_leaf_vector":"1"}},{"base_weights":[6.628006E-3,-6.4287025E-1,3.9309025E-1,-1.1814039E0,-4.4132435E-1,8.83751E-2,6.257089E-1,-1.3890928E0,-9.122923E-1,5.2330285E-1,-4.8248208E-1,2.830025E-1,-5.1792387E-2,5.091972E-1,1.0767865E0,-2.1440191E-2,-1.477349E-2,-1.1083937E-2,-8.5865776E-4,1.126228E-2,3.1117824E-4,-7.986395E-3,-3.7233238E-3,7.853352E-3,1.6611769E-3,2.2375262E-3,-2.2217026E-3,9.803292E-3,4.260151E-3,9.389155E-3,1.599434E-2],"categories":[],"categories_nodes":[],"categories_segments":[],"categories_sizes":[],"default_left":[0,0,0,0,0,0,1,0,0,0,0,0,0,0,0,0,0,0,0,0,0,0,0,0,0,0,0,0,0,0,0],"id":2,"left_children":[1,3,5,7,9,11,13,15,17,19,21,23,25,27,29,-1,-1,-1,-1,-1,-1,-1,-1,-1,-1,-1,-1,-1,-1,-1,-1],"loss_changes":[8.886424E3,1.4326328E3,1.5731543E3,1.991997E2,3.8189746E2,2.622373E2,6.6064404E2,8.5045166E1,8.460608E1,9.142979E1,3.146006E2,2.2466647E2,2.0041762E2,4.7418335E2,2.1263794E2,0E0,0E0,0E0,0E0,0E0,0E0,0E0,0E0,0E0,0E0,0E0,0E0,0E0,0E0,0E0,0E0],"parents":[2147483647,0,0,1,1,2,2,3,3,4,4,5,5,6,6,7,7,8,8,9,9,10,10,11,11,12,12,13,13,14,14],"right_children":[2,4,6,8,10,12,14,16,18,20,22,24,26,28,30,-1,-1,-1,-1,-1,-1,-1,-1,-1,-1,-1,-1,-1,-1,-1,-1],"split_conditions":[9.750531E0,6.0277295E0,1.4412636E1,5.187351E0,-1.2300163E1,2.032398E1,-3.5793867E0,3.353553E0,1.2589989E0,1.4471441E1,5.307217E-1,-3.225441E-1,-8.066845E-1,8.442594E0,2.3395681E1,-2.1440191E-2,-1.477349E-2,-1.1083937E-2,-8.5865776E-4,1.126228E-2,3.1117824E-4,-7.986395E-3,-3.7233238E-3,7.853352E-3,1.6611769E-3,2.2375262E-3,-2.2217026E-3,9.803292E-3,4.260151E-3,9.389155E-3,1.599434E-2],"split_indices":[10,10,10,10,14,1,14,10,21,1,22,21,21,1,10,0,0,0,0,0,0,0,0,0,0,0,0,0,0,0,0],"split_type":[0,0,0,0,0,0,0,0,0,0,0,0,0,0,0,0,0,0,0,0,0,0,0,0,0,0,0,0,0,0,0],"sum_hessian":[3.540111E4,1.3205856E4,2.2195252E4,3.5946707E3,9.611187E3,9.60957E3,1.2585682E4,2.0259397E3,1.568731E3,3.9260825E2,9.218578E3,4.0232253E3,5.5863447E3,1.0004314E4,2.5813674E3,2.9630942E2,1.7296302E3,1.4559075E3,1.128235E2,2.0096806E2,1.9164018E2,3.7841436E3,5.4344346E3,1.0054985E3,3.017727E3,2.0465304E3,3.5398142E3,2.7362397E3,7.2680747E3,1.4786279E3,1.1027395E3],"tree_param":{"num_deleted":"0","num_feature":"23","num_nodes":"31","size_leaf_vector":"1"}},{"base_weights":[-5.9063337E-4,-6.6027063E-1,4.1194415E-1,-1.0481011E0,-3.333981E-1,1.9737494E-1,7.33177E-1,-1.5214555E0,-9.128881E-1,-3.6865947E-1,5.2148914E-1,1.431243E-1,5.1928174E-1,9.234528E-1,6.208738E-1,3.9293384E-3,-1.7701417E-2,-8.584987E-3,-1.3015051E-2,-2.6313371E-3,-5.6627733E-3,1.3729729E-2,1.7408949E-3,-2.7013695E-4,3.1275728E-3,6.681008E-3,-5.100613E-3,9.526421E-3,1.4633977E-2,8.571812E-3,5.2830107E-3],"categories":[],"categories_nodes":[],"categories_segments":[],"categories_sizes":[],"default_left":[0,0,0,0,0,0,0,0,0,0,0,0,0,1,0,0,0,0,0,0,0,0,0,0,0,0,0,0,0,0,0],"id":3,"left_children":[1,3,5,7,9,11,13,15,17,19,21,23,25,27,29,-1,-1,-1,-1,-1,-1,-1,-1,-1,-1,-1,-1,-1,-1,-1,-1],"loss_changes":[9.592293E3,1.718606E3,1.494418E3,3.9500244E2,2.220802E2,2.2689362E2,1.8467236E2,1.0024365E2,1.753584E2,1.2586157E2,7.354316E1,2.4628264E2,1.2664737E2,9.734155E1,1.1361792E2,0E0,0E0,0E0,0E0,0E0,0E0,0E0,0E0,0E0,0E0,0E0,0E0,0E0,0E0,0E0,0E0],"parents":[2147483647,0,0,1,1,2,2,3,3,4,4,5,5,6,6,7,7,8,8,9,9,10,10,11,11,12,12,13,13,14,14],"right_children":[2,4,6,8,10,12,14,16,18,20,22,24,26,28,30,-1,-1,-1,-1,-1,-1,-1,-1,-1,-1,-1,-1,-1,-1,-1,-1],"split_conditions":[2.4026065E0,1.8226964E0,3.98138E0,1.2921387E0,2.05104E7,6.0104E6,5.8999985E-1,-7.6938033E-1,1.4361845E-1,5.782826E-1,1.7999998E-1,2.9268508E0,6.12504E-1,1.6074859E0,-1.2580555E-2,3.9293384E-3,-1.7701417E-2,-8.584987E-3,-1.3015051E-2,-2.6313371E-3,-5.6627733E-3,1.3729729E-2,1.7408949E-3,-2.7013695E-4,3.1275728E-3,6.681008E-3,-5.100613E-3,9.526421E-3,1.4633977E-2,8.571812E-3,5.2830107E-3],"split_indices":[8,8,8,8,0,0,5,19,19,5,5,8,19,11,19,0,0,0,0,0,0,0,0,0,0,0,0,0,0,0,0],"split_type":[0,0,0,0,0,0,0,0,0,0,0,0,0,0,0,0,0,0,0,0,0,0,0,0,0,0,0,0,0,0,0],"sum_hessian":[3.5245164E4,1.356048E4,2.1684686E4,6.200603E3,7.359877E3,1.3002131E4,8.682554E3,1.3748851E3,4.825718E3,7.0691167E3,2.9076028E2,1.112872E4,1.8734114E3,3.2190637E3,5.46349E3,2.7642399E1,1.3472427E3,2.898015E3,1.927703E3,3.453319E3,3.6157979E3,1.0024304E2,1.9051724E2,4.924979E3,6.2037407E3,1.7484714E3,1.24939926E2,2.622983E3,5.960807E2,2.9232612E3,2.5402292E3],"tree_param":{"num_deleted":"0","num_feature":"23","num_nodes":"31","size_leaf_vector":"1"}},{"base_weights":[1.5900657E-2,4.135491E-1,-1.4974663E-1,5.707267E-1,1.8316574E-1,-2.384178E-1,7.2108674E-1,5.408771E-1,1.1611851E0,5.59209E-1,1.1771007E-1,-2.8646207E-1,8.857829E-2,4.8173398E-1,1.0958135E0,8.384112E-3,5.1713777E-3,1.3728685E-2,-1.8098975E-2,-3.1358441E-3,8.133727E-3,1.6596981E-3,-6.786608E-3,-7.1100215E-4,-4.1955328E-3,3.1584897E-4,9.004606E-3,3.3642445E-3,8.892917E-3,1.0684441E-2,1.479366E-2],"categories":[],"categories_nodes":[],"categories_segments":[],"categories_sizes":[],"default_left":[0,0,1,0,0,0,0,0,0,0,0,0,0,0,0,0,0,0,0,0,0,0,0,0,0,0,0,0,0,0,0],"id":4,"left_children":[1,3,5,7,9,11,13,15,17,19,21,23,25,27,29,-1,-1,-1,-1,-1,-1,-1,-1,-1,-1,-1,-1,-1,-1,-1,-1],"loss_changes":[2.3426355E3,3.7847803E2,1.9387179E3,1.0858765E2,1.0426897E2,3.580443E2,2.0726404E2,9.9194214E1,4.2153046E1,8.309357E1,7.39841E1,3.703806E2,1.2486927E2,7.890561E1,2.7241333E1,0E0,0E0,0E0,0E0,0E0,0E0,0E0,0E0,0E0,0E0,0E0,0E0,0E0,0E0,0E0,0E0],"parents":[2147483647,0,0,1,1,2,2,3,3,4,4,5,5,6,6,7,7,8,8,9,9,10,10,11,11,12,12,13,13,14,14],"right_children":[2,4,6,8,10,12,14,16,18,20,22,24,26,28,30,-1,-1,-1,-1,-1,-1,-1,-1,-1,-1,-1,-1,-1,-1,-1,-1],"split_conditions":[-8.238641E0,-1.12545185E1,-4.0808374E-1,2.73025E7,2.4048E5,5.8212E6,1.4299275E0,-1.9111113E1,6.5E-1,3.43E4,1.6303762E0,-5.814226E0,5.89972E7,1.1367198E0,2.055481E0,8.384112E-3,5.1713777E-3,1.3728685E-2,-1.8098975E-2,-3.1358441E-3,8.133727E-3,1.6596981E-3,-6.786608E-3,-7.1100215E-4,-4.1955328E-3,3.1584897E-4,9.004606E-3,3.3642445E-3,8.892917E-3,1.0684441E-2,1.479366E-2],"split_indices":[14,14,14,0,6,0,11,14,16,0,11,14,0,9,11,0,0,0,0,0,0,0,0,0,0,0,0,0,0,0,0],"split_type":[0,0,0,0,0,0,0,0,0,0,0,0,0,0,0,0,0,0,0,0,0,0,0,0,0,0,0,0,0,0,0],"sum_hessian":[3.556207E4,1.0457475E4,2.5104596E4,6.214995E3,4.2424795E3,2.2785488E4,2.3191067E3,5.9182007E3,2.9679446E2,6.2737744E2,3.6151023E3,1.9867127E4,2.9183628E3,1.4169812E3,9.0212537E2,1.7752339E3,4.1429663E3,2.922952E2,4.499273E0,9.929523E1,5.280822E2,3.4774202E3,1.3768213E2,5.3909604E3,1.4476166E4,2.6881587E3,2.3020396E2,8.800657E2,5.369155E2,5.2219086E2,3.799345E2],"tree_param":{"num_deleted":"0","num_feature":"23","num_nodes":"31","size_leaf_vector":"1"}},{"base_weights":[-1.4731783E-2,-4.6176007E-1,6.4023566E-1,-1.7967394E-1,-7.781853E-1,3.7902972E-1,1.098682E0,-4.6646625E-1,4.7187213E-2,-1.0783974E0,-4.7723538E-1,6.6821593E-1,1.3241465E-1,8.4127486E-1,1.191195E0,-1.1125789E-3,-6.4686034E-3,2.2807275E-3,-1.8426193E-3,-1.0304099E-2,-1.6969787E-2,-4.4449074E-3,-1.0358134E-2,9.247546E-3,6.1463537E-3,-1.6171032E-3,3.907551E-3,1.0646293E-2,6.43074E-3,1.2604308E-2,1.49434E-2],"categories":[],"categories_nodes":[],"categories_segments":[],"categories_sizes":[],"default_left":[1,0,0,0,1,0,0,0,0,0,0,0,0,0,0,0,0,0,0,0,0,0,0,0,0,0,0,0,0,0,0],"id":5,"left_children":[1,3,5,7,9,11,13,15,17,19,21,23,25,27,29,-1,-1,-1,-1,-1,-1,-1,-1,-1,-1,-1,-1,-1,-1,-1,-1],"loss_changes":[1.0228827E4,1.853082E3,1.6963501E3,7.1443896E2,8.833159E2,6.4376E2,1.2103516E2,1.8502747E2,1.9771078E2,3.4599512E2,1.8147021E2,7.647754E1,2.8423917E2,3.550464E1,3.6191895E1,0E0,0E0,0E0,0E0,0E0,0E0,0E0,0E0,0E0,0E0,0E0,0E0,0E0,0E0,0E0,0E0],"parents":[2147483647,0,0,1,1,2,2,3,3,4,4,5,5,6,6,7,7,8,8,9,9,10,10,11,11,12,12,13,13,14,14],"right_children":[2,4,6,8,10,12,14,16,18,20,22,24,26,28,30,-1,-1,-1,-1,-1,-1,-1,-1,-1,-1,-1,-1,-1,-1,-1,-1],"split_conditions":[2.1813817E0,-5.3838725E0,9.57822E0,6.2808836E-1,7.0271945E-1,-6.4238663E0,1.25882845E1,-1.1425636E1,-7.898088E0,-3.089465E0,-2.1801925E0,8.396744E-2,5.746222E-1,1.1611147E0,2.3242533E1,-1.1125789E-3,-6.4686034E-3,2.2807275E-3,-1.8426193E-3,-1.0304099E-2,-1.6969787E-2,-4.4449074E-3,-1.0358134E-2,9.247546E-3,6.1463537E-3,-1.6171032E-3,3.907551E-3,1.0646293E-2,6.43074E-3,1.2604308E-2,1.49434E-2],"split_indices":[2,14,2,2,2,14,2,14,14,14,14,17,22,5,2,0,0,0,0,0,0,0,0,0,0,0,0,0,0,0,0],"split_type":[0,0,0,0,0,0,0,0,0,0,0,0,0,0,0,0,0,0,0,0,0,0,0,0,0,0,0,0,0,0,0],"sum_hessian":[3.4933715E4,2.0763078E4,1.4170639E4,1.0978358E4,9.784721E3,9.028755E3,5.141884E3,4.848526E3,6.129832E3,4.8966665E3,4.888054E3,4.1545225E3,4.874232E3,1.3628364E3,3.7790474E3,1.0654742E3,3.7830518E3,3.5356533E3,2.5941787E3,3.4806423E3,1.4160243E3,4.0884626E3,7.9959143E2,1.919293E3,2.2352292E3,2.121837E3,2.7523953E3,1.00441534E3,3.5842105E2,2.3147285E3,1.4643188E3],"tree_param":{"num_deleted":"0","num_feature":"23","num_nodes":"31","size_leaf_vector":"1"}},{"base_weights":[1.2662595E-3,-5.6835407E-1,5.2750546E-1,-1.2335576E0,-2.949128E-1,3.012671E-1,9.288317E-1,-1.4024439E0,-8.14114E-1,-7.412837E-1,-1.7301895E-1,8.03887E-2,4.8004952E-1,7.664017E-1,1.1257143E0,-1.9726532E-2,-1.4309881E-2,-1.2279664E-2,-4.4005513E-3,-7.3138075E-3,-1.6078603E-2,2.4939382E-3,-3.969044E-3,-2.9264798E-5,5.1347697E-3,4.882007E-3,1.0743085E-2,-2.058861E-2,8.805874E-3,1.0593581E-2,1.6037384E-2],"categories":[],"categories_nodes":[],"categories_segments":[],"categories_sizes":[],"default_left":[1,0,0,0,1,0,0,0,0,0,0,0,1,0,0,0,0,0,0,0,0,0,0,0,0,0,0,0,0,0,0],"id":6,"left_children":[1,3,5,7,9,11,13,15,17,19,21,23,25,27,29,-1,-1,-1,-1,-1,-1,-1,-1,-1,-1,-1,-1,-1,-1,-1,-1],"loss_changes":[1.0556836E4,3.0755054E3,1.6616143E3,3.4733838E2,6.5190735E2,4.622329E2,2.0976172E2,1.6374023E2,1.612818E2,1.6659167E2,6.541595E2,1.6186185E2,1.4963452E2,9.221118E1,1.6284595E2,0E0,0E0,0E0,0E0,0E0,0E0,0E0,0E0,0E0,0E0,0E0,0E0,0E0,0E0,0E0,0E0],"parents":[2147483647,0,0,1,1,2,2,3,3,4,4,5,5,6,6,7,7,8,8,9,9,10,10,11,11,12,12,13,13,14,14],"right_children":[2,4,6,8,10,12,14,16,18,20,22,24,26,28,30,-1,-1,-1,-1,-1,-1,-1,-1,-1,-1,-1,-1,-1,-1,-1,-1],"split_conditions":[9.900541E0,1.8053279E0,2.165403E1,6.59758E0,3.5252438E0,2.7900052E0,3.4807384E1,1.2921387E0,1.6397473E0,-4.404092E0,-7.9587913E0,-1.0294925E0,-2.105904E0,1.6774867E0,-5.483355E0,-1.9726532E-2,-1.4309881E-2,-1.2279664E-2,-4.4005513E-3,-7.3138075E-3,-1.6078603E-2,2.4939382E-3,-3.969044E-3,-2.9264798E-5,5.1347697E-3,4.882007E-3,1.0743085E-2,-2.058861E-2,8.805874E-3,1.0593581E-2,1.6037384E-2],"split_indices":[3,8,3,3,3,8,3,8,8,14,14,14,14,8,14,0,0,0,0,0,0,0,0,0,0,0,0,0,0,0,0],"split_type":[0,0,0,0,0,0,0,0,0,0,0,0,0,0,0,0,0,0,0,0,0,0,0,0,0,0,0,0,0,0,0],"sum_hessian":[3.5215848E4,1.69107E4,1.830515E4,4.9250376E3,1.1985661E4,1.1707601E4,6.5975503E3,3.5091333E3,1.4159045E3,2.5694565E3,9.416205E3,5.238348E3,6.469252E3,3.6184883E3,2.979062E3,1.0339369E3,2.4751963E3,8.6783325E2,5.4807135E2,2.2500276E3,3.1942892E2,2.922227E3,6.4939775E3,4.283986E3,9.543624E2,5.8482793E3,6.2097284E2,1.2747903E1,3.6057402E3,1.7899231E3,1.189139E3],"tree_param":{"num_deleted":"0","num_feature":"23","num_nodes":"31","size_leaf_vector":"1"}},{"base_weights":[-1.110293E-3,-4.998562E-1,5.363919E-1,-2.6634043E-1,-9.129887E-1,2.9853114E-1,1.0576133E0,-6.512881E-1,-1.319556E-1,-8.196106E-1,-1.4090538E0,5.97943E-1,8.122543E-2,8.3245414E-1,1.1772546E0,-3.0221334E-3,-9.719974E-3,2.475544E-3,-2.594557E-3,-1.42624015E-2,-7.888255E-3,-1.6549017E-2,5.3923307E-3,7.082308E-3,-1.4877825E-3,-4.2163953E-3,1.6693278E-3,-2.0945566E-2,9.644615E-3,8.153835E-3,1.3634801E-2],"categories":[],"categories_nodes":[],"categories_segments":[],"categories_sizes":[],"default_left":[1,0,0,0,0,0,0,0,0,0,0,0,0,0,0,0,0,0,0,0,0,0,0,0,0,0,0,0,0,0,0],"id":7,"left_children":[1,3,5,7,9,11,13,15,17,19,21,23,25,27,29,-1,-1,-1,-1,-1,-1,-1,-1,-1,-1,-1,-1,-1,-1,-1,-1],"loss_changes":[9.446332E3,1.7628525E3,2.1020488E3,6.0395465E2,3.0407178E2,7.5763464E2,1.4173291E2,2.3846362E2,2.932948E2,3.010288E2,9.833057E1,9.397803E1,2.0148715E2,8.865857E1,3.7648926E1,0E0,0E0,0E0,0E0,0E0,0E0,0E0,0E0,0E0,0E0,0E0,0E0,0E0,0E0,0E0,0E0],"parents":[2147483647,0,0,1,1,2,2,3,3,4,4,5,5,6,6,7,7,8,8,9,9,10,10,11,11,12,12,13,13,14,14],"right_children":[2,4,6,8,10,12,14,16,18,20,22,24,26,28,30,-1,-1,-1,-1,-1,-1,-1,-1,-1,-1,-1,-1,-1,-1,-1,-1],"split_conditions":[1.6135958E0,-4.585239E0,9.225486E0,2.9000047E-1,-2.1801925E0,-6.947873E0,1.3274554E1,-8.699534E0,-1.1105107E1,2.4356787E-1,1.8251864E7,1.7453467E0,-7.6264E-2,7.088E3,-2.3354235E1,-3.0221334E-3,-9.719974E-3,2.475544E-3,-2.594557E-3,-1.42624015E-2,-7.888255E-3,-1.6549017E-2,5.3923307E-3,7.082308E-3,-1.4877825E-3,-4.2163953E-3,1.6693278E-3,-2.0945566E-2,9.644615E-3,8.153835E-3,1.3634801E-2],"split_indices":[2,14,2,2,14,14,2,14,14,2,0,11,22,0,14,0,0,0,0,0,0,0,0,0,0,0,0,0,0,0,0],"split_type":[0,0,0,0,0,0,0,0,0,0,0,0,0,0,0,0,0,0,0,0,0,0,0,0,0,0,0,0,0,0,0],"sum_hessian":[3.523519E4,1.8276703E4,1.6958488E4,1.1678084E4,6.5986187E3,1.1645898E4,5.312591E3,3.0204624E3,8.657622E3,5.5560205E3,1.0425983E3,4.8965566E3,6.7493413E3,1.84692E3,3.4656707E3,1.0521147E3,1.9683475E3,1.8732261E3,6.7843955E3,1.2273967E3,4.3286235E3,1.01622327E3,2.6374958E1,4.726623E3,1.6993365E2,8.5649976E2,5.8928413E3,1.124409E1,1.835676E3,1.7763722E2,3.2880334E3],"tree_param":{"num_deleted":"0","num_feature":"23","num_nodes":"31","size_leaf_vector":"1"}},{"base_weights":[-1.7449228E-2,-2.0941548E-1,6.259697E-1,-5.39892E-1,-1.3266085E-1,3.2168332E-1,9.158513E-1,2.9534414E-1,-5.717639E-1,2.1568426E-1,-2.1696946E-1,-3.9249867E-1,4.369855E-1,5.6217664E-1,1.0915939E0,8.722118E-3,-4.01962E-3,-4.702995E-3,-8.136895E-3,-2.597858E-4,6.60901E-3,-3.0714916E-3,2.5101788E-3,-1.7281841E-2,-3.151826E-3,6.2596584E-3,8.420764E-4,6.7815534E-3,-2.1712985E-2,1.2486024E-2,-2.0246835E-2],"categories":[],"categories_nodes":[],"categories_segments":[],"categories_sizes":[],"default_left":[0,1,0,0,0,1,0,0,0,0,0,1,0,0,0,0,0,0,0,0,0,0,0,0,0,0,0,0,0,0,0],"id":8,"left_children":[1,3,5,7,9,11,13,15,17,19,21,23,25,27,29,-1,-1,-1,-1,-1,-1,-1,-1,-1,-1,-1,-1,-1,-1,-1,-1],"loss_changes":[4.3277363E3,6.843579E2,7.0967163E2,1.3561731E2,6.4329626E2,3.2382944E2,2.5528857E2,5.802172E1,1.115105E2,3.736369E2,4.154001E2,7.014183E1,1.4070898E2,1.21655E2,7.241406E1,0E0,0E0,0E0,0E0,0E0,0E0,0E0,0E0,0E0,0E0,0E0,0E0,0E0,0E0,0E0,0E0],"parents":[2147483647,0,0,1,1,2,2,3,3,4,4,5,5,6,6,7,7,8,8,9,9,10,10,11,11,12,12,13,13,14,14],"right_children":[2,4,6,8,10,12,14,16,18,20,22,24,26,28,30,-1,-1,-1,-1,-1,-1,-1,-1,-1,-1,-1,-1,-1,-1,-1,-1],"split_conditions":[2.4119623E-1,4.504945E1,4.028298E-1,-1.2494198E-1,9.393402E0,4.0721256E1,5.323482E1,5E-1,2.438796E1,1.2598E6,7.1466E6,2.9870132E1,4.55272E1,2.0980687E2,3.7255466E2,8.722118E-3,-4.01962E-3,-4.702995E-3,-8.136895E-3,-2.597858E-4,6.60901E-3,-3.0714916E-3,2.5101788E-3,-1.7281841E-2,-3.151826E-3,6.2596584E-3,8.420764E-4,6.7815534E-3,-2.1712985E-2,1.2486024E-2,-2.0246835E-2],"split_indices":[17,12,17,17,1,12,12,16,1,0,0,12,1,1,1,0,0,0,0,0,0,0,0,0,0,0,0,0,0,0,0],"split_type":[0,0,0,0,0,0,0,0,0,0,0,0,0,0,0,0,0,0,0,0,0,0,0,0,0,0,0,0,0,0,0],"sum_hessian":[3.5036504E4,2.6986104E4,8.050399E3,5.0846655E3,2.1901438E4,3.9290242E3,4.121375E3,1.86371E2,4.8982944E3,4.2670874E3,1.763435E4,5.4558704E2,3.383437E3,1.369956E3,2.751419E3,1.0783678E2,7.853423E1,2.3557747E3,2.5425198E3,2.5858228E3,1.6812649E3,1.5708609E4,1.9257407E3,4.8873188E1,4.9671387E2,2.5697478E3,8.1368933E2,1.3514646E3,1.8491388E1,2.7436777E3,7.7410994E0],"tree_param":{"num_deleted":"0","num_feature":"23","num_nodes":"31","size_leaf_vector":"1"}},{"base_weights":[-2.0858347E-4,-1.8581896E-1,6.189871E-1,2.4471997E-1,-3.5613048E-1,4.0011567E-1,1.0373002E0,6.2571365E-1,1.340351E-1,-4.1461235E-1,5.424525E-1,1.8490048E-1,6.9177663E-1,5.491904E-1,1.1100137E0,-8.738998E-3,7.939253E-3,-5.04944E-3,2.3858454E-3,-2.6372455E-3,-6.1766542E-3,3.2932826E-3,9.992794E-3,5.217248E-3,3.237047E-4,9.482143E-3,6.110156E-3,7.068169E-3,-2.0946924E-2,-1.8226698E-2,1.2657261E-2],"categories":[],"categories_nodes":[],"categories_segments":[],"categories_sizes":[],"default_left":[0,0,0,0,1,1,0,0,0,0,0,0,0,0,0,0,0,0,0,0,0,0,0,0,0,0,0,0,0,0,0],"id":9,"left_children":[1,3,5,7,9,11,13,15,17,19,21,23,25,27,29,-1,-1,-1,-1,-1,-1,-1,-1,-1,-1,-1,-1,-1,-1,-1,-1],"loss_changes":[4.0480906E3,1.9872341E3,7.430425E2,3.2372952E2,1.02071826E3,3.3459033E2,9.805737E1,1.7922498E2,2.6296207E2,4.3081323E2,1.0078577E2,1.3195792E2,4.9232788E1,6.541891E1,3.8543945E1,0E0,0E0,0E0,0E0,0E0,0E0,0E0,0E0,0E0,0E0,0E0,0E0,0E0,0E0,0E0,0E0],"parents":[2147483647,0,0,1,1,2,2,3,3,4,4,5,5,6,6,7,7,8,8,9,9,10,10,11,11,12,12,13,13,14,14],"right_children":[2,4,6,8,10,12,14,16,18,20,22,24,26,28,30,-1,-1,-1,-1,-1,-1,-1,-1,-1,-1,-1,-1,-1,-1,-1,-1],"split_conditions":[2.4119623E-1,-7.77052E0,5.1882607E-1,8.442594E0,-2.8537932E-1,5.7823124E1,4.4259033E1,1.95E4,4.218744E1,-4.730077E0,8.3410317E-1,1.4471441E1,9.12306E5,8.534453E-1,6.8216816E-2,-8.738998E-3,7.939253E-3,-5.04944E-3,2.3858454E-3,-2.6372455E-3,-6.1766542E-3,3.2932826E-3,9.992794E-3,5.217248E-3,3.237047E-4,9.482143E-3,6.110156E-3,7.068169E-3,-2.0946924E-2,-1.8226698E-2,1.2657261E-2],"split_indices":[17,14,17,1,14,12,12,0,12,14,18,1,6,18,18,0,0,0,0,0,0,0,0,0,0,0,0,0,0,0,0],"split_type":[0,0,0,0,0,0,0,0,0,0,0,0,0,0,0,0,0,0,0,0,0,0,0,0,0,0,0,0,0,0,0],"sum_hessian":[3.5220902E4,2.7098791E4,8.12211E3,7.6807646E3,1.9418027E4,5.3338564E3,2.7882534E3,1.7275781E3,5.9531865E3,1.8232207E4,1.1858192E3,3.0705066E3,2.2633496E3,3.6302527E2,2.425228E3,8.6368744E1,1.6412094E3,6.917776E2,5.261409E3,7.5868364E3,1.0645372E4,6.808061E2,5.0501312E2,1.1120667E3,1.9584401E3,1.1639808E3,1.0993688E3,3.5303595E2,9.9893265E0,4.2455807E0,2.4209824E3],"tree_param":{"num_deleted":"0","num_feature":"23","num_nodes":"31","size_leaf_vector":"1"}},{"base_weights":[2.3350285E-2,-8.390633E-1,4.5254335E-1,-1.3901211E0,-5.438675E-1,2.288537E-1,8.6799765E-1,-1.601866E0,-1.1021773E0,-1.4977916E0,-4.2555097E-1,6.0055666E-2,4.4938332E-1,1.0497936E0,7.491541E-1,-1.8449588E-2,1.1153486E-2,-3.0036534E-3,-1.3598815E-2,-1.7638579E-2,-2.3221252E-3,-8.5027935E-3,-3.2477258E-3,7.2654686E-3,-2.092765E-4,1.6067473E-3,6.0070087E-3,9.830798E-3,1.2724971E-2,3.358467E-3,9.039963E-3],"categories":[],"categories_nodes":[],"categories_segments":[],"categories_sizes":[],"default_left":[1,0,0,0,1,0,0,0,0,0,0,0,0,0,0,0,0,0,0,0,0,0,0,0,0,0,0,0,0,0,0],"id":10,"left_children":[1,3,5,7,9,11,13,15,17,19,21,23,25,27,29,-1,-1,-1,-1,-1,-1,-1,-1,-1,-1,-1,-1,-1,-1,-1,-1],"loss_changes":[1.3212462E4,1.9283418E3,2.214601E3,2.4982617E2,8.709585E2,5.7667004E2,1.7904834E2,1.5097461E2,1.412102E2,6.1958252E1,3.09765E2,4.000049E2,1.6531458E2,4.193164E1,1.08454346E2,0E0,0E0,0E0,0E0,0E0,0E0,0E0,0E0,0E0,0E0,0E0,0E0,0E0,0E0,0E0,0E0],"parents":[2147483647,0,0,1,1,2,2,3,3,4,4,5,5,6,6,7,7,8,8,9,9,10,10,11,11,12,12,13,13,14,14],"right_children":[2,4,6,8,10,12,14,16,18,20,22,24,26,28,30,-1,-1,-1,-1,-1,-1,-1,-1,-1,-1,-1,-1,-1,-1,-1,-1],"split_conditions":[1.0746599E1,1.8053279E0,2.5162659E1,7.0224833E0,4.254631E0,2.9268508E0,1.174416E1,5.0363588E7,7.268648E0,4.5656013E0,6.7706347E0,7.795327E0,1.3761057E1,9.428644E-1,2.7900052E0,-1.8449588E-2,1.1153486E-2,-3.0036534E-3,-1.3598815E-2,-1.7638579E-2,-2.3221252E-3,-8.5027935E-3,-3.2477258E-3,7.2654686E-3,-2.092765E-4,1.6067473E-3,6.0070087E-3,9.830798E-3,1.2724971E-2,3.358467E-3,9.039963E-3],"split_indices":[4,8,4,4,4,8,1,6,4,8,4,1,4,9,8,0,0,0,0,0,0,0,0,0,0,0,0,0,0,0,0],"split_type":[0,0,0,0,0,0,0,0,0,0,0,0,0,0,0,0,0,0,0,0,0,0,0,0,0,0,0,0,0,0,0],"sum_hessian":[3.56936E4,1.1860292E4,2.383331E4,4.1355654E3,7.7247266E3,1.549342E4,8.339892E3,2.3798777E3,1.7556874E3,8.5081537E2,6.8739116E3,8.777262E3,6.7161577E3,3.292822E3,5.04707E3,2.3582476E3,2.1630291E1,1.8181046E2,1.573877E3,8.146686E2,3.6146767E1,2.0656514E3,4.8082603E3,1.0451772E3,7.7320845E3,1.3874325E3,5.3287256E3,9.308784E2,2.3619436E3,4.8086258E2,4.566207E3],"tree_param":{"num_deleted":"0","num_feature":"23","num_nodes":"31","size_leaf_vector":"1"}},{"base_weights":[1.3247109E-2,-7.605146E-1,4.3056977E-1,-1.3031259E0,-4.6015847E-1,2.0486219E-1,8.377318E-1,-1.6535326E0,-1.0365314E0,-1.1581463E0,-2.8689224E-1,-6.405889E-4,3.747367E-1,5.868265E-1,1.0729352E0,-1.897911E-2,-3.495768E-3,-3.6253582E-3,-1.3927065E-2,-1.663145E-2,-9.370167E-3,-6.2595056E-3,-1.5086753E-3,-3.3396522E-3,1.8653031E-3,-1.9097234E-3,5.2828975E-3,5.5336724E-3,9.945082E-3,1.1145289E-2,1.4621044E-2],"categories":[],"categories_nodes":[],"categories_segments":[],"categories_sizes":[],"default_left":[1,0,0,0,1,1,0,0,0,1,0,0,0,0,0,0,0,0,0,0,0,0,0,0,0,0,0,0,0,0,0],"id":11,"left_children":[1,3,5,7,9,11,13,15,17,19,21,23,25,27,29,-1,-1,-1,-1,-1,-1,-1,-1,-1,-1,-1,-1,-1,-1,-1,-1],"loss_changes":[1.1413456E4,2.0173706E3,2.1098237E3,4.0980225E2,9.6368835E2,5.158317E2,4.822705E2,4.837451E1,3.4280835E2,1.603623E2,2.602331E2,3.2420856E2,3.993501E2,1.13138794E2,8.0825195E1,0E0,0E0,0E0,0E0,0E0,0E0,0E0,0E0,0E0,0E0,0E0,0E0,0E0,0E0,0E0,0E0],"parents":[2147483647,0,0,1,1,2,2,3,3,4,4,5,5,6,6,7,7,8,8,9,9,10,10,11,11,12,12,13,13,14,14],"right_children":[2,4,6,8,10,12,14,16,18,20,22,24,26,28,30,-1,-1,-1,-1,-1,-1,-1,-1,-1,-1,-1,-1,-1,-1,-1,-1],"split_conditions":[1.0975754E1,1.8226964E0,2.5162659E1,6.0734434E0,5.3638306E0,5.3106342E1,5.7575752E1,8.338189E1,4.297862E0,4.254631E0,2.2979987E0,2.457714E0,1.9107286E0,-1.7257977E-1,7.606837E1,-1.897911E-2,-3.495768E-3,-3.6253582E-3,-1.3927065E-2,-1.663145E-2,-9.370167E-3,-6.2595056E-3,-1.5086753E-3,-3.3396522E-3,1.8653031E-3,-1.9097234E-3,5.2828975E-3,5.5336724E-3,9.945082E-3,1.1145289E-2,1.4621044E-2],"split_indices":[4,8,4,4,4,12,12,12,3,4,8,8,8,20,12,0,0,0,0,0,0,0,0,0,0,0,0,0,0,0,0],"split_type":[0,0,0,0,0,0,0,0,0,0,0,0,0,0,0,0,0,0,0,0,0,0,0,0,0,0,0,0,0,0,0],"sum_hessian":[3.5343758E4,1.2383009E4,2.2960748E4,4.410661E3,7.9723477E3,1.4773315E4,8.1874316E3,1.9030195E3,2.5076418E3,1.5840262E3,6.3883213E3,6.6856274E3,8.087688E3,3.963685E3,4.2237466E3,1.875818E3,2.7201616E1,5.281986E2,1.9794432E3,8.202306E2,7.637957E2,2.3468926E3,4.0414287E3,2.405314E3,4.2803135E3,1.1590752E3,6.928613E3,2.955993E3,1.0076922E3,2.9791294E3,1.2446171E3],"tree_param":{"num_deleted":"0","num_feature":"23","num_nodes":"31","size_leaf_vector":"1"}},{"base_weights":[-2.0730654E-2,-1.8313739E-1,7.393608E-1,2.341612E-1,-3.08374E-1,4.2989737E-1,1.0125862E0,4.7987184E-1,6.550999E-2,-3.578142E-1,5.4190445E-1,-4.9343422E-1,4.8671255E-1,6.9779855E-1,1.1630448E0,3.604862E-3,6.8856687E-3,-2.5839782E-3,1.5146943E-3,-2.0968115E-3,-5.829459E-3,1.2527328E-2,4.5356806E-3,-1.10126445E-2,8.224071E-3,3.5436233E-3,8.837687E-3,8.618279E-3,-2.062048E-3,4.1865674E-3,1.352235E-2],"categories":[],"categories_nodes":[],"categories_segments":[],"categories_sizes":[],"default_left":[0,0,1,0,1,0,0,1,0,0,0,0,0,0,0,0,0,0,0,0,0,0,0,0,0,0,0,0,0,0,0],"id":12,"left_children":[1,3,5,7,9,11,13,15,17,19,21,23,25,27,29,-1,-1,-1,-1,-1,-1,-1,-1,-1,-1,-1,-1,-1,-1,-1,-1],"loss_changes":[4.302354E3,1.5008989E3,5.1808716E2,2.745928E2,9.287705E2,1.5130994E2,1.5308911E2,5.5194336E1,7.843228E1,5.631316E2,9.629068E1,9.806536E1,1.3781097E2,5.767108E1,4.957715E1,0E0,0E0,0E0,0E0,0E0,0E0,0E0,0E0,0E0,0E0,0E0,0E0,0E0,0E0,0E0,0E0],"parents":[2147483647,0,0,1,1,2,2,3,3,4,4,5,5,6,6,7,7,8,8,9,9,10,10,11,11,12,12,13,13,14,14],"right_children":[2,4,6,8,10,12,14,16,18,20,22,24,26,28,30,-1,-1,-1,-1,-1,-1,-1,-1,-1,-1,-1,-1,-1,-1,-1,-1],"split_conditions":[3.0634046E-1,-8.699534E0,5.795698E1,-1.34361105E1,-1.6142422E-1,-3.549759E0,4.4360235E-1,5.5648563E1,4.3988636E1,-4.6416335E0,3.5223565E-3,-5.7076316E0,5.1882607E-1,4.8135877E-1,-2.3354235E1,3.604862E-3,6.8856687E-3,-2.5839782E-3,1.5146943E-3,-2.0968115E-3,-5.829459E-3,1.2527328E-2,4.5356806E-3,-1.10126445E-2,8.224071E-3,3.5436233E-3,8.837687E-3,8.618279E-3,-2.062048E-3,4.1865674E-3,1.352235E-2],"split_indices":[17,14,12,14,14,20,17,12,12,14,17,14,17,19,14,0,0,0,0,0,0,0,0,0,0,0,0,0,0,0,0],"split_type":[0,0,0,0,0,0,0,0,0,0,0,0,0,0,0,0,0,0,0,0,0,0,0,0,0,0,0,0,0,0,0],"sum_hessian":[3.4851113E4,2.8716408E4,6.134707E3,6.6282554E3,2.2088152E4,2.8782026E3,3.2565042E3,2.6965723E3,3.9316833E3,2.0875178E4,1.2129749E3,1.6617989E2,2.7120227E3,1.0555011E3,2.2010032E3,1.1867035E3,1.5098688E3,7.3905084E2,3.1926326E3,9.898923E3,1.0976256E4,2.4304529E2,9.6992957E2,1.19666176E2,4.651371E1,1.7002125E3,1.01181024E3,9.865296E2,6.8971535E1,7.770444E1,2.1232986E3],"tree_param":{"num_deleted":"0","num_feature":"23","num_nodes":"31","size_leaf_vector":"1"}},{"base_weights":[6.0102027E-3,-4.8192993E-1,5.3041446E-1,-7.4593216E-1,-6.530694E-2,1.0400242E-1,8.0540997E-1,-1.1471915E0,-6.548207E-1,-3.5815957E-1,1.7880031E-1,5.80804E-1,9.979819E-3,6.0886294E-1,1.0262836E0,-1.7759476E-2,-1.1097599E-2,-9.1009E-3,-5.1761195E-3,-3.3999009E-3,-1.3715778E-2,2.9335422E-3,-8.319614E-3,-2.0879567E-2,6.9629545E-3,-3.2221018E-3,1.7169898E-3,7.6875584E-3,3.7663763E-3,9.534238E-3,1.2962593E-2],"categories":[],"categories_nodes":[],"categories_segments":[],"categories_sizes":[],"default_left":[1,1,0,1,1,0,0,1,0,0,0,0,0,0,0,0,0,0,0,0,0,0,0,0,0,0,0,0,0,0,0],"id":13,"left_children":[1,3,5,7,9,11,13,15,17,19,21,23,25,27,29,-1,-1,-1,-1,-1,-1,-1,-1,-1,-1,-1,-1,-1,-1,-1,-1],"loss_changes":[8.977641E3,1.9988193E3,1.9827754E3,4.0558545E2,5.041595E2,2.971968E2,4.453413E2,1.4328735E2,2.6471924E2,1.5891812E2,2.798908E2,8.800299E1,2.3025784E2,1.0312366E2,1.03177246E2,0E0,0E0,0E0,0E0,0E0,0E0,0E0,0E0,0E0,0E0,0E0,0E0,0E0,0E0,0E0,0E0],"parents":[2147483647,0,0,1,1,2,2,3,3,4,4,5,5,6,6,7,7,8,8,9,9,10,10,11,11,12,12,13,13,14,14],"right_children":[2,4,6,8,10,12,14,16,18,20,22,24,26,28,30,-1,-1,-1,-1,-1,-1,-1,-1,-1,-1,-1,-1,-1,-1,-1,-1],"split_conditions":[1.0633199E1,1.2257589E0,2.1813817E0,2.5163498E0,6.59758E0,7.941941E0,9.57822E0,2.1064603E-1,5.7513195E-1,7.210042E1,1.3119683E0,1.0900635E1,5.7513195E-1,4.985724E1,2.4505352E1,-1.7759476E-2,-1.1097599E-2,-9.1009E-3,-5.1761195E-3,-3.3999009E-3,-1.3715778E-2,2.9335422E-3,-8.319614E-3,-2.0879567E-2,6.9629545E-3,-3.2221018E-3,1.7169898E-3,7.6875584E-3,3.7663763E-3,9.534238E-3,1.2962593E-2],"split_indices":[3,2,2,3,3,1,2,2,2,12,9,3,2,1,3,0,0,0,0,0,0,0,0,0,0,0,0,0,0,0,0],"split_type":[0,0,0,0,0,0,0,0,0,0,0,0,0,0,0,0,0,0,0,0,0,0,0,0,0,0,0,0,0,0,0],"sum_hessian":[3.5083406E4,1.8173432E4,1.6909977E4,1.1123513E4,7.049919E3,6.630594E3,1.0279382E4,2.0556685E3,9.067844E3,3.2050327E3,3.844886E3,1.0909236E3,5.5396704E3,5.4418066E3,4.8375747E3,5.89062E2,1.4666063E3,5.203996E3,3.8638481E3,3.000383E3,2.0464961E2,3.5366052E3,3.0828082E2,1.3743022E1,1.0771807E3,1.7980347E3,3.741636E3,4.358374E3,1.0834326E3,1.8643829E3,2.973192E3],"tree_param":{"num_deleted":"0","num_feature":"23","num_nodes":"31","size_leaf_vector":"1"}},{"base_weights":[-5.32938E-3,-4.2623013E-1,6.031629E-1,-6.006863E-1,1.0104225E-1,5.7910723E-3,8.0692846E-1,-1.1824539E0,-4.9221063E-1,-3.3965832E-1,2.2045013E-1,2.7544487E-1,-3.206848E-1,6.547728E-1,1.116551E0,-4.5310124E-3,-1.4310855E-2,-8.008423E-3,-3.137764E-3,-5.550581E-3,1.6378257E-3,1.1872923E-3,5.8731516E-3,3.9086365E-3,-5.787775E-3,-8.761459E-3,-5.131827E-4,5.508982E-3,8.492422E-3,8.765707E-3,1.320472E-2],"categories":[],"categories_nodes":[],"categories_segments":[],"categories_sizes":[],"default_left":[1,1,1,1,0,0,0,0,0,0,0,0,1,0,0,0,0,0,0,0,0,0,0,0,0,0,0,0,0,0,0],"id":14,"left_children":[1,3,5,7,9,11,13,15,17,19,21,23,25,27,29,-1,-1,-1,-1,-1,-1,-1,-1,-1,-1,-1,-1,-1,-1,-1,-1],"loss_changes":[8.97917E3,1.9064922E3,1.7447695E3,9.818237E2,2.7122806E2,3.2118585E2,5.02458E2,1.5025049E2,6.044043E2,7.966347E1,1.3941066E2,1.0856596E2,2.0505554E2,1.13116455E2,5.5930176E1,0E0,0E0,0E0,0E0,0E0,0E0,0E0,0E0,0E0,0E0,0E0,0E0,0E0,0E0,0E0,0E0],"parents":[2147483647,0,0,1,1,2,2,3,3,4,4,5,5,6,6,7,7,8,8,9,9,10,10,11,11,12,12,13,13,14,14],"right_children":[2,4,6,8,10,12,14,16,18,20,22,24,26,28,30,-1,-1,-1,-1,-1,-1,-1,-1,-1,-1,-1,-1,-1,-1,-1,-1],"split_conditions":[2.146771E0,1.2068402E1,1.039289E1,2.6263158E0,4.1008022E-1,-3.5000038E-1,1.3274554E1,-1.8726921E0,6.9362634E-1,5.553707E1,-2.2348976E-1,7.132349E1,6.176372E0,4.004803E0,1.8655148E1,-4.5310124E-3,-1.4310855E-2,-8.008423E-3,-3.137764E-3,-5.550581E-3,1.6378257E-3,1.1872923E-3,5.8731516E-3,3.9086365E-3,-5.787775E-3,-8.761459E-3,-5.131827E-4,5.508982E-3,8.492422E-3,8.765707E-3,1.320472E-2],"split_indices":[2,3,3,3,2,20,2,20,2,12,20,12,3,2,3,0,0,0,0,0,0,0,0,0,0,0,0,0,0,0,0],"split_type":[0,0,0,0,0,0,0,0,0,0,0,0,0,0,0,0,0,0,0,0,0,0,0,0,0,0,0,0,0,0,0],"sum_hessian":[3.505706E4,2.0723197E4,1.4333862E4,1.5571337E4,5.1518594E3,3.6462441E3,1.0687618E4,2.445172E3,1.3126165E4,1.0975844E3,4.0542751E3,1.9972677E3,1.6489766E3,7.1687104E3,3.5189075E3,2.2451546E2,2.2206567E3,6.5924604E3,6.533704E3,8.387475E2,2.5883685E2,2.9189148E3,1.1353602E3,1.8366531E3,1.6061465E2,6.238235E2,1.0251531E3,2.558211E3,4.6104995E3,4.2792548E2,3.0909822E3],"tree_param":{"num_deleted":"0","num_feature":"23","num_nodes":"31","size_leaf_vector":"1"}},{"base_weights":[9.830864E-3,-1.6929044E-1,6.6725874E-1,2.147804E-1,-3.208137E-1,3.705194E-1,9.4805074E-1,6.753533E-1,1.0771414E-1,-3.677681E-1,4.1627556E-1,7.2981346E-1,1.5392731E-1,6.7389524E-1,1.1071239E0,1.3613264E-2,6.5760645E-3,5.9366E-3,3.2826606E-4,-1.4992363E-3,-5.4770214E-3,7.3234322E-3,2.3437213E-4,-2.1567686E-2,8.619397E-3,-5.29275E-4,6.150957E-3,1.0091983E-2,2.5834765E-3,1.2650134E-2,-1.992691E-2],"categories":[],"categories_nodes":[],"categories_segments":[],"categories_sizes":[],"default_left":[1,0,1,0,1,0,0,0,0,0,0,0,0,0,0,0,0,0,0,0,0,0,0,0,0,0,0,0,0,0,0],"id":15,"left_children":[1,3,5,7,9,11,13,15,17,19,21,23,25,27,29,-1,-1,-1,-1,-1,-1,-1,-1,-1,-1,-1,-1,-1,-1,-1,-1],"loss_changes":[4.1722285E3,1.6204445E3,6.3150415E2,3.8823953E2,6.9120703E2,2.8692816E2,1.688335E2,7.3539246E1,2.0917621E2,5.083252E2,1.0832701E2,1.10448E2,1.7952101E2,1.3753955E2,5.72417E1,0E0,0E0,0E0,0E0,0E0,0E0,0E0,0E0,0E0,0E0,0E0,0E0,0E0,0E0,0E0,0E0],"parents":[2147483647,0,0,1,1,2,2,3,3,4,4,5,5,6,6,7,7,8,8,9,9,10,10,11,11,12,12,13,13,14,14],"right_children":[2,4,6,8,10,12,14,16,18,20,22,24,26,28,30,-1,-1,-1,-1,-1,-1,-1,-1,-1,-1,-1,-1,-1,-1,-1,-1],"split_conditions":[2.6246595E-1,-7.700013E0,5.7575752E1,6.936116E0,-2.8537932E-1,1.2063795E1,4.1450092E-1,-3.4617233E-1,-2.3720016E0,-7.7285194E-1,-3.899994E-1,2.8033997E1,4.5984927E-1,2.8904318E1,3.7255466E2,1.3613264E-2,6.5760645E-3,5.9366E-3,3.2826606E-4,-1.4992363E-3,-5.4770214E-3,7.3234322E-3,2.3437213E-4,-2.1567686E-2,8.619397E-3,-5.29275E-4,6.150957E-3,1.0091983E-2,2.5834765E-3,1.2650134E-2,-1.992691E-2],"split_indices":[17,14,12,1,14,1,17,20,20,20,20,12,17,1,1,0,0,0,0,0,0,0,0,0,0,0,0,0,0,0,0],"split_type":[0,0,0,0,0,0,0,0,0,0,0,0,0,0,0,0,0,0,0,0,0,0,0,0,0,0,0,0,0,0,0],"sum_hessian":[3.5427273E4,2.784206E4,7.5852144E3,7.8762744E3,1.9965785E4,3.6894087E3,3.8958057E3,1.4842054E3,6.392069E3,1.8770812E4,1.1949738E3,1.3863285E3,2.3030803E3,1.4329613E3,2.4628445E3,2.2691911E2,1.2572864E3,1.0174438E3,5.374625E3,6.156299E3,1.2614514E4,7.559348E2,4.3903894E2,1.4729799E1,1.3715986E3,1.518861E3,7.842194E2,9.6517E2,4.6779135E2,2.4568633E3,5.98113E0],"tree_param":{"num_deleted":"0","num_feature":"23","num_nodes":"31","size_leaf_vector":"1"}},{"base_weights":[-6.763355E-3,-4.711835E-1,4.9591E-1,-7.1909446E-1,-3.7318166E-2,-1.6969731E-1,6.6931015E-1,-1.327308E0,-5.99016E-1,-3.8822463E-1,5.4302987E-2,6.480216E-1,-3.1136116E-1,4.815985E-1,1.0089045E0,-6.9617587E-3,-1.6031517E-2,-9.605619E-3,-4.9083633E-3,-3.3720976E-3,-1.5481109E-2,3.9492585E-3,-9.95811E-4,4.2983657E-3,1.4441432E-2,-9.269425E-3,-1.9445048E-3,7.015523E-3,4.2802077E-3,2.999998E-3,1.1671957E-2],"categories":[],"categories_nodes":[],"categories_segments":[],"categories_sizes":[],"default_left":[0,0,0,0,0,0,0,0,0,0,0,0,0,0,0,0,0,0,0,0,0,0,0,0,0,0,0,0,0,0,0],"id":16,"left_children":[1,3,5,7,9,11,13,15,17,19,21,23,25,27,29,-1,-1,-1,-1,-1,-1,-1,-1,-1,-1,-1,-1,-1,-1,-1,-1],"loss_changes":[8.200551E3,1.9637415E3,1.9471455E3,8.473833E2,2.13579E2,4.0410733E2,8.523252E2,1.157688E2,3.9927148E2,1.21491714E2,2.1987769E2,8.582651E1,2.101022E2,1.2258972E2,6.979443E1,0E0,0E0,0E0,0E0,0E0,0E0,0E0,0E0,0E0,0E0,0E0,0E0,0E0,0E0,0E0,0E0],"parents":[2147483647,0,0,1,1,2,2,3,3,4,4,5,5,6,6,7,7,8,8,9,9,10,10,11,11,12,12,13,13,14,14],"right_children":[2,4,6,8,10,12,14,16,18,20,22,24,26,28,30,-1,-1,-1,-1,-1,-1,-1,-1,-1,-1,-1,-1,-1,-1,-1,-1],"split_conditions":[1.6135958E0,1.1375666E1,9.810127E0,5.357139E0,2.9000047E-1,-7.8369904E0,9.943354E0,6.4866084E-1,4.5460328E-1,-5.3838725E0,4.938252E-1,5.9941316E0,6.2601166E0,-8.238641E0,1.27E4,-6.9617587E-3,-1.6031517E-2,-9.605619E-3,-4.9083633E-3,-3.3720976E-3,-1.5481109E-2,3.9492585E-3,-9.95811E-4,4.2983657E-3,1.4441432E-2,-9.269425E-3,-1.9445048E-3,7.015523E-3,4.2802077E-3,2.999998E-3,1.1671957E-2],"split_indices":[2,10,10,10,2,14,2,11,2,14,5,2,10,14,0,0,0,0,0,0,0,0,0,0,0,0,0,0,0,0,0],"split_type":[0,0,0,0,0,0,0,0,0,0,0,0,0,0,0,0,0,0,0,0,0,0,0,0,0,0,0,0,0,0,0],"sum_hessian":[3.512522E4,1.82575E4,1.6867719E4,1.1617915E4,6.6395854E3,3.4859114E3,1.3381808E4,1.9134718E3,9.704443E3,1.3742937E3,5.2652915E3,5.139824E2,2.971929E3,8.6201455E3,4.7616616E3,2.062197E2,1.7072521E3,3.8984688E3,5.805974E3,1.2585596E3,1.15734146E2,1.7161665E3,3.5491252E3,3.6064377E2,1.5333862E2,6.429634E2,2.3289656E3,3.728231E3,4.8919146E3,1.2414975E2,4.6375117E3],"tree_param":{"num_deleted":"0","num_feature":"23","num_nodes":"31","size_leaf_vector":"1"}},{"base_weights":[-2.3562033E-3,-6.9713295E-1,3.0402747E-1,-1.0733923E0,-4.5290875E-1,1.8036237E-1,8.1617296E-1,-1.5347309E0,-9.448508E-1,-5.05198E-1,6.593628E-1,2.5661353E-2,5.5765986E-1,5.567444E-1,1.0845703E0,-5.2470313E-3,-1.8286765E-2,-1.3162419E-2,-6.142314E-3,-7.213959E-3,-1.7069709E-3,1.1506327E-2,4.381339E-3,-5.617585E-4,5.99098E-3,3.975301E-3,9.290609E-3,5.330527E-3,1.0041669E-2,1.055554E-3,1.2538183E-2],"categories":[],"categories_nodes":[],"categories_segments":[],"categories_sizes":[],"default_left":[0,0,0,0,0,0,0,0,0,0,0,0,0,1,1,0,0,0,0,0,0,0,0,0,0,0,0,0,0,0,0],"id":17,"left_children":[1,3,5,7,9,11,13,15,17,19,21,23,25,27,29,-1,-1,-1,-1,-1,-1,-1,-1,-1,-1,-1,-1,-1,-1,-1,-1],"loss_changes":[7.4594688E3,9.846719E2,1.5398584E3,2.482456E2,3.7868604E2,1.1433247E3,3.283684E2,7.460669E1,2.8593774E2,2.8770215E2,2.7682686E1,5.2483826E2,3.078944E2,6.8023315E1,4.69292E1,0E0,0E0,0E0,0E0,0E0,0E0,0E0,0E0,0E0,0E0,0E0,0E0,0E0,0E0,0E0,0E0],"parents":[2147483647,0,0,1,1,2,2,3,3,4,4,5,5,6,6,7,7,8,8,9,9,10,10,11,11,12,12,13,13,14,14],"right_children":[2,4,6,8,10,12,14,16,18,20,22,24,26,28,30,-1,-1,-1,-1,-1,-1,-1,-1,-1,-1,-1,-1,-1,-1,-1,-1],"split_conditions":[2.1821225E0,1.6489658E0,3.6164445E-1,1.2012126E0,3.4310418E-1,3.98138E0,6.0655724E1,3E-1,6.035972E1,7.692311E-1,8.568193E-1,6.866903E1,5.678776E1,7.994389E-1,7.480067E-1,-5.2470313E-3,-1.8286765E-2,-1.3162419E-2,-6.142314E-3,-7.213959E-3,-1.7069709E-3,1.1506327E-2,4.381339E-3,-5.617585E-4,5.99098E-3,3.975301E-3,9.290609E-3,5.330527E-3,1.0041669E-2,1.055554E-3,1.2538183E-2],"split_indices":[8,8,17,8,17,8,12,16,12,22,9,12,12,17,9,0,0,0,0,0,0,0,0,0,0,0,0,0,0,0,0],"split_type":[0,0,0,0,0,0,0,0,0,0,0,0,0,0,0,0,0,0,0,0,0,0,0,0,0,0,0,0,0,0,0],"sum_hessian":[3.5040152E4,1.07230205E4,2.4317133E4,4.218876E3,6.5041445E3,1.958891E4,4.728222E3,9.1643494E2,3.3024412E3,6.212821E3,2.9132346E2,1.3893751E4,5.69516E3,2.4063154E3,2.3219065E3,6.2068256E1,8.543667E2,2.1519644E3,1.1504768E3,4.5398955E3,1.6729253E3,1.2518065E2,1.661428E2,1.2085907E4,1.8078435E3,3.1769868E3,2.5181733E3,1.9050685E3,5.0124713E2,4.7337463E1,2.274569E3],"tree_param":{"num_deleted":"0","num_feature":"23","num_nodes":"31","size_leaf_vector":"1"}},{"base_weights":[8.390706E-3,-7.887E-1,3.966774E-1,-1.3570535E0,-5.564375E-1,-1.1005793E-2,7.2742355E-1,-1.6112827E0,-1.0739963E0,-7.896839E-1,-1.6188097E-1,4.488554E-1,-1.0068086E-1,6.130169E-1,1.0540568E0,-1.1425701E-2,-1.8810034E-2,-1.4169132E-2,-5.5620247E-3,1.5500493E-3,-9.31251E-3,-1.2146503E-3,-1.6334556E-2,-1.0234095E-3,6.6546635E-3,-2.8302807E-3,1.450449E-3,1.0713437E-2,6.365347E-3,8.156559E-3,1.2851417E-2],"categories":[],"categories_nodes":[],"categories_segments":[],"categories_sizes":[],"default_left":[1,1,0,1,0,0,0,0,0,0,0,0,0,0,0,0,0,0,0,0,0,0,0,0,0,0,0,0,0,0,0],"id":18,"left_children":[1,3,5,7,9,11,13,15,17,19,21,23,25,27,29,-1,-1,-1,-1,-1,-1,-1,-1,-1,-1,-1,-1,-1,-1,-1,-1],"loss_changes":[1.0908561E4,1.5229004E3,3.195934E3,2.38604E2,7.541511E2,4.3779993E2,4.880005E2,4.7301758E1,1.6110925E2,1.486123E2,2.1306549E2,1.2869775E2,3.021313E2,1.6612085E2,8.820337E1,0E0,0E0,0E0,0E0,0E0,0E0,0E0,0E0,0E0,0E0,0E0,0E0,0E0,0E0,0E0,0E0],"parents":[2147483647,0,0,1,1,2,2,3,3,4,4,5,5,6,6,7,7,8,8,9,9,10,10,11,11,12,12,13,13,14,14],"right_children":[2,4,6,8,10,12,14,16,18,20,22,24,26,28,30,-1,-1,-1,-1,-1,-1,-1,-1,-1,-1,-1,-1,-1,-1,-1,-1],"split_conditions":[1.0531196E1,5.561807E0,1.8658956E0,4.254631E0,1.354128E0,8.616136E0,1.3274554E1,7.3703104E-1,6.484731E1,4.14E4,7.3971624E0,3.6637923E-1,1.8345266E1,5.6519E0,2.5162659E1,-1.1425701E-2,-1.8810034E-2,-1.4169132E-2,-5.5620247E-3,1.5500493E-3,-9.31251E-3,-1.2146503E-3,-1.6334556E-2,-1.0234095E-3,6.6546635E-3,-2.8302807E-3,1.450449E-3,1.0713437E-2,6.365347E-3,8.156559E-3,1.2851417E-2],"split_indices":[4,4,2,4,2,1,2,9,1,0,2,2,4,1,4,0,0,0,0,0,0,0,0,0,0,0,0,0,0,0,0],"split_type":[0,0,0,0,0,0,0,0,0,0,0,0,0,0,0,0,0,0,0,0,0,0,0,0,0,0,0,0,0,0,0],"sum_hessian":[3.5243773E4,1.1544073E4,2.36997E4,3.347237E3,8.196837E3,1.0615468E4,1.3084232E4,1.7603862E3,1.5868508E3,5.1505273E3,3.046309E3,1.7312474E3,8.884221E3,9.692877E3,3.3913557E3,1.2802364E2,1.6323627E3,1.2199597E3,3.6689105E2,1.6698257E2,4.983545E3,2.92225E3,1.240591E2,3.5202728E2,1.3792202E3,5.381404E3,3.5028167E3,1.3120708E3,8.380806E3,6.4695404E2,2.7444016E3],"tree_param":{"num_deleted":"0","num_feature":"23","num_nodes":"31","size_leaf_vector":"1"}},{"base_weights":[-5.7435166E-3,-7.1312785E-1,2.9246724E-1,-1.1003262E0,-5.4528886E-1,1.2802227E-1,6.122368E-1,-1.4918078E0,-9.358647E-1,-6.019017E-1,2.5301555E-1,4.8478026E-2,6.594385E-1,4.9399796E-1,1.0717154E0,-8.546598E-3,-1.8677026E-2,-1.1608787E-2,-3.1696565E-3,4.4418876E-3,-7.2512086E-3,1.0072817E-2,7.090247E-4,-1.295736E-3,2.1576374E-3,4.2833984E-3,9.298146E-3,7.706189E-3,4.0855035E-3,1.4976277E-2,1.0686825E-2],"categories":[],"categories_nodes":[],"categories_segments":[],"categories_sizes":[],"default_left":[0,0,0,0,0,1,1,0,0,0,0,0,0,0,0,0,0,0,0,0,0,0,0,0,0,0,0,0,0,0,0],"id":19,"left_children":[1,3,5,7,9,11,13,15,17,19,21,23,25,27,29,-1,-1,-1,-1,-1,-1,-1,-1,-1,-1,-1,-1,-1,-1,-1,-1],"loss_changes":[7.372426E3,6.72605E2,1.292544E3,1.9975659E2,3.2709717E2,6.862003E2,4.5271826E2,1.0362134E2,1.2608679E2,2.4990405E2,5.7777603E1,3.2560565E2,9.48432E1,1.6429407E2,5.3281372E1,0E0,0E0,0E0,0E0,0E0,0E0,0E0,0E0,0E0,0E0,0E0,0E0,0E0,0E0,0E0,0E0],"parents":[2147483647,0,0,1,1,2,2,3,3,4,4,5,5,6,6,7,7,8,8,9,9,10,10,11,11,12,12,13,13,14,14],"right_children":[2,4,6,8,10,12,14,16,18,20,22,24,26,28,30,-1,-1,-1,-1,-1,-1,-1,-1,-1,-1,-1,-1,-1,-1,-1,-1],"split_conditions":[2.1547177E0,1.5263566E0,3.98138E0,1.2012126E0,-4.0808374E-1,-2.0617394E0,-4.884338E0,1.09614E5,-1.0294925E0,-1.1105107E1,3.06384E5,2.7900052E0,2.5851107E0,6.7791265E-1,5.099997E-1,-8.546598E-3,-1.8677026E-2,-1.1608787E-2,-3.1696565E-3,4.4418876E-3,-7.2512086E-3,1.0072817E-2,7.090247E-4,-1.295736E-3,2.1576374E-3,4.2833984E-3,9.298146E-3,7.706189E-3,4.0855035E-3,1.4976277E-2,1.0686825E-2],"split_indices":[8,8,8,8,14,14,14,6,14,14,6,8,8,5,5,0,0,0,0,0,0,0,0,0,0,0,0,0,0,0,0],"split_type":[0,0,0,0,0,0,0,0,0,0,0,0,0,0,0,0,0,0,0,0,0,0,0,0,0,0,0,0,0,0,0],"sum_hessian":[3.494623E4,1.0363066E4,2.4583166E4,3.1315642E3,7.231502E3,1.6235789E4,8.347377E3,9.23466E2,2.2080984E3,6.7530747E3,4.7842706E2,1.4123278E4,2.1125107E3,6.6410596E3,1.7063171E3,1.6092372E2,7.6254224E2,1.9481702E3,2.5992816E2,2.4321036E2,6.5098643E3,1.09317726E2,3.6910934E2,6.574203E3,7.549075E3,7.6679517E2,1.3457156E3,2.7844475E3,3.856612E3,5.81974E2,1.1243431E3],"tree_param":{"num_deleted":"0","num_feature":"23","num_nodes":"31","size_leaf_vector":"1"}},{"base_weights":[6.2434394E-3,-7.2164196E-1,3.994107E-1,-1.2224915E0,-4.8542187E-1,1.4640754E-1,6.8179935E-1,-8.2257026E-1,-1.4485159E0,-1.6225088E-1,-8.09833E-1,3.7473765E-1,-1.6957806E-2,5.6762934E-1,9.604922E-1,-1.5305796E-2,-4.864192E-3,-1.4864892E-2,-1.9847427E-2,2.5572653E-3,-3.0869513E-3,-1.5071852E-2,-8.021072E-3,6.8835504E-3,2.8760196E-3,2.532708E-3,-9.7537E-4,7.7337464E-3,3.3970478E-3,1.4612306E-2,9.601493E-3],"categories":[],"categories_nodes":[],"categories_segments":[],"categories_sizes":[],"default_left":[1,1,0,0,0,0,0,0,0,0,0,0,0,0,0,0,0,0,0,0,0,0,0,0,0,0,0,0,0,0,0],"id":20,"left_children":[1,3,5,7,9,11,13,15,17,19,21,23,25,27,29,-1,-1,-1,-1,-1,-1,-1,-1,-1,-1,-1,-1,-1,-1,-1,-1],"loss_changes":[1.0056527E4,1.4571436E3,1.6298867E3,3.552505E2,8.778883E2,4.4902783E2,3.4219873E2,2.9529413E2,1.01899414E2,1.7878891E2,2.2161206E2,1.4089264E2,1.163004E2,2.3357617E2,1.15565674E2,0E0,0E0,0E0,0E0,0E0,0E0,0E0,0E0,0E0,0E0,0E0,0E0,0E0,0E0,0E0,0E0],"parents":[2147483647,0,0,1,1,2,2,3,3,4,4,5,5,6,6,7,7,8,8,9,9,10,10,11,11,12,12,13,13,14,14],"right_children":[2,4,6,8,10,12,14,16,18,20,22,24,26,28,30,-1,-1,-1,-1,-1,-1,-1,-1,-1,-1,-1,-1,-1,-1,-1,-1],"split_conditions":[1.0975754E1,5.9521585E0,2.0882122E1,-6.2968082E0,-4.884338E0,1.94775E1,-3.805818E0,4.254631E0,-2.9626372E0,-1.1425636E1,6.896948E0,-7.8369904E0,7.5671583E-1,2.985737E1,8.442594E0,-1.5305796E-2,-4.864192E-3,-1.4864892E-2,-1.9847427E-2,2.5572653E-3,-3.0869513E-3,-1.5071852E-2,-8.021072E-3,6.8835504E-3,2.8760196E-3,2.532708E-3,-9.7537E-4,7.7337464E-3,3.3970478E-3,1.4612306E-2,9.601493E-3],"split_indices":[4,4,4,14,14,1,14,4,14,14,4,14,11,1,1,0,0,0,0,0,0,0,0,0,0,0,0,0,0,0,0],"split_type":[0,0,0,0,0,0,0,0,0,0,0,0,0,0,0,0,0,0,0,0,0,0,0,0,0,0,0,0,0,0,0],"sum_hessian":[3.5138453E4,1.2323028E4,2.2815424E4,3.947654E3,8.375374E3,1.2035024E4,1.07804E4,1.4275774E3,2.5200767E3,4.1967876E3,4.1785864E3,5.0192983E3,7.015726E3,7.650296E3,3.1301047E3,6.096336E2,8.179438E2,1.7304592E3,7.8961743E2,9.259291E2,3.2708586E3,6.893307E2,3.4892559E3,1.7210894E3,3.298209E3,1.56476E3,5.450966E3,5.36693E3,2.2833655E3,8.0640643E2,2.3236982E3],"tree_param":{"num_deleted":"0","num_feature":"23","num_nodes":"31","size_leaf_vector":"1"}},{"base_weights":[1.5959112E-2,-1.516117E-1,3.0338734E-1,-2.506185E-1,5.665195E-2,1.3971168E-1,5.1462495E-1,-3.0764613E-1,7.123212E-2,-3.6912173E-1,1.5291688E-1,6.961676E-3,3.849704E-1,3.7675557E-1,7.485671E-1,1.322308E-3,-3.7894417E-3,1.664181E-3,-9.569666E-3,-6.604758E-3,-4.939167E-4,1.1117272E-3,6.631101E-3,3.1956004E-3,-5.936886E-4,3.343166E-3,9.743155E-3,3.5260206E-3,8.635201E-3,5.6566503E-3,1.0769539E-2],"categories":[],"categories_nodes":[],"categories_segments":[],"categories_sizes":[],"default_left":[1,0,0,0,0,1,0,0,0,0,0,0,0,0,0,0,0,0,0,0,0,0,0,0,0,0,0,0,0,0,0],"id":21,"left_children":[1,3,5,7,9,11,13,15,17,19,21,23,25,27,29,-1,-1,-1,-1,-1,-1,-1,-1,-1,-1,-1,-1,-1,-1,-1,-1],"loss_changes":[1.7006417E3,4.599547E2,4.494209E2,2.7755188E2,2.9460822E2,2.3854529E2,1.8258582E2,1.4360364E2,1.5708453E2,9.178377E1,1.3880605E2,7.751854E1,1.096366E2,9.020041E1,1.0473718E2,0E0,0E0,0E0,0E0,0E0,0E0,0E0,0E0,0E0,0E0,0E0,0E0,0E0,0E0,0E0,0E0],"parents":[2147483647,0,0,1,1,2,2,3,3,4,4,5,5,6,6,7,7,8,8,9,9,10,10,11,11,12,12,13,13,14,14],"right_children":[2,4,6,8,10,12,14,16,18,20,22,24,26,28,30,-1,-1,-1,-1,-1,-1,-1,-1,-1,-1,-1,-1,-1,-1,-1,-1],"split_conditions":[5.919235E1,8.3251196E-1,6.866903E1,1.4747684E0,4.2963547E1,1.168485E0,1.2265785E0,-3.801771E-1,8.306788E-1,6.8783087E-1,8.5223526E-1,-1.3199997E0,3.2060788E0,2.6707077E-1,7.549709E1,1.322308E-3,-3.7894417E-3,1.664181E-3,-9.569666E-3,-6.604758E-3,-4.939167E-4,1.1117272E-3,6.631101E-3,3.1956004E-3,-5.936886E-4,3.343166E-3,9.743155E-3,3.5260206E-3,8.635201E-3,5.6566503E-3,1.0769539E-2],"split_indices":[12,18,12,7,12,7,7,22,18,22,18,20,7,20,12,0,0,0,0,0,0,0,0,0,0,0,0,0,0,0,0],"split_type":[0,0,0,0,0,0,0,0,0,0,0,0,0,0,0,0,0,0,0,0,0,0,0,0,0,0,0,0,0,0,0],"sum_hessian":[3.5306297E4,2.2303371E4,1.3002926E4,1.5117298E4,7.1860737E3,7.327714E3,5.6752114E3,1.2842358E4,2.2749387E3,1.3242365E3,5.8618374E3,4.755518E3,2.5721958E3,3.573068E3,2.102143E3,7.503504E2,1.2092009E4,2.102616E3,1.7232289E2,7.996983E2,5.2453815E2,5.20144E3,6.603975E2,8.439562E2,3.911562E3,2.162157E3,4.1003894E2,3.0515818E3,5.2148645E2,9.3797516E2,1.164168E3],"tree_param":{"num_deleted":"0","num_feature":"23","num_nodes":"31","size_leaf_vector":"1"}},{"base_weights":[-6.5008644E-4,-4.3071824E-1,5.265985E-1,-9.847216E-1,-2.0208481E-1,-2.9859614E-1,6.565544E-1,-1.1828121E0,-7.4178225E-1,-3.8448796E-1,-4.8117335E-3,-7.238108E-1,-1.9015243E-2,5.111954E-1,1.0109735E0,-1.6042424E-2,-9.964274E-3,-8.7496815E-3,8.434946E-3,-6.044221E-3,-9.958014E-4,-1.1136234E-3,2.9759242E-3,-1.5589162E-2,-4.834314E-3,-1.9660047E-3,7.7327094E-3,3.6804306E-3,6.8563386E-3,1.17607275E-2,5.873144E-3],"categories":[],"categories_nodes":[],"categories_segments":[],"categories_sizes":[],"default_left":[1,0,0,0,0,0,0,0,0,0,0,0,0,0,0,0,0,0,0,0,0,0,0,0,0,0,0,0,0,0,0],"id":22,"left_children":[1,3,5,7,9,11,13,15,17,19,21,23,25,27,29,-1,-1,-1,-1,-1,-1,-1,-1,-1,-1,-1,-1,-1,-1,-1,-1],"loss_changes":[7.9538945E3,2.4466406E3,1.6901592E3,2.702964E2,4.9208112E2,2.5481828E2,7.005801E2,2.1693457E2,1.1141992E2,3.1239148E2,1.6385583E2,1.6368958E2,1.4002284E2,1.6760059E2,4.9111572E1,0E0,0E0,0E0,0E0,0E0,0E0,0E0,0E0,0E0,0E0,0E0,0E0,0E0,0E0,0E0,0E0],"parents":[2147483647,0,0,1,1,2,2,3,3,4,4,5,5,6,6,7,7,8,8,9,9,10,10,11,11,12,12,13,13,14,14],"right_children":[2,4,6,8,10,12,14,16,18,20,22,24,26,28,30,-1,-1,-1,-1,-1,-1,-1,-1,-1,-1,-1,-1,-1,-1,-1,-1],"split_conditions":[1.8374763E0,1.9190155E0,2.0338066E0,5.7513195E-1,2.8471518E0,1.6397473E0,1.1353314E1,6.3973045E0,9.9247956E-1,9.7498757E-1,4.5656013E0,5.883622E0,9.57822E0,2.8782172E0,4.8135877E-1,-1.6042424E-2,-9.964274E-3,-8.7496815E-3,8.434946E-3,-6.044221E-3,-9.958014E-4,-1.1136234E-3,2.9759242E-3,-1.5589162E-2,-4.834314E-3,-1.9660047E-3,7.7327094E-3,3.6804306E-3,6.8563386E-3,1.17607275E-2,5.873144E-3],"split_indices":[2,8,8,2,8,8,2,10,22,2,8,10,2,8,19,0,0,0,0,0,0,0,0,0,0,0,0,0,0,0,0],"split_type":[0,0,0,0,0,0,0,0,0,0,0,0,0,0,0,0,0,0,0,0,0,0,0,0,0,0,0,0,0,0,0],"sum_hessian":[3.507524E4,1.9318205E4,1.5757034E4,5.642196E3,1.3676009E4,2.1435044E3,1.361353E4,3.1052585E3,2.5369375E3,7.104839E3,6.57117E3,8.493663E2,1.2941381E3,9.656312E3,3.957218E3,1.7629747E3,1.3422838E3,2.4883389E3,4.859862E1,4.7369736E3,2.3678652E3,4.8704697E3,1.7007002E3,2.6535513E2,5.8401117E2,1.0614655E3,2.3267258E2,3.2140024E3,6.4423096E3,3.760656E3,1.965621E2],"tree_param":{"num_deleted":"0","num_feature":"23","num_nodes":"31","size_leaf_vector":"1"}},{"base_weights":[2.7946571E-3,-7.597868E-1,3.7029144E-1,-1.5540457E0,-6.166067E-1,8.5813075E-2,6.0749537E-1,-1.4260849E0,-1.7119372E0,-8.7831384E-1,-4.380559E-1,4.5009896E-2,6.0183257E-1,4.443677E-1,8.143125E-1,-1.6810318E-2,2.8555077E-3,-1.9716466E-2,-1.3500846E-2,-7.968705E-3,-1.3534847E-2,-2.5354987E-3,-7.930745E-3,6.1104978E-3,9.543916E-5,-2.1135751E-2,7.300429E-3,4.48402E-3,8.901749E-3,8.03952E-3,1.1224035E-2],"categories":[],"categories_nodes":[],"categories_segments":[],"categories_sizes":[],"default_left":[1,1,0,0,0,0,0,0,0,0,0,0,0,0,0,0,0,0,0,0,0,0,0,0,0,0,0,0,0,0,0],"id":23,"left_children":[1,3,5,7,9,11,13,15,17,19,21,23,25,27,29,-1,-1,-1,-1,-1,-1,-1,-1,-1,-1,-1,-1,-1,-1,-1,-1],"loss_changes":[9.850122E3,1.2984253E3,1.6003308E3,3.204834E1,4.519773E2,2.2696857E2,4.3573584E2,9.1068115E1,7.6848145E0,2.1616992E2,3.2222083E2,1.80486E2,8.213382E1,1.2043616E2,1.0440503E2,0E0,0E0,0E0,0E0,0E0,0E0,0E0,0E0,0E0,0E0,0E0,0E0,0E0,0E0,0E0,0E0],"parents":[2147483647,0,0,1,1,2,2,3,3,4,4,5,5,6,6,7,7,8,8,9,9,10,10,11,11,12,12,13,13,14,14],"right_children":[2,4,6,8,10,12,14,16,18,20,22,24,26,28,30,-1,-1,-1,-1,-1,-1,-1,-1,-1,-1,-1,-1,-1,-1,-1,-1],"split_conditions":[1.0447088E1,4.254631E0,1.8345266E1,-1.5953255E-1,7.0841684E0,2.222804E0,2.3433647E1,-1.6628456E-1,9.1037464E-1,4.1468725E0,6.1191187E0,5.7998805E0,-1.0419998E1,-1.759553E-2,-1.7257977E-1,-1.6810318E-2,2.8555077E-3,-1.9716466E-2,-1.3500846E-2,-7.968705E-3,-1.3534847E-2,-2.5354987E-3,-7.930745E-3,6.1104978E-3,9.543916E-5,-2.1135751E-2,7.300429E-3,4.48402E-3,8.901749E-3,8.03952E-3,1.1224035E-2],"split_indices":[4,4,4,20,4,7,3,20,22,3,3,3,20,20,20,0,0,0,0,0,0,0,0,0,0,0,0,0,0,0,0],"split_type":[0,0,0,0,0,0,0,0,0,0,0,0,0,0,0,0,0,0,0,0,0,0,0,0,0,0,0,0,0,0,0],"sum_hessian":[3.5146117E4,1.1428845E4,2.3717271E4,1.743755E3,9.68509E3,1.0785013E4,1.2932259E4,9.6985126E2,7.7390375E2,3.9257566E3,5.7593325E3,9.996106E3,7.889059E2,7.232144E3,5.7001147E3,9.390003E2,3.0850973E1,7.3469073E2,3.9213043E1,2.5201821E3,1.4055747E3,3.1618347E3,2.597498E3,6.887153E2,9.307392E3,1.2229919E1,7.7667596E2,6.321554E3,9.1059015E2,3.5568787E3,2.1432363E3],"tree_param":{"num_deleted":"0","num_feature":"23","num_nodes":"31","size_leaf_vector":"1"}},{"base_weights":[-1.113106E-2,-4.8623452E-1,4.2908865E-1,-1.0681294E0,-2.344173E-1,2.1377802E-1,8.05372E-1,-1.3138546E0,-7.870396E-1,-5.950762E-1,-1.2842318E-1,-1.6087765E-1,3.099077E-1,1.774441E-1,8.521542E-1,-8.289765E-3,-1.5547493E-2,-1.1499204E-2,-4.7550383E-3,-2.9891368E-3,-8.187733E-3,-3.1031112E-3,1.4363034E-3,-4.0200627E-3,1.422281E-3,-2.1187675E-3,4.058965E-3,2.9028822E-3,-2.222567E-2,7.537722E-3,1.0614451E-2],"categories":[],"categories_nodes":[],"categories_segments":[],"categories_sizes":[],"default_left":[1,0,0,0,1,0,0,0,0,0,0,0,0,0,0,0,0,0,0,0,0,0,0,0,0,0,0,0,0,0,0],"id":24,"left_children":[1,3,5,7,9,11,13,15,17,19,21,23,25,27,29,-1,-1,-1,-1,-1,-1,-1,-1,-1,-1,-1,-1,-1,-1,-1,-1],"loss_changes":[7.3031367E3,2.4603352E3,1.4680342E3,3.488413E2,4.479408E2,4.1532867E2,1.9341748E2,8.759375E1,1.966831E2,1.1136273E2,3.3532565E2,1.3045943E2,2.1811487E2,7.715194E1,9.515576E1,0E0,0E0,0E0,0E0,0E0,0E0,0E0,0E0,0E0,0E0,0E0,0E0,0E0,0E0,0E0,0E0],"parents":[2147483647,0,0,1,1,2,2,3,3,4,4,5,5,6,6,7,7,8,8,9,9,10,10,11,11,12,12,13,13,14,14],"right_children":[2,4,6,8,10,12,14,16,18,20,22,24,26,28,30,-1,-1,-1,-1,-1,-1,-1,-1,-1,-1,-1,-1,-1,-1,-1,-1],"split_conditions":[9.820229E0,1.8226964E0,2.165403E1,5.169893E0,3.6321971E0,2.1821225E0,1E0,7.3104674E-1,1.6397473E0,2.5902066E-1,2.9268508E0,-1.620121E-1,1E0,6.291332E-1,2.7089273E1,-8.289765E-3,-1.5547493E-2,-1.1499204E-2,-4.7550383E-3,-2.9891368E-3,-8.187733E-3,-3.1031112E-3,1.4363034E-3,-4.0200627E-3,1.422281E-3,-2.1187675E-3,4.058965E-3,2.9028822E-3,-2.222567E-2,7.537722E-3,1.0614451E-2],"split_indices":[3,8,3,3,3,8,13,9,8,22,8,20,13,19,3,0,0,0,0,0,0,0,0,0,0,0,0,0,0,0,0],"split_type":[0,0,0,0,0,0,0,0,0,0,0,0,0,0,0,0,0,0,0,0,0,0,0,0,0,0,0,0,0,0,0],"sum_hessian":[3.491594E4,1.6792756E4,1.8123186E4,5.0708647E3,1.1721892E4,1.1528629E4,6.5945576E3,2.7031628E3,2.3677021E3,2.660968E3,9.060924E3,2.3535322E3,9.175097E3,4.578535E2,6.136704E3,2.401866E2,2.4629763E3,1.4641508E3,9.035513E2,7.363412E2,1.9246268E3,5.775721E3,3.2852026E3,1.4046003E3,9.4893195E2,8.0552563E2,8.36957E3,4.4265445E2,1.5199058E1,1.8903761E3,4.246328E3],"tree_param":{"num_deleted":"0","num_feature":"23","num_nodes":"31","size_leaf_vector":"1"}},{"base_weights":[6.1843228E-3,-9.362185E-2,7.677403E-1,1.036113E-1,-2.2979197E-1,3.4557143E-1,8.981249E-1,5.5757993E-1,-4.670681E-2,1.7069888E-1,-3.470983E-1,-6.323495E-1,3.9242098E-1,1.26436E0,8.1969076E-1,1.1814044E-2,5.1696016E-3,1.9663172E-3,-3.426297E-3,-1.0041136E-3,5.7923296E-3,-5.1791533E-3,5.875826E-4,-2.3113847E-2,4.2569917E-3,4.993498E-3,-9.212785E-3,-1.900992E-2,1.4615837E-2,5.79782E-3,1.0824804E-2],"categories":[],"categories_nodes":[],"categories_segments":[],"categories_sizes":[],"default_left":[1,0,0,0,0,0,0,0,0,0,0,0,0,0,0,0,0,0,0,0,0,0,0,0,0,0,0,0,0,0,0],"id":25,"left_children":[1,3,5,7,9,11,13,15,17,19,21,23,25,27,29,-1,-1,-1,-1,-1,-1,-1,-1,-1,-1,-1,-1,-1,-1,-1,-1],"loss_changes":[2.669623E3,8.340137E2,2.2346924E2,8.65569E2,8.631339E2,4.43273E1,8.780664E1,1.5481128E2,5.3523883E2,3.6672888E2,6.200272E2,6.3763695E1,5.3134842E1,4.0570618E1,1.0556299E2,0E0,0E0,0E0,0E0,0E0,0E0,0E0,0E0,0E0,0E0,0E0,0E0,0E0,0E0,0E0,0E0],"parents":[2147483647,0,0,1,1,2,2,3,3,4,4,5,5,6,6,7,7,8,8,9,9,10,10,11,11,12,12,13,13,14,14],"right_children":[2,4,6,8,10,12,14,16,18,20,22,24,26,28,30,-1,-1,-1,-1,-1,-1,-1,-1,-1,-1,-1,-1,-1,-1,-1,-1],"split_conditions":[4.028298E-1,-2.6000023E-1,4.882079E1,1.7806822E1,7.941941E0,8.5752E4,3.8422E0,6.936116E0,-1.0802593E0,9.37942E5,1.920209E-1,1.96734E1,2.3584595E0,6.2834954E-1,5.1882607E-1,1.1814044E-2,5.1696016E-3,1.9663172E-3,-3.426297E-3,-1.0041136E-3,5.7923296E-3,-5.1791533E-3,5.875826E-4,-2.3113847E-2,4.2569917E-3,4.993498E-3,-9.212785E-3,-1.900992E-2,1.4615837E-2,5.79782E-3,1.0824804E-2],"split_indices":[17,21,12,1,1,6,1,1,21,6,17,1,21,9,17,0,0,0,0,0,0,0,0,0,0,0,0,0,0,0,0],"split_type":[0,0,0,0,0,0,0,0,0,0,0,0,0,0,0,0,0,0,0,0,0,0,0,0,0,0,0,0,0,0,0],"sum_hessian":[3.5119336E4,3.1050717E4,4.0686177E3,1.2681496E4,1.836922E4,9.6130646E2,3.1073113E3,3.1540872E3,9.527409E3,4.161095E3,1.4208126E4,4.3158653E1,9.1814777E2,5.4478265E2,2.5625286E3,5.470227E2,2.6070645E3,5.1170005E3,4.4104087E3,2.360757E3,1.8003379E3,1.1150764E4,3.0573618E3,1.7622665E1,2.5535988E1,8.8398E2,3.4167786E1,3.7121155E0,5.4107056E2,7.791594E2,1.7833693E3],"tree_param":{"num_deleted":"0","num_feature":"23","num_nodes":"31","size_leaf_vector":"1"}},{"base_weights":[1.433503E-2,-4.5930973E-1,4.4376323E-1,-1.0071337E0,-2.6988134E-1,-3.441014E-1,5.8501124E-1,-1.2000228E0,-7.220215E-1,-4.2928797E-1,-5.340607E-2,-7.4966586E-1,-1.0269534E-1,3.8610306E-1,8.614093E-1,-1.1374682E-2,-1.7401382E-2,-1.30595025E-2,-6.165386E-3,-8.771005E-3,-3.4289535E-3,-3.0074115E-3,4.0001745E-4,-1.2110284E-2,-5.1680286E-3,-2.3941747E-3,6.583365E-3,2.8021424E-3,6.095686E-3,6.9087185E-3,1.0854271E-2],"categories":[],"categories_nodes":[],"categories_segments":[],"categories_sizes":[],"default_left":[1,0,0,0,0,0,0,0,0,0,1,0,0,0,0,0,0,0,0,0,0,0,0,0,0,0,0,0,0,0,0],"id":26,"left_children":[1,3,5,7,9,11,13,15,17,19,21,23,25,27,29,-1,-1,-1,-1,-1,-1,-1,-1,-1,-1,-1,-1,-1,-1,-1,-1],"loss_changes":[7.1547705E3,1.7353018E3,2.0534094E3,2.3505371E2,4.2885522E2,2.7443146E2,8.595781E2,1.666665E2,1.3215125E2,3.122638E2,9.901047E1,9.700226E1,1.3027795E2,1.9110608E2,1.5654395E2,0E0,0E0,0E0,0E0,0E0,0E0,0E0,0E0,0E0,0E0,0E0,0E0,0E0,0E0,0E0,0E0],"parents":[2147483647,0,0,1,1,2,2,3,3,4,4,5,5,6,6,7,7,8,8,9,9,10,10,11,11,12,12,13,13,14,14],"right_children":[2,4,6,8,10,12,14,16,18,20,22,24,26,28,30,-1,-1,-1,-1,-1,-1,-1,-1,-1,-1,-1,-1,-1,-1,-1,-1],"split_conditions":[1.3906182E0,1.8053279E0,2.0622199E0,5.7513195E-1,2.8621283E0,1.6489658E0,5.9941316E0,-3.120043E0,5.128202E0,2.9660326E-1,3.6637923E-1,6.4875383E0,9.57822E0,2.6300998E0,3.0596998E0,-1.1374682E-2,-1.7401382E-2,-1.30595025E-2,-6.165386E-3,-8.771005E-3,-3.4289535E-3,-3.0074115E-3,4.0001745E-4,-1.2110284E-2,-5.1680286E-3,-2.3941747E-3,6.583365E-3,2.8021424E-3,6.095686E-3,6.9087185E-3,1.0854271E-2],"split_indices":[2,8,8,2,8,8,2,14,10,2,2,10,2,2,8,0,0,0,0,0,0,0,0,0,0,0,0,0,0,0,0],"split_type":[0,0,0,0,0,0,0,0,0,0,0,0,0,0,0,0,0,0,0,0,0,0,0,0,0,0,0,0,0,0,0],"sum_hessian":[3.5174293E4,1.672582E4,1.844847E4,4.2960596E3,1.2429762E4,2.8042058E3,1.5644266E4,2.5600073E3,1.7360521E3,7.1574014E3,5.27236E3,1.0452229E3,1.7589829E3,9.099268E3,6.544998E3,1.6112759E3,9.487315E2,5.0830835E2,1.2277438E3,1.9298044E3,5.227597E3,1.5564331E3,3.7159268E3,5.0085486E2,5.443681E2,1.5190479E3,2.3993503E2,4.7401396E3,4.3591284E3,1.7954891E3,4.749509E3],"tree_param":{"num_deleted":"0","num_feature":"23","num_nodes":"31","size_leaf_vector":"1"}},{"base_weights":[2.050593E-2,-3.973489E-1,5.456976E-1,-1.0899663E0,-2.6320884E-1,1.2194004E-1,6.708315E-1,-1.3658129E0,-6.205354E-1,-4.9027777E-1,-8.778023E-2,6.025605E-1,-8.859948E-2,5.632081E-1,9.697029E-1,1.077004E-2,-1.5701799E-2,2.4420032E-3,-8.47881E-3,-1.1686879E-2,-4.679537E-3,-5.671226E-3,-1.10121444E-4,1.6195383E-2,5.861329E-3,-1.2486665E-4,-9.217452E-3,5.6380494E-3,9.31934E-3,1.3756566E-2,9.81902E-3],"categories":[],"categories_nodes":[],"categories_segments":[],"categories_sizes":[],"default_left":[1,0,0,0,0,0,0,0,0,1,1,0,0,0,0,0,0,0,0,0,0,0,0,0,0,0,0,0,0,0,0],"id":27,"left_children":[1,3,5,7,9,11,13,15,17,19,21,23,25,27,29,-1,-1,-1,-1,-1,-1,-1,-1,-1,-1,-1,-1,-1,-1,-1,-1],"loss_changes":[7.7717935E3,1.8318196E3,8.3186084E2,4.1303003E2,6.58084E2,3.6230023E2,3.8879785E2,8.5903076E1,1.2595688E2,3.018545E2,2.9987427E2,7.619772E1,1.3967207E2,1.5180933E2,7.964966E1,0E0,0E0,0E0,0E0,0E0,0E0,0E0,0E0,0E0,0E0,0E0,0E0,0E0,0E0,0E0,0E0],"parents":[2147483647,0,0,1,1,2,2,3,3,4,4,5,5,6,6,7,7,8,8,9,9,10,10,11,11,12,12,13,13,14,14],"right_children":[2,4,6,8,10,12,14,16,18,20,22,24,26,28,30,-1,-1,-1,-1,-1,-1,-1,-1,-1,-1,-1,-1,-1,-1,-1,-1],"split_conditions":[1.165348E1,6.0277295E0,1.1566209E1,6.008484E0,9.562776E0,1.3610558E1,3.3336983E1,1.6197032E0,1.89128E5,2.5163498E0,3.471265E0,-1.7920979E1,1.21868126E2,-2.6793818E0,5.297255E0,1.077004E-2,-1.5701799E-2,2.4420032E-3,-8.47881E-3,-1.1686879E-2,-4.679537E-3,-5.671226E-3,-1.10121444E-4,1.6195383E-2,5.861329E-3,-1.2486665E-4,-9.217452E-3,5.6380494E-3,9.31934E-3,1.3756566E-2,9.81902E-3],"split_indices":[3,10,10,3,10,1,3,1,6,3,3,14,1,14,1,0,0,0,0,0,0,0,0,0,0,0,0,0,0,0,0],"split_type":[0,0,0,0,0,0,0,0,0,0,0,0,0,0,0,0,0,0,0,0,0,0,0,0,0,0,0,0,0,0,0],"sum_hessian":[3.541194E4,1.9721227E4,1.5690715E4,3.1982651E3,1.6522963E4,3.5778945E3,1.211282E4,2.0129586E3,1.1853065E3,7.200267E3,9.322695E3,1.089501E3,2.4883936E3,8.908576E3,3.2042441E3,1.510403E1,1.9978545E3,1.5583025E2,1.0294763E3,9.054855E2,6.2947812E3,1.483732E3,7.838963E3,1.0102071E2,9.884802E2,2.2486726E3,2.3972102E2,7.0916216E3,1.8169541E3,9.5885095E2,2.2453933E3],"tree_param":{"num_deleted":"0","num_feature":"23","num_nodes":"31","size_leaf_vector":"1"}},{"base_weights":[1.2118843E-2,-4.2296654E-1,4.7316942E-1,-7.7500725E-1,-2.6211196E-1,3.0020553E-1,9.132215E-1,-8.0208415E-1,6.019955E-1,-1.0473786E-1,-3.8880792E-1,5.6652623E-1,1.9672842E-1,7.238539E-1,9.9176794E-1,-8.802852E-3,-1.8172083E-2,-9.84846E-3,1.0914231E-2,1.0727112E-2,-1.5909361E-3,-2.0984905E-3,-5.8600237E-3,5.2508907E-3,1.0059577E-2,3.7161878E-3,-1.6782167E-3,8.5392445E-3,-2.2278028E-2,1.134816E-2,-3.0398762E-3],"categories":[],"categories_nodes":[],"categories_segments":[],"categories_sizes":[],"default_left":[1,1,0,0,0,0,0,0,0,0,0,0,0,0,0,0,0,0,0,0,0,0,0,0,0,0,0,0,0,0,0],"id":28,"left_children":[1,3,5,7,9,11,13,15,17,19,21,23,25,27,29,-1,-1,-1,-1,-1,-1,-1,-1,-1,-1,-1,-1,-1,-1,-1,-1],"loss_changes":[7.0705576E3,1.0265042E3,1.3020503E3,2.1258301E2,2.4809076E2,3.3834985E2,7.073657E1,1.1519458E2,5.9232132E1,2.069904E2,1.792583E2,1.1344678E2,3.9908353E2,1.11227295E2,3.6595703E1,0E0,0E0,0E0,0E0,0E0,0E0,0E0,0E0,0E0,0E0,0E0,0E0,0E0,0E0,0E0,0E0],"parents":[2147483647,0,0,1,1,2,2,3,3,4,4,5,5,6,6,7,7,8,8,9,9,10,10,11,11,12,12,13,13,14,14],"right_children":[2,4,6,8,10,12,14,16,18,20,22,24,26,28,30,-1,-1,-1,-1,-1,-1,-1,-1,-1,-1,-1,-1,-1,-1,-1,-1],"split_conditions":[1.6135958E0,3.6637923E-1,9.943354E0,3.2965E7,2.19932E1,1.1422848E1,1.3274554E1,6.955962E1,4.60791E1,4.39615E-1,-1.1542339E0,6.196825E0,-4.2499924E-1,2.24144E2,3.7255466E2,-8.802852E-3,-1.8172083E-2,-9.84846E-3,1.0914231E-2,1.0727112E-2,-1.5909361E-3,-2.0984905E-3,-5.8600237E-3,5.2508907E-3,1.0059577E-2,3.7161878E-3,-1.6782167E-3,8.5392445E-3,-2.2278028E-2,1.134816E-2,-3.0398762E-3],"split_indices":[2,2,2,0,1,1,2,12,12,11,20,2,20,1,1,0,0,0,0,0,0,0,0,0,0,0,0,0,0,0,0],"split_type":[0,0,0,0,0,0,0,0,0,0,0,0,0,0,0,0,0,0,0,0,0,0,0,0,0,0,0,0,0,0,0],"sum_hessian":[3.5245445E4,1.81332E4,1.7112246E4,5.6853076E3,1.2447892E4,1.2285584E4,4.8266626E3,5.5762373E3,1.0907007E2,5.5532656E3,6.894626E3,3.4359385E3,8.8496455E3,1.4189829E3,3.4076797E3,5.4014385E3,1.747989E2,2.1058573E1,8.80115E1,1.8041971E2,5.372846E3,2.656758E3,4.2378677E3,2.5974377E3,8.385006E2,6.4153047E3,2.4343408E3,1.4047982E3,1.418472E1,3.3853926E3,2.2287136E1],"tree_param":{"num_deleted":"0","num_feature":"23","num_nodes":"31","size_leaf_vector":"1"}},{"base_weights":[1.7445033E-2,-6.64971E-1,3.847432E-1,-1.2400696E0,-4.799427E-1,1.1251873E-2,7.189568E-1,-9.154379E-1,-1.4659222E0,-1.6640952E-1,-8.1100917E-1,-2.85124E-1,1.13230415E-1,5.726382E-1,9.188623E-1,-1.3478144E-2,-6.031921E-3,-1.1465155E-2,-1.7603429E-2,-5.9149824E-3,7.382772E-4,-1.1663027E-2,-5.88176E-3,1.0085774E-3,-6.109205E-3,2.464636E-3,-1.5660303E-3,7.728937E-3,4.396115E-3,1.054929E-3,1.0836761E-2],"categories":[],"categories_nodes":[],"categories_segments":[],"categories_sizes":[],"default_left":[1,1,0,0,0,0,0,0,0,0,0,0,0,0,0,0,0,0,0,0,0,0,0,0,0,0,0,0,0,0,0],"id":29,"left_children":[1,3,5,7,9,11,13,15,17,19,21,23,25,27,29,-1,-1,-1,-1,-1,-1,-1,-1,-1,-1,-1,-1,-1,-1,-1,-1],"loss_changes":[8.827518E3,1.3103442E3,2.8578435E3,2.1799365E2,9.676665E2,3.2684445E2,3.526006E2,1.2802771E2,6.670264E1,3.937358E2,2.8704883E2,2.6240936E2,2.1030168E2,1.3986084E2,1.5257422E2,0E0,0E0,0E0,0E0,0E0,0E0,0E0,0E0,0E0,0E0,0E0,0E0,0E0,0E0,0E0,0E0],"parents":[2147483647,0,0,1,1,2,2,3,3,4,4,5,5,6,6,7,7,8,8,9,9,10,10,11,11,12,12,13,13,14,14],"right_children":[2,4,6,8,10,12,14,16,18,20,22,24,26,28,30,-1,-1,-1,-1,-1,-1,-1,-1,-1,-1,-1,-1,-1,-1,-1,-1],"split_conditions":[1.0975754E1,5.2929206E0,2.146771E0,-5.85285E0,-4.8235216E0,4.1008022E-1,9.57822E0,4.254631E0,-5.384589E-2,6.757086E-1,8.716614E0,3.580291E-2,-4.5208535E0,1.8928623E-1,1.3761057E1,-1.3478144E-2,-6.031921E-3,-1.1465155E-2,-1.7603429E-2,-5.9149824E-3,7.382772E-4,-1.1663027E-2,-5.88176E-3,1.0085774E-3,-6.109205E-3,2.464636E-3,-1.5660303E-3,7.728937E-3,4.396115E-3,1.054929E-3,1.0836761E-2],"split_indices":[4,4,2,14,14,2,2,4,17,2,4,17,14,17,4,0,0,0,0,0,0,0,0,0,0,0,0,0,0,0,0],"split_type":[0,0,0,0,0,0,0,0,0,0,0,0,0,0,0,0,0,0,0,0,0,0,0,0,0,0,0,0,0,0,0],"sum_hessian":[3.5216434E4,1.2321868E4,2.2894566E4,2.9976145E3,9.324254E3,1.0812727E4,1.2081839E4,1.2324437E3,1.7651707E3,4.7900425E3,4.5342114E3,2.7671355E3,8.0455913E3,6.978835E3,5.103004E3,7.191415E2,5.133022E2,2.8180203E2,1.4833687E3,1.8905881E3,2.8994546E3,2.6018796E3,1.9323318E3,1.1174125E3,1.649723E3,5.6909087E3,2.3546824E3,4.39705E3,2.5817852E3,2.149669E2,4.888037E3],"tree_param":{"num_deleted":"0","num_feature":"23","num_nodes":"31","size_leaf_vector":"1"}},{"base_weights":[-1.6885689E-2,-4.6908826E-1,3.965855E-1,-8.0686444E-1,-2.0401944E-1,2.0743448E-1,8.7259805E-1,-1.296326E0,-6.775617E-1,-5.3616405E-1,-9.2919976E-2,-5.5314285E-1,2.910876E-1,6.7677903E-1,9.76145E-1,-9.720204E-3,-1.6260875E-2,-1.044342E-2,-6.062901E-3,-8.539582E-3,-3.2806129E-3,6.0354164E-3,-1.6309104E-3,1.7411547E-3,-8.00995E-3,5.690472E-3,1.6890046E-3,-2.2417812E-2,7.896471E-3,6.752881E-3,1.142198E-2],"categories":[],"categories_nodes":[],"categories_segments":[],"categories_sizes":[],"default_left":[0,0,0,0,0,0,0,0,0,0,0,0,0,0,0,0,0,0,0,0,0,0,0,0,0,0,0,0,0,0,0],"id":30,"left_children":[1,3,5,7,9,11,13,15,17,19,21,23,25,27,29,-1,-1,-1,-1,-1,-1,-1,-1,-1,-1,-1,-1,-1,-1,-1,-1],"loss_changes":[6.465426E3,1.4784248E3,1.6259966E3,4.5828223E2,3.413951E2,8.2269025E2,1.03140625E2,8.94812E1,1.990935E2,1.2362512E2,2.2034473E2,1.385697E2,3.4845776E2,9.196033E1,3.8148193E1,0E0,0E0,0E0,0E0,0E0,0E0,0E0,0E0,0E0,0E0,0E0,0E0,0E0,0E0,0E0,0E0],"parents":[2147483647,0,0,1,1,2,2,3,3,4,4,5,5,6,6,7,7,8,8,9,9,10,10,11,11,12,12,13,13,14,14],"right_children":[2,4,6,8,10,12,14,16,18,20,22,24,26,28,30,-1,-1,-1,-1,-1,-1,-1,-1,-1,-1,-1,-1,-1,-1,-1,-1],"split_conditions":[1.3906182E0,8.808101E0,9.225486E0,5.128202E0,2.9660326E-1,6.9070287E0,1.3274554E1,7.5961125E-1,3.6637923E-1,1.2795412E1,-1.6470589E1,-5.304548E0,-7.700013E0,7.088E3,-2.2686234E1,-9.720204E-3,-1.6260875E-2,-1.044342E-2,-6.062901E-3,-8.539582E-3,-3.2806129E-3,6.0354164E-3,-1.6309104E-3,1.7411547E-3,-8.00995E-3,5.690472E-3,1.6890046E-3,-2.2417812E-2,7.896471E-3,6.752881E-3,1.142198E-2],"split_indices":[2,10,2,10,2,10,2,11,2,10,14,14,14,0,14,0,0,0,0,0,0,0,0,0,0,0,0,0,0,0,0],"split_type":[0,0,0,0,0,0,0,0,0,0,0,0,0,0,0,0,0,0,0,0,0,0,0,0,0,0,0,0,0,0,0],"sum_hessian":[3.457725E4,1.6515227E4,1.8062021E4,7.260425E3,9.254802E3,1.29271455E4,5.1348765E3,1.5148623E3,5.7455625E3,2.3182969E3,6.936505E3,1.2801185E3,1.1647027E4,1.77951E3,3.3553665E3,3.6182474E2,1.1530376E3,2.1283245E3,3.617238E3,1.233944E3,1.0843529E3,5.207213E2,6.415783E3,2.2744891E2,1.0526697E3,4.695288E3,6.9517393E3,1.1914392E1,1.7675956E3,2.5120619E2,3.1041602E3],"tree_param":{"num_deleted":"0","num_feature":"23","num_nodes":"31","size_leaf_vector":"1"}},{"base_weights":[1.1416913E-2,-1.5311845E-1,2.4849375E-1,2.4805067E-1,-2.2470106E-1,1.3273531E-1,6.359281E-1,3.608151E-2,5.964696E-1,-1.21751E-1,-3.3847493E-1,7.789433E-2,5.3817147E-1,1.0301782E0,4.3843E-1,-2.0422759E-3,3.713222E-3,1.0909E-2,5.233832E-3,-2.473956E-3,3.6404488E-4,5.801032E-3,-4.0679323E-3,2.1165828E-3,-9.3183585E-4,3.4021244E-3,1.02502275E-2,-1.980352E-2,1.1916249E-2,3.1263153E-3,7.2871707E-3],"categories":[],"categories_nodes":[],"categories_segments":[],"categories_sizes":[],"default_left":[1,0,0,0,0,0,0,0,0,0,0,0,0,0,0,0,0,0,0,0,0,0,0,0,0,0,0,0,0,0,0],"id":31,"left_children":[1,3,5,7,9,11,13,15,17,19,21,23,25,27,29,-1,-1,-1,-1,-1,-1,-1,-1,-1,-1,-1,-1,-1,-1,-1,-1],"loss_changes":[1.370264E3,5.955288E2,6.4523596E2,2.31772E2,2.0599536E2,2.4627176E2,2.5700525E2,1.23019516E2,5.7863342E1,1.369259E2,1.4265094E2,1.6980222E2,1.14400696E2,6.3436523E1,7.295276E1,0E0,0E0,0E0,0E0,0E0,0E0,0E0,0E0,0E0,0E0,0E0,0E0,0E0,0E0,0E0,0E0],"parents":[2147483647,0,0,1,1,2,2,3,3,4,4,5,5,6,6,7,7,8,8,9,9,10,10,11,11,12,12,13,13,14,14],"right_children":[2,4,6,8,10,12,14,16,18,20,22,24,26,28,30,-1,-1,-1,-1,-1,-1,-1,-1,-1,-1,-1,-1,-1,-1,-1,-1],"split_conditions":[5.7694397E1,7.45812E0,1.2823322E0,1.2598E6,3.0734844E1,7.822164E1,9.393402E0,6.583058E-1,8.898125E-1,1.6598E6,4.82E4,3.045933E1,1.0400417E0,7.527339E-1,6.9264114E1,-2.0422759E-3,3.713222E-3,1.0909E-2,5.233832E-3,-2.473956E-3,3.6404488E-4,5.801032E-3,-4.0679323E-3,2.1165828E-3,-9.3183585E-4,3.4021244E-3,1.02502275E-2,-1.980352E-2,1.1916249E-2,3.1263153E-3,7.2871707E-3],"split_indices":[12,1,11,0,1,12,1,22,9,0,0,1,9,9,12,0,0,0,0,0,0,0,0,0,0,0,0,0,0,0,0],"split_type":[0,0,0,0,0,0,0,0,0,0,0,0,0,0,0,0,0,0,0,0,0,0,0,0,0,0,0,0,0,0,0],"sum_hessian":[3.512562E4,2.073493E4,1.4390693E4,3.138862E3,1.7596068E4,1.1081609E4,3.3090842E3,1.9526224E3,1.1862395E3,9.239385E3,8.356683E3,9.762773E3,1.3188354E3,1.1025908E3,2.2064934E3,1.120788E3,8.318345E2,3.1842773E2,8.6781177E2,5.682777E3,3.5566084E3,1.9191983E2,8.1647627E3,5.815156E3,3.9476177E3,7.9958386E2,5.192516E2,7.182451E0,1.0954083E3,1.2283395E3,9.781538E2],"tree_param":{"num_deleted":"0","num_feature":"23","num_nodes":"31","size_leaf_vector":"1"}},{"base_weights":[-5.3128996E-4,-4.363496E-1,4.5948878E-1,-6.5696573E-1,-8.650563E-2,7.412864E-2,7.082287E-1,-1.1128376E0,-5.461572E-1,-5.1972085E-1,1.1804974E-1,-3.6183655E-1,1.9206999E-1,4.8933345E-1,8.346456E-1,-1.2938195E-2,4.668801E-3,-8.149015E-3,-4.7369595E-3,-3.7369574E-3,-9.350552E-3,4.1484297E-3,-4.6288793E-4,-1.1083691E-2,-1.8014556E-3,5.6323563E-3,2.1979139E-4,6.230655E-3,-3.954464E-4,8.034042E-3,1.1209084E-2],"categories":[],"categories_nodes":[],"categories_segments":[],"categories_sizes":[],"default_left":[1,1,0,1,1,0,0,0,0,0,0,0,0,0,0,0,0,0,0,0,0,0,0,0,0,0,0,0,0,0,0],"id":32,"left_children":[1,3,5,7,9,11,13,15,17,19,21,23,25,27,29,-1,-1,-1,-1,-1,-1,-1,-1,-1,-1,-1,-1,-1,-1,-1,-1],"loss_changes":[6.99991E3,1.3836165E3,1.6279624E3,5.544629E2,6.147241E2,3.4272534E2,2.849712E2,9.0694824E1,1.9534961E2,1.2843597E2,1.8536583E2,1.7688225E2,2.756618E2,1.1869531E2,1.2584375E2,0E0,0E0,0E0,0E0,0E0,0E0,0E0,0E0,0E0,0E0,0E0,0E0,0E0,0E0,0E0,0E0],"parents":[2147483647,0,0,1,1,2,2,3,3,4,4,5,5,6,6,7,7,8,8,9,9,10,10,11,11,12,12,13,13,14,14],"right_children":[2,4,6,8,10,12,14,16,18,20,22,24,26,28,30,-1,-1,-1,-1,-1,-1,-1,-1,-1,-1,-1,-1,-1,-1,-1,-1],"split_conditions":[1.0633199E1,1.2257589E0,2.1813817E0,2.6850357E0,5.5857916E0,4.1008022E-1,1.815147E1,2.73025E7,4.1705874E-1,-3.0499983E-1,1.7623962E1,4.200506E1,1.5568636E1,8.5548996E1,1.3274554E1,-1.2938195E-2,4.668801E-3,-8.149015E-3,-4.7369595E-3,-3.7369574E-3,-9.350552E-3,4.1484297E-3,-4.6288793E-4,-1.1083691E-2,-1.8014556E-3,5.6323563E-3,2.1979139E-4,6.230655E-3,-3.954464E-4,8.034042E-3,1.1209084E-2],"split_indices":[3,2,2,3,3,2,3,0,2,20,1,12,1,1,2,0,0,0,0,0,0,0,0,0,0,0,0,0,0,0,0],"split_type":[0,0,0,0,0,0,0,0,0,0,0,0,0,0,0,0,0,0,0,0,0,0,0,0,0,0,0,0,0,0,0],"sum_hessian":[3.4912664E4,1.792814E4,1.6984523E4,1.0993844E4,6.9342964E3,6.6633784E3,1.03211455E4,2.147496E3,8.846348E3,2.2237832E3,4.710513E3,1.4180288E3,5.2453496E3,3.7809548E3,6.5401904E3,2.1098225E3,3.7673695E1,3.781871E3,5.064477E3,1.3699473E3,8.5383594E2,1.8408864E3,2.8696267E3,3.5072382E2,1.067305E3,1.8978022E3,3.3475476E3,3.3939133E3,3.870417E2,3.5865676E3,2.9536228E3],"tree_param":{"num_deleted":"0","num_feature":"23","num_nodes":"31","size_leaf_vector":"1"}},{"base_weights":[-1.8081887E-2,-6.452332E-1,2.4730268E-1,-9.5043015E-1,-4.1722006E-1,9.046671E-2,5.4705644E-1,-1.0134535E0,-2.7798775E-1,-4.6995118E-1,4.165895E-1,2.1403959E-2,8.195364E-1,3.3888316E-1,8.1713283E-1,-9.663647E-3,-1.45476675E-2,-6.131676E-3,5.4531475E-3,-1.9170595E-2,-4.9151205E-3,-1.3106881E-2,6.1641643E-3,-9.909134E-4,2.76501E-3,1.5759482E-3,1.0065231E-2,-4.1010086E-3,4.081294E-3,8.368208E-3,1.2100113E-2],"categories":[],"categories_nodes":[],"categories_segments":[],"categories_sizes":[],"default_left":[0,0,0,0,0,0,0,0,0,0,0,0,0,0,0,0,0,0,0,0,0,0,0,0,0,0,0,0,0,0,0],"id":33,"left_children":[1,3,5,7,9,11,13,15,17,19,21,23,25,27,29,-1,-1,-1,-1,-1,-1,-1,-1,-1,-1,-1,-1,-1,-1,-1,-1],"loss_changes":[5.755094E3,7.148179E2,1.1420726E3,1.8575488E2,2.5906982E2,8.030751E2,4.686919E2,1.7308447E2,7.563094E1,2.4704395E2,7.040697E1,3.5232547E2,6.318274E1,6.892413E1,7.089453E1,0E0,0E0,0E0,0E0,0E0,0E0,0E0,0E0,0E0,0E0,0E0,0E0,0E0,0E0,0E0,0E0],"parents":[2147483647,0,0,1,1,2,2,3,3,4,4,5,5,6,6,7,7,8,8,9,9,10,10,11,11,12,12,13,13,14,14],"right_children":[2,4,6,8,10,12,14,16,18,20,22,24,26,28,30,-1,-1,-1,-1,-1,-1,-1,-1,-1,-1,-1,-1,-1,-1,-1,-1],"split_conditions":[2.1547177E0,1.6679714E0,3.98138E0,2.0057899E-1,3.0634046E-1,4.1450092E-1,5.7694397E1,-1.2999916E-1,6.964079E-1,3.542238E1,-4.7379798E-1,5.9340656E1,4.2813507E1,-8.7664795E0,7.4955284E1,-9.663647E-3,-1.45476675E-2,-6.131676E-3,5.4531475E-3,-1.9170595E-2,-4.9151205E-3,-1.3106881E-2,6.1641643E-3,-9.909134E-4,2.76501E-3,1.5759482E-3,1.0065231E-2,-4.1010086E-3,4.081294E-3,8.368208E-3,1.2100113E-2],"split_indices":[8,8,8,17,17,17,12,20,22,12,22,12,12,20,12,0,0,0,0,0,0,0,0,0,0,0,0,0,0,0,0],"split_type":[0,0,0,0,0,0,0,0,0,0,0,0,0,0,0,0,0,0,0,0,0,0,0,0,0,0,0,0,0,0,0],"sum_hessian":[3.4575812E4,1.0280405E4,2.4295404E4,4.394343E3,5.886063E3,1.5951372E4,8.344033E3,4.0170503E3,3.7729224E2,5.536599E3,3.49464E2,1.4572334E4,1.3790376E3,4.7137754E3,3.630258E3,2.5110688E3,1.5059814E3,2.8071286E2,9.657937E1,1.6034758E2,5.3762515E3,2.5304932E1,3.2415906E2,9.785507E3,4.786827E3,1.2508552E2,1.253952E3,1.354057E2,4.5783696E3,2.755707E3,8.745512E2],"tree_param":{"num_deleted":"0","num_feature":"23","num_nodes":"31","size_leaf_vector":"1"}},{"base_weights":[1.3976609E-3,2.1977647E-1,-1.4313728E-1,9.846282E-2,6.472962E-1,1.13844536E-1,-2.9478234E-1,2.0203575E-2,4.2625853E-1,1.0167009E0,5.134345E-1,3.9375573E-1,-7.32164E-2,-3.8406828E-1,3.983247E-2,-4.1531693E-4,4.0597836E-3,1.1196222E-2,3.5622376E-3,1.3477129E-2,7.017208E-3,9.358714E-3,2.9800807E-3,7.8193685E-3,2.9785987E-3,1.1139509E-3,-3.534491E-3,-2.8497986E-3,-7.2257407E-3,-3.443854E-4,4.1059977E-3],"categories":[],"categories_nodes":[],"categories_segments":[],"categories_sizes":[],"default_left":[0,0,0,0,0,0,0,0,0,0,0,0,0,0,0,0,0,0,0,0,0,0,0,0,0,0,0,0,0,0,0],"id":34,"left_children":[1,3,5,7,9,11,13,15,17,19,21,23,25,27,29,-1,-1,-1,-1,-1,-1,-1,-1,-1,-1,-1,-1,-1,-1,-1,-1],"loss_changes":[1.1025745E3,7.213619E2,8.19188E2,2.7796677E2,1.5121533E2,4.085393E2,3.9502527E2,1.6791321E2,1.3090826E2,5.4530518E1,1.7603613E2,1.2081125E2,1.9107895E2,3.5025488E2,6.3018837E1,0E0,0E0,0E0,0E0,0E0,0E0,0E0,0E0,0E0,0E0,0E0,0E0,0E0,0E0,0E0,0E0],"parents":[2147483647,0,0,1,1,2,2,3,3,4,4,5,5,6,6,7,7,8,8,9,9,10,10,11,11,12,12,13,13,14,14],"right_children":[2,4,6,8,10,12,14,16,18,20,22,24,26,28,30,-1,-1,-1,-1,-1,-1,-1,-1,-1,-1,-1,-1,-1,-1,-1,-1],"split_conditions":[1.7243303E1,1.5021387E0,-1.1542339E0,4.436298E6,4.4265738E0,6.0723667E1,-7.427311E-2,-0E0,-3.684063E-1,-8.5999966E-2,-4.69347E-1,3.045933E1,-2.630005E0,-4.0000057E-1,1.4639988E0,-4.1531693E-4,4.0597836E-3,1.1196222E-2,3.5622376E-3,1.3477129E-2,7.017208E-3,9.358714E-3,2.9800807E-3,7.8193685E-3,2.9785987E-3,1.1139509E-3,-3.534491E-3,-2.8497986E-3,-7.2257407E-3,-3.443854E-4,4.1059977E-3],"split_indices":[1,7,20,6,1,1,20,20,21,20,21,1,20,20,20,0,0,0,0,0,0,0,0,0,0,0,0,0,0,0,0],"split_type":[0,0,0,0,0,0,0,0,0,0,0,0,0,0,0,0,0,0,0,0,0,0,0,0,0,0,0,0,0,0,0],"sum_hessian":[3.4929496E4,1.3911331E4,2.1018166E4,1.0837737E4,3.0735938E3,7.7997305E3,1.3218436E4,8.75032E3,2.0874167E3,8.1527277E2,2.258321E3,3.1242988E3,4.6754316E3,1.0434502E4,2.783933E3,7.4904443E3,1.2598762E3,3.4670383E2,1.740713E3,5.684073E2,2.4686551E2,1.0059566E3,1.2523645E3,9.5915643E2,2.1651423E3,2.719457E3,1.9559746E3,6.8409336E3,3.5935688E3,2.286197E3,4.97736E2],"tree_param":{"num_deleted":"0","num_feature":"23","num_nodes":"31","size_leaf_vector":"1"}},{"base_weights":[-1.6989412E-2,-4.4822398E-1,3.9623553E-1,-9.987264E-1,-3.517426E-1,1.6578567E-1,6.2437046E-1,-1.5060629E0,-8.70162E-1,-1.6979448E-1,-4.8688745E-1,6.497924E-2,4.1937834E-1,4.5752245E-1,9.1759455E-1,-1.752129E-2,1.5487024E-2,-8.7013915E-3,-1.4749112E-2,6.4939744E-4,-3.4745766E-3,-7.0265085E-3,-3.2050118E-3,-3.0546088E-3,1.7173276E-3,-3.0275012E-4,5.35612E-3,8.932363E-3,4.450411E-3,1.4851753E-3,1.0606694E-2],"categories":[],"categories_nodes":[],"categories_segments":[],"categories_sizes":[],"default_left":[1,1,1,0,0,0,0,0,0,0,0,1,0,0,0,0,0,0,0,0,0,0,0,0,0,0,0,0,0,0,0],"id":35,"left_children":[1,3,5,7,9,11,13,15,17,19,21,23,25,27,29,-1,-1,-1,-1,-1,-1,-1,-1,-1,-1,-1,-1,-1,-1,-1,-1],"loss_changes":[6.167119E3,8.988823E2,9.288955E2,1.6283643E2,3.541786E2,2.2469324E2,4.3377515E2,5.815808E1,8.806763E1,1.9039908E2,2.234458E2,1.8173257E2,5.886493E1,1.2134924E2,4.3371338E1,0E0,0E0,0E0,0E0,0E0,0E0,0E0,0E0,0E0,0E0,0E0,0E0,0E0,0E0,0E0,0E0],"parents":[2147483647,0,0,1,1,2,2,3,3,4,4,5,5,6,6,7,7,8,8,9,9,10,10,11,11,12,12,13,13,14,14],"right_children":[2,4,6,8,10,12,14,16,18,20,22,24,26,28,30,-1,-1,-1,-1,-1,-1,-1,-1,-1,-1,-1,-1,-1,-1,-1,-1],"split_conditions":[9.981188E0,2.6263158E0,5.64102E1,2.1057151E-1,-1.9205093E-1,2.165403E1,2.4505352E1,5.0363588E7,6.1580353E1,5.782826E-1,6.867598E0,4.166666E1,3.756144E1,2.3542862E-1,4.88414E3,-1.752129E-2,1.5487024E-2,-8.7013915E-3,-1.4749112E-2,6.4939744E-4,-3.4745766E-3,-7.0265085E-3,-3.2050118E-3,-3.0546088E-3,1.7173276E-3,-3.0275012E-4,5.35612E-3,8.932363E-3,4.450411E-3,1.4851753E-3,1.0606694E-2],"split_indices":[3,3,12,5,21,3,3,6,12,5,3,12,12,5,6,0,0,0,0,0,0,0,0,0,0,0,0,0,0,0,0],"split_type":[0,0,0,0,0,0,0,0,0,0,0,0,0,0,0,0,0,0,0,0,0,0,0,0,0,0,0,0,0,0,0],"sum_hessian":[3.460621E4,1.6934232E4,1.7671977E4,2.5235251E3,1.4410707E4,8.792688E3,8.879288E3,5.0755276E2,2.0159723E3,6.143411E3,8.267296E3,6.2931206E3,2.4995684E3,5.6613145E3,3.217974E3,5.014452E2,6.1075816E0,1.6282638E3,3.8770856E2,2.30596E3,3.8374514E3,5.0154233E3,3.251872E3,1.2916332E3,5.0014873E3,2.6381326E2,2.2357551E3,9.3307635E2,4.728238E3,6.944765E1,3.1485266E3],"tree_param":{"num_deleted":"0","num_feature":"23","num_nodes":"31","size_leaf_vector":"1"}},{"base_weights":[5.462414E-3,-1.0352353E-1,6.7876565E-1,-1.5375586E-1,4.8453367E-1,4.3224093E-1,8.5885143E-1,-2.0810674E-1,1.3401121E-1,8.579198E-1,3.878269E-1,4.5022938E-1,-2.2828037E-2,2.3000553E-1,9.078344E-1,-7.6226454E-4,-3.9323107E-3,-4.30823E-3,2.4187816E-3,-7.976415E-3,1.0337476E-2,-5.605528E-3,4.852968E-3,-4.56299E-3,5.6424164E-3,3.6520243E-3,-2.0866876E-2,1.4152067E-3,1.0538828E-2],"categories":[],"categories_nodes":[],"categories_segments":[],"categories_sizes":[],"default_left":[0,1,0,0,0,0,0,0,0,0,0,0,0,0,0,0,0,0,0,0,0,0,0,0,0,0,0,0,0],"id":36,"left_children":[1,3,5,7,9,11,13,15,17,19,21,23,-1,25,27,-1,-1,-1,-1,-1,-1,-1,-1,-1,-1,-1,-1,-1,-1],"loss_changes":[2.5682954E3,8.8982666E2,2.1585547E2,4.341087E2,8.502899E1,9.135913E1,8.633081E1,4.5546637E2,1.7939795E2,4.1129486E1,6.6558685E1,8.237256E1,0E0,3.941897E1,4.2711914E1,0E0,0E0,0E0,0E0,0E0,0E0,0E0,0E0,0E0,0E0,0E0,0E0,0E0,0E0],"parents":[2147483647,0,0,1,1,2,2,3,3,4,4,5,5,6,6,7,7,8,8,9,9,10,10,11,11,13,13,14,14],"right_children":[2,4,6,8,10,12,14,16,18,20,22,24,-1,26,28,-1,-1,-1,-1,-1,-1,-1,-1,-1,-1,-1,-1,-1,-1],"split_conditions":[3.6164445E-1,2.222804E0,5.1882607E-1,2.0345873E-1,-1.1311456E-1,2.0331192E0,1E0,-8.8605404E-2,1E0,2.2943177E0,3.5E-1,-2.959999E0,-2.2828037E-2,1.9194183E0,3.5E-1,-7.6226454E-4,-3.9323107E-3,-4.30823E-3,2.4187816E-3,-7.976415E-3,1.0337476E-2,-5.605528E-3,4.852968E-3,-4.56299E-3,5.6424164E-3,3.6520243E-3,-2.0866876E-2,1.4152067E-3,1.0538828E-2],"split_indices":[17,7,17,17,17,20,13,21,13,7,16,20,0,21,16,0,0,0,0,0,0,0,0,0,0,0,0,0,0],"split_type":[0,0,0,0,0,0,0,0,0,0,0,0,0,0,0,0,0,0,0,0,0,0,0,0,0,0,0,0,0],"sum_hessian":[3.4996215E4,3.0121252E4,4.8749634E3,2.7751766E4,2.3694863E3,2.059842E3,2.815121E3,2.334369E4,4.408076E3,4.8531375E2,1.8841725E3,2.0457527E3,1.4089404E1,2.0412842E2,2.6109927E3,1.1571005E4,1.1772685E4,5.878005E2,3.8202756E3,1.5448741E1,4.69865E2,8.083623E1,1.8033363E3,1.0645369E2,1.939299E3,1.964173E2,7.7111244E0,6.867767E1,2.542315E3],"tree_param":{"num_deleted":"0","num_feature":"23","num_nodes":"29","size_leaf_vector":"1"}},{"base_weights":[-1.5930492E-2,-5.335636E-1,2.873508E-1,-1.0449003E0,-3.990384E-1,1.6668998E-1,5.9144145E-1,-1.0881609E0,1.09314874E-1,-4.3306342E-1,5.746088E-1,1.3403092E-1,7.654286E-1,5.179699E-1,8.858632E-1,-1.804566E-2,-1.1627554E-2,-1.1350379E-2,6.036787E-3,-6.4967494E-3,-2.458833E-3,1.070382E-2,-4.7548974E-4,4.7749183E-3,8.7854796E-4,-2.181931E-2,8.9992E-3,-3.333921E-4,6.518602E-3,-1.9885657E-2,1.0165608E-2],"categories":[],"categories_nodes":[],"categories_segments":[],"categories_sizes":[],"default_left":[0,0,0,0,0,0,0,0,0,0,0,0,0,0,1,0,0,0,0,0,0,0,0,0,0,0,0,0,0,0,0],"id":37,"left_children":[1,3,5,7,9,11,13,15,17,19,21,23,25,27,29,-1,-1,-1,-1,-1,-1,-1,-1,-1,-1,-1,-1,-1,-1,-1,-1],"loss_changes":[5.4361367E3,8.793076E2,8.009103E2,1.3329468E2,3.358562E2,3.0544498E2,1.3341821E2,7.947656E1,4.6060364E1,2.9526477E2,7.803626E1,2.4056824E2,6.1757477E1,1.5385815E2,3.455664E1,0E0,0E0,0E0,0E0,0E0,0E0,0E0,0E0,0E0,0E0,0E0,0E0,0E0,0E0,0E0,0E0],"parents":[2147483647,0,0,1,1,2,2,3,3,4,4,5,5,6,6,7,7,8,8,9,9,10,10,11,11,12,12,13,13,14,14],"right_children":[2,4,6,8,10,12,14,16,18,20,22,24,26,28,30,-1,-1,-1,-1,-1,-1,-1,-1,-1,-1,-1,-1,-1,-1,-1,-1],"split_conditions":[9.750531E0,5.626711E0,2.0062416E1,2.2595812E-1,3.4310418E-1,4.9667522E-1,7.1244675E-1,3.353553E0,2.891897E-2,6.8783087E-1,9.015104E-1,-4.459626E-1,1.05487E1,1E0,6.2834954E-1,-1.804566E-2,-1.1627554E-2,-1.1350379E-2,6.036787E-3,-6.4967494E-3,-2.458833E-3,1.070382E-2,-4.7548974E-4,4.7749183E-3,8.7854796E-4,-2.181931E-2,8.9992E-3,-3.333921E-4,6.518602E-3,-1.9885657E-2,1.0165608E-2],"split_indices":[10,10,10,17,17,17,17,10,19,22,9,19,10,13,9,0,0,0,0,0,0,0,0,0,0,0,0,0,0,0,0],"split_type":[0,0,0,0,0,0,0,0,0,0,0,0,0,0,0,0,0,0,0,0,0,0,0,0,0,0,0,0,0,0,0],"sum_hessian":[3.4625188E4,1.2791933E4,2.1833256E4,2.6625977E3,1.0129335E4,1.5632603E4,6.200653E3,2.5666047E3,9.5992714E1,9.788062E3,3.4127283E2,1.4825545E4,8.07058E2,4.965207E3,1.235446E3,2.841339E2,2.282471E3,2.59587E1,7.003401E1,5.948694E3,3.8393682E3,2.1333717E2,1.2793567E2,2.4417563E3,1.2383789E4,7.4109826E0,7.99647E2,4.6480356E2,4.5004033E3,3.9257534E0,1.2315204E3],"tree_param":{"num_deleted":"0","num_feature":"23","num_nodes":"31","size_leaf_vector":"1"}},{"base_weights":[-4.6693094E-4,-6.720356E-1,3.600341E-1,-1.2028747E0,-4.5920295E-1,-1.1249898E-2,6.540314E-1,-1.4682102E0,-8.7044317E-1,-8.6969507E-1,-2.8187728E-1,4.645936E-1,-9.075073E-2,4.477496E-1,8.019375E-1,-1.6972756E-2,-2.735631E-3,-1.4559817E-2,-6.249431E-3,-4.626268E-4,-1.0737465E-2,-7.879191E-3,-2.3234976E-3,-1.0677174E-3,7.3498785E-3,-3.2537642E-3,1.0355705E-3,6.167973E-3,1.9653763E-3,6.998708E-3,1.0345738E-2],"categories":[],"categories_nodes":[],"categories_segments":[],"categories_sizes":[],"default_left":[1,1,0,0,0,0,0,0,1,0,0,0,0,0,0,0,0,0,0,0,0,0,0,0,0,0,0,0,0,0,0],"id":38,"left_children":[1,3,5,7,9,11,13,15,17,19,21,23,25,27,29,-1,-1,-1,-1,-1,-1,-1,-1,-1,-1,-1,-1,-1,-1,-1,-1],"loss_changes":[8.448586E3,1.3762925E3,2.478747E3,3.0583984E2,6.3304004E2,3.7962625E2,3.8605127E2,6.5226074E1,2.0358643E2,1.6660681E2,1.9305795E2,1.4719357E2,3.069215E2,1.3914929E2,1.4923535E2,0E0,0E0,0E0,0E0,0E0,0E0,0E0,0E0,0E0,0E0,0E0,0E0,0E0,0E0,0E0,0E0],"parents":[2147483647,0,0,1,1,2,2,3,3,4,4,5,5,6,6,7,7,8,8,9,9,10,10,11,11,12,12,13,13,14,14],"right_children":[2,4,6,8,10,12,14,16,18,20,22,24,26,28,30,-1,-1,-1,-1,-1,-1,-1,-1,-1,-1,-1,-1,-1,-1,-1,-1],"split_conditions":[1.0975754E1,5.687453E0,1.9212301E0,1.9816513E0,1.8053279E0,2.2306505E-1,2.1334494E1,2.140319E7,4.254631E0,7.3104674E-1,2.8327286E-1,1.3473745E1,2.8621283E0,1.3310784E0,6.196825E0,-1.6972756E-2,-2.735631E-3,-1.4559817E-2,-6.249431E-3,-4.626268E-4,-1.0737465E-2,-7.879191E-3,-2.3234976E-3,-1.0677174E-3,7.3498785E-3,-3.2537642E-3,1.0355705E-3,6.167973E-3,1.9653763E-3,6.998708E-3,1.0345738E-2],"split_indices":[4,4,2,8,8,5,4,6,4,9,2,4,8,5,2,0,0,0,0,0,0,0,0,0,0,0,0,0,0,0,0],"split_type":[0,0,0,0,0,0,0,0,0,0,0,0,0,0,0,0,0,0,0,0,0,0,0,0,0,0,0,0,0,0,0],"sum_hessian":[3.4894504E4,1.2188445E4,2.2706059E4,3.4865427E3,8.701902E3,1.00343545E4,1.2671704E4,1.9365756E3,1.5499673E3,2.6235066E3,6.078396E3,1.4354183E3,8.598936E3,5.2939204E3,7.3777837E3,1.8934299E3,4.314562E1,6.7471924E2,8.752481E2,2.2244745E2,2.4010593E3,9.552399E2,5.123156E3,3.5437018E2,1.0810482E3,4.1403345E3,4.458601E3,3.9223706E3,1.3715497E3,2.7519739E3,4.62581E3],"tree_param":{"num_deleted":"0","num_feature":"23","num_nodes":"31","size_leaf_vector":"1"}},{"base_weights":[5.279812E-3,-5.861132E-1,2.6424497E-1,-1.2833751E0,-4.8929778E-1,5.5368324E-3,4.3545356E-1,-5.3220826E-1,-1.3901931E0,-6.741855E-1,-2.9113072E-1,-1.6128503E-1,2.5640514E-1,2.7851838E-1,6.608594E-1,1.8781819E-3,-1.5625611E-2,-1.5961483E-2,9.366669E-3,-8.853914E-3,-3.2654644E-3,-6.0637323E-3,-1.8440332E-3,-1.0471245E-2,-1.5253467E-3,1.3854763E-3,5.514901E-3,2.3690579E-3,5.5815456E-3,5.309632E-3,8.744153E-3],"categories":[],"categories_nodes":[],"categories_segments":[],"categories_sizes":[],"default_left":[0,0,0,0,0,0,0,0,0,0,0,0,0,0,0,0,0,0,0,0,0,0,0,0,0,0,0,0,0,0,0],"id":39,"left_children":[1,3,5,7,9,11,13,15,17,19,21,23,25,27,29,-1,-1,-1,-1,-1,-1,-1,-1,-1,-1,-1,-1,-1,-1,-1,-1],"loss_changes":[5.339367E3,7.157363E2,1.0738887E3,1.0266406E2,3.4126978E2,4.042285E2,5.1576685E2,9.656732E1,4.3012695E1,1.9741772E2,1.4069281E2,1.18290115E2,1.18821396E2,1.2779181E2,1.2623633E2,0E0,0E0,0E0,0E0,0E0,0E0,0E0,0E0,0E0,0E0,0E0,0E0,0E0,0E0,0E0,0E0],"parents":[2147483647,0,0,1,1,2,2,3,3,4,4,5,5,6,6,7,7,8,8,9,9,10,10,11,11,12,12,13,13,14,14],"right_children":[2,4,6,8,10,12,14,16,18,20,22,24,26,28,30,-1,-1,-1,-1,-1,-1,-1,-1,-1,-1,-1,-1,-1,-1,-1,-1],"split_conditions":[2.1737545E0,1.2921387E0,3.0430448E0,6.4866084E-1,1.8226964E0,5.795698E1,5.7823124E1,-1.01018906E-1,3.389584E0,6.5227005E1,5E1,3.399991E1,6.8955315E1,-1.7257977E-1,3.8415458E0,1.8781819E-3,-1.5625611E-2,-1.5961483E-2,9.366669E-3,-8.853914E-3,-3.2654644E-3,-6.0637323E-3,-1.8440332E-3,-1.0471245E-2,-1.5253467E-3,1.3854763E-3,5.514901E-3,2.3690579E-3,5.5815456E-3,5.309632E-3,8.744153E-3],"split_indices":[8,8,8,11,8,12,12,20,11,12,12,12,12,20,8,0,0,0,0,0,0,0,0,0,0,0,0,0,0,0,0],"split_type":[0,0,0,0,0,0,0,0,0,0,0,0,0,0,0,0,0,0,0,0,0,0,0,0,0,0,0,0,0,0,0],"sum_hessian":[3.486172E4,1.0616052E4,2.4245668E4,1.2924763E3,9.323575E3,9.656347E3,1.4589322E4,1.6192331E2,1.1305531E3,4.8216E3,4.5019756E3,5.79953E3,3.8568164E3,8.60289E3,5.9864326E3,8.906842E1,7.285489E1,1.1226162E3,7.9368234E0,3.7810557E3,1.0405444E3,1.5550903E3,2.9468853E3,1.9600015E2,5.60353E3,2.4352322E3,1.4215842E3,6.4868477E3,2.1160417E3,2.1745632E3,3.8118694E3],"tree_param":{"num_deleted":"0","num_feature":"23","num_nodes":"31","size_leaf_vector":"1"}},{"base_weights":[6.540194E-3,-6.8628484E-1,3.5496506E-1,-1.1988494E0,-4.909635E-1,1.0325743E-1,5.5666226E-1,-1.478366E0,-1.0082493E0,-9.260505E-1,-2.9986298E-1,1.6533446E-1,-2.1088627E-1,3.9661655E-1,6.551394E-1,-3.6443982E-3,-1.693646E-2,-1.1956235E-2,1.1609521E-3,-5.9436206E-3,-1.2153886E-2,-2.939253E-3,-1.1582338E-2,2.8198017E-4,4.136654E-3,1.7551867E-4,-9.391396E-3,1.488812E-5,4.924722E-3,2.7885E-3,7.848894E-3],"categories":[],"categories_nodes":[],"categories_segments":[],"categories_sizes":[],"default_left":[1,1,0,0,0,0,0,0,1,0,0,0,0,0,0,0,0,0,0,0,0,0,0,0,0,0,0,0,0,0,0],"id":40,"left_children":[1,3,5,7,9,11,13,15,17,19,21,23,25,27,29,-1,-1,-1,-1,-1,-1,-1,-1,-1,-1,-1,-1,-1,-1,-1,-1],"loss_changes":[8.421964E3,1.1678481E3,1.1783872E3,1.6950977E2,7.025056E2,2.014497E2,2.026477E2,2.0830322E1,9.7297485E1,1.4972168E2,1.7239154E2,2.4136937E2,2.3810956E2,7.261957E1,1.1928516E2,0E0,0E0,0E0,0E0,0E0,0E0,0E0,0E0,0E0,0E0,0E0,0E0,0E0,0E0,0E0,0E0],"parents":[2147483647,0,0,1,1,2,2,3,3,4,4,5,5,6,6,7,7,8,8,9,9,10,10,11,11,12,12,13,13,14,14],"right_children":[2,4,6,8,10,12,14,16,18,20,22,24,26,28,30,-1,-1,-1,-1,-1,-1,-1,-1,-1,-1,-1,-1,-1,-1,-1,-1],"split_conditions":[1.0746599E1,5.4937396E0,1.8345266E1,1.6970578E0,1.8053279E0,5.5851936E-1,2.5162659E1,6.692105E-2,2.7174434E-1,-9.882244E-3,1.4208784E0,2.7625277E0,1.1514199E0,1E0,1E0,-3.6443982E-3,-1.693646E-2,-1.1956235E-2,1.1609521E-3,-5.9436206E-3,-1.2153886E-2,-2.939253E-3,-1.1582338E-2,2.8198017E-4,4.136654E-3,1.7551867E-4,-9.391396E-3,1.488812E-5,4.924722E-3,2.7885E-3,7.848894E-3],"split_indices":[4,4,4,8,8,21,4,18,17,17,9,8,9,13,13,0,0,0,0,0,0,0,0,0,0,0,0,0,0,0,0],"split_type":[0,0,0,0,0,0,0,0,0,0,0,0,0,0,0,0,0,0,0,0,0,0,0,0,0,0,0,0,0,0,0],"sum_hessian":[3.4886375E4,1.1673226E4,2.321315E4,3.2191067E3,8.454119E3,1.0327476E4,1.2885675E4,1.3017593E3,1.9173473E3,2.578481E3,5.875638E3,8.624296E3,1.7031793E3,4.911185E3,7.97449E3,1.641647E1,1.2853428E3,1.84202E3,7.532736E1,6.8545575E2,1.8930253E3,5.5625327E3,3.1310504E2,5.0593794E3,3.5649167E3,1.2465554E3,4.566239E2,4.2531927E2,4.4858657E3,6.561635E2,7.3183267E3],"tree_param":{"num_deleted":"0","num_feature":"23","num_nodes":"31","size_leaf_vector":"1"}},{"base_weights":[4.315609E-4,-3.498384E-1,4.7954568E-1,-7.159914E-1,-2.4373437E-1,3.0694097E-1,8.2519805E-1,-8.420564E-1,-5.00402E-1,-3.359868E-1,-8.836383E-2,5.214658E-1,2.209631E-1,6.8789184E-1,9.0865177E-1,-9.8283775E-3,4.3617026E-3,-1.4328335E-2,-4.8498223E-3,-4.09815E-3,-2.8355798E-4,-1.1337564E-3,1.3393458E-2,4.7239424E-3,8.059347E-3,1.8588149E-3,6.2272856E-3,-9.950669E-3,7.978005E-3,1.077642E-2,6.7985114E-3],"categories":[],"categories_nodes":[],"categories_segments":[],"categories_sizes":[],"default_left":[1,1,0,0,0,0,0,0,1,0,0,0,0,0,0,0,0,0,0,0,0,0,0,0,0,0,0,0,0,0,0],"id":41,"left_children":[1,3,5,7,9,11,13,15,17,19,21,23,25,27,29,-1,-1,-1,-1,-1,-1,-1,-1,-1,-1,-1,-1,-1,-1,-1,-1],"loss_changes":[5.8486606E3,7.817947E2,8.7766455E2,1.2222363E2,2.23656E2,1.8085077E2,5.520923E1,8.504053E1,9.212204E1,7.6720825E1,8.5306656E1,5.523053E1,1.3113965E2,4.5040283E1,3.7883057E1,0E0,0E0,0E0,0E0,0E0,0E0,0E0,0E0,0E0,0E0,0E0,0E0,0E0,0E0,0E0,0E0],"parents":[2147483647,0,0,1,1,2,2,3,3,4,4,5,5,6,6,7,7,8,8,9,9,10,10,11,11,12,12,13,13,14,14],"right_children":[2,4,6,8,10,12,14,16,18,20,22,24,26,28,30,-1,-1,-1,-1,-1,-1,-1,-1,-1,-1,-1,-1,-1,-1,-1,-1],"split_conditions":[2.0154216E0,2.8327286E-1,9.57822E0,8.9425844E-1,1.0915908E0,1.1549603E-2,1.40553875E1,3.2965E7,5.613781E-1,1.7121783E0,1.16736E8,2.711E6,3.9145908E-1,7.088E3,5.099993E-1,-9.8283775E-3,4.3617026E-3,-1.4328335E-2,-4.8498223E-3,-4.09815E-3,-2.8355798E-4,-1.1337564E-3,1.3393458E-2,4.7239424E-3,8.059347E-3,1.8588149E-3,6.2272856E-3,-9.950669E-3,7.978005E-3,1.077642E-2,6.7985114E-3],"split_indices":[2,2,2,5,2,17,2,0,7,7,0,0,17,0,21,0,0,0,0,0,0,0,0,0,0,0,0,0,0,0,0],"split_type":[0,0,0,0,0,0,0,0,0,0,0,0,0,0,0,0,0,0,0,0,0,0,0,0,0,0,0,0,0,0,0],"sum_hessian":[3.4848613E4,2.0131133E4,1.471748E4,4.5211797E3,1.5609954E4,9.817552E3,4.899929E3,2.850436E3,1.6707435E3,9.792971E3,5.8169834E3,2.8067922E3,7.0107593E3,1.8569089E3,3.0430203E3,2.7957568E3,5.467936E1,1.4413304E2,1.5266106E3,9.057944E3,7.3502594E2,5.765589E3,5.1394276E1,1.8060375E3,1.0007547E3,5.9722866E3,1.0384725E3,1.7235044E1,1.839674E3,2.6833774E3,3.596429E2],"tree_param":{"num_deleted":"0","num_feature":"23","num_nodes":"31","size_leaf_vector":"1"}},{"base_weights":[-8.998454E-3,-5.0733168E-2,3.1482127E-1,-7.210665E-2,4.5846903E-1,8.791542E-1,2.6526573E-1,-6.984296E-1,-6.1374456E-2,5.5801016E-1,-1.2788947E0,-1.9738054E-2,9.3537134E-1,1.0771732E-1,4.50552E-1,-1.4226069E-3,-1.0547187E-2,1.0442625E-3,-9.749554E-4,8.009166E-3,1.7359293E-3,-2.1407671E-2,3.4423363E-3,1.07888445E-4,1.1302193E-2,-6.9744084E-3,1.7182813E-3,3.6973734E-3,9.385811E-3],"categories":[],"categories_nodes":[],"categories_segments":[],"categories_sizes":[],"default_left":[0,1,0,0,0,0,0,0,0,0,0,0,0,0,0,0,0,0,0,0,0,0,0,0,0,0,0,0,0],"id":42,"left_children":[1,3,5,7,9,11,13,15,17,19,21,-1,23,25,27,-1,-1,-1,-1,-1,-1,-1,-1,-1,-1,-1,-1,-1,-1],"loss_changes":[4.68996E2,3.3457538E2,1.1035397E2,1.9816905E2,2.148244E2,4.8638046E1,1.0622748E2,6.550064E1,1.0929604E2,6.9946625E1,6.5674385E1,0E0,1.7444733E1,6.2299084E1,7.811926E1,0E0,0E0,0E0,0E0,0E0,0E0,0E0,0E0,0E0,0E0,0E0,0E0,0E0,0E0],"parents":[2147483647,0,0,1,1,2,2,3,3,4,4,5,5,6,6,7,7,8,8,9,9,10,10,12,12,13,13,14,14],"right_children":[2,4,6,8,10,12,14,16,18,20,22,-1,24,26,28,-1,-1,-1,-1,-1,-1,-1,-1,-1,-1,-1,-1,-1,-1],"split_conditions":[7.1466E6,1.9179535E0,-7.486369E-1,5.4017648E-2,6.291332E-1,1.7571428E-1,5.5E-1,7.3262244E-1,1E0,1.1757145E0,3.144197E0,-1.9738054E-2,9.1495776E-1,7.961707E-1,1.597156E0,-1.4226069E-3,-1.0547187E-2,1.0442625E-3,-9.749554E-4,8.009166E-3,1.7359293E-3,-2.1407671E-2,3.4423363E-3,1.07888445E-4,1.1302193E-2,-6.9744084E-3,1.7182813E-3,3.6973734E-3,9.385811E-3],"split_indices":[0,11,19,5,19,5,16,11,15,5,5,0,9,9,5,0,0,0,0,0,0,0,0,0,0,0,0,0,0],"split_type":[0,0,0,0,0,0,0,0,0,0,0,0,0,0,0,0,0,0,0,0,0,0,0,0,0,0,0,0,0],"sum_hessian":[3.47039E4,3.0743086E4,3.9608127E3,2.9505861E4,1.237225E3,3.1797626E2,3.6428364E3,4.9562582E2,2.9010236E4,1.1709772E3,6.624783E1,5.9274516E0,3.1204883E2,1.9702035E3,1.672633E3,1.4315817E2,3.5246765E2,4.0013728E3,2.5008863E4,8.568612E2,3.1411597E2,4.7781406E1,1.8466429E1,1.9464663E1,2.9258417E2,1.1141184E2,1.8587916E3,1.2585621E3,4.1407092E2],"tree_param":{"num_deleted":"0","num_feature":"23","num_nodes":"29","size_leaf_vector":"1"}},{"base_weights":[-4.932698E-3,-1.21231176E-1,5.5452645E-1,-4.0908545E-1,-6.453426E-2,3.6783054E-1,7.8132504E-1,-4.598874E-1,8.123648E-2,-1.944011E-1,8.115088E-2,1.9518176E-1,5.786089E-1,5.1404774E-1,9.0322006E-1,2.92907E-4,-5.8659166E-3,-2.1063901E-2,1.9034516E-3,-2.7759417E-3,9.857356E-4,3.5150687E-3,-5.5315715E-5,4.1171694E-3,-6.7247247E-4,-3.7399726E-3,6.9049555E-3,6.3413763E-3,-2.3428503E-2,1.0388159E-2,-2.9227568E-3],"categories":[],"categories_nodes":[],"categories_segments":[],"categories_sizes":[],"default_left":[0,0,0,0,0,0,0,0,0,0,0,0,0,0,0,0,0,0,0,0,0,0,0,0,0,0,0,0,0,0,0],"id":43,"left_children":[1,3,5,7,9,11,13,15,17,19,21,23,25,27,29,-1,-1,-1,-1,-1,-1,-1,-1,-1,-1,-1,-1,-1,-1,-1,-1],"loss_changes":[2.2597078E3,4.691778E2,2.5257874E2,1.1794745E2,4.5457227E2,1.1914157E2,8.713464E1,1.1903247E2,7.464446E1,1.7963876E2,2.2277832E2,7.71203E1,4.045688E1,9.9118835E1,2.6923706E1,0E0,0E0,0E0,0E0,0E0,0E0,0E0,0E0,0E0,0E0,0E0,0E0,0E0,0E0,0E0,0E0],"parents":[2147483647,0,0,1,1,2,2,3,3,4,4,5,5,6,6,7,7,8,8,9,9,10,10,11,11,12,12,13,13,14,14],"right_children":[2,4,6,8,10,12,14,16,18,20,22,24,26,28,30,-1,-1,-1,-1,-1,-1,-1,-1,-1,-1,-1,-1,-1,-1,-1,-1],"split_conditions":[3.0634046E-1,4.3988636E1,5.1882607E-1,2.491089E-1,8.2946616E-1,5.7823124E1,5.323482E1,-4.424102E-2,8.023242E-1,1.8928623E-1,-3.0893573E-1,1.0654132E0,7.3104674E-1,1.1718569E1,8.797137E-1,2.92907E-4,-5.8659166E-3,-2.1063901E-2,1.9034516E-3,-2.7759417E-3,9.857356E-4,3.5150687E-3,-5.5315715E-5,4.1171694E-3,-6.7247247E-4,-3.7399726E-3,6.9049555E-3,6.3413763E-3,-2.3428503E-2,1.0388159E-2,-2.9227568E-3],"split_indices":[17,12,17,17,18,12,12,17,9,17,19,9,9,5,18,0,0,0,0,0,0,0,0,0,0,0,0,0,0,0,0],"split_type":[0,0,0,0,0,0,0,0,0,0,0,0,0,0,0,0,0,0,0,0,0,0,0,0,0,0,0,0,0,0,0],"sum_hessian":[3.4729254E4,2.8753275E4,5.9759775E3,4.729834E3,2.4023441E4,3.279759E3,2.6962183E3,4.2861504E3,4.436834E2,1.2701663E4,1.1321778E4,1.8045496E3,1.4752096E3,8.4672064E2,1.8494977E3,4.507655E2,3.835385E3,1.792052E1,4.2576288E2,1.0776692E4,1.9249708E3,3.0948164E3,8.226962E3,1.0878118E3,7.1673785E2,4.6603077E1,1.4286064E3,8.331545E2,1.3566183E1,1.8303792E3,1.9118492E1],